{
    "tensor_map": {
        "embedding_layers.0.weight": {
            "shape": [
                4,
                9
            ],
            "data": [
                0.5386825799942017,
                -1.2231247425079346,
                0.21636347472667694,
                0.8045595288276672,
                0.2501199543476105,
                -1.3320960998535156,
                -0.6761777400970459,
                -0.5755577087402344,
                -0.030966520309448242,
                0.9393338561058044,
                -0.7012959122657776,
                -0.8551465272903442,
                -0.2188989371061325,
                0.4565182030200958,
                0.3874996602535248,
                0.9950270056724548,
                -1.085806131362915,
                1.313857913017273,
                1.452471137046814,
                0.5605557560920715,
                -0.2561451196670532,
                -0.37302055954933167,
                -0.21190567314624786,
                -0.5122911334037781,
                1.8238576650619507,
                -1.5643601417541504,
                0.9060562252998352,
                -1.235045313835144,
                0.01520015113055706,
                0.7504756450653076,
                -1.2938472032546997,
                -0.2733389139175415,
                -2.103461265563965,
                -0.05555123835802078,
                1.7082712650299072,
                0.22647835314273834
            ]
        },
        "embedding_layers.1.weight": {
            "shape": [
                5,
                9
            ],
            "data": [
                -2.0654373168945312,
                -0.5159820914268494,
                0.33807572722435,
                -0.28468057513237,
                0.11881126463413239,
                0.08046877384185791,
                1.6626179218292236,
                -1.5567717552185059,
                -1.7026057243347168,
                0.12156882137060165,
                0.010822160169482231,
                0.5844780206680298,
                -0.4695774018764496,
                0.10516244173049927,
                0.2514970004558563,
                -1.2620877027511597,
                -1.378172516822815,
                -1.3657398223876953,
                -0.8714986443519592,
                -0.5365228652954102,
                -2.7769131660461426,
                0.40930819511413574,
                -0.6610809564590454,
                0.48769083619117737,
                -0.4059910178184509,
                0.05182629078626633,
                -0.571757972240448,
                -0.3553701937198639,
                0.5266051888465881,
                -2.0651297569274902,
                0.2831268012523651,
                -0.682521641254425,
                0.24694369733333588,
                -0.7123264074325562,
                -0.6047108173370361,
                1.262139916419983,
                0.2782783806324005,
                0.012101312167942524,
                1.3181798458099365,
                -1.3445709943771362,
                -0.9285385608673096,
                -0.5280905961990356,
                0.8546295762062073,
                -1.0856753587722778,
                0.7473032474517822
            ]
        },
        "embedding_layers.2.weight": {
            "shape": [
                4,
                9
            ],
            "data": [
                0.8969189524650574,
                -0.4514428973197937,
                -0.08658087253570557,
                -0.5047292709350586,
                0.40436461567878723,
                -0.3976094722747803,
                0.6899073123931885,
                0.33558139204978943,
                -1.2778288125991821,
                0.5928183794021606,
                -0.5075541734695435,
                0.22142833471298218,
                -0.690926194190979,
                -0.3211599290370941,
                0.18696507811546326,
                -1.3491216897964478,
                -0.6757637858390808,
                -0.29753950238227844,
                0.4990077614784241,
                -1.3937098979949951,
                -0.0020659328438341618,
                -1.2704744338989258,
                -1.0502113103866577,
                -0.811409592628479,
                -0.8390846252441406,
                1.0360007286071777,
                1.4814823865890503,
                0.8489022254943848,
                1.7073564529418945,
                0.49309441447257996,
                0.4584144055843353,
                -0.09836407750844955,
                -1.6757524013519287,
                -1.620180606842041,
                -1.4164142608642578,
                -0.5319806933403015
            ]
        },
        "embedding_layers.3.weight": {
            "shape": [
                4,
                9
            ],
            "data": [
                1.4285579919815063,
                -0.8738946318626404,
                -0.3762843906879425,
                -0.49462470412254333,
                0.7023582458496094,
                -0.08408991992473602,
                0.10604186356067657,
                0.8384009599685669,
                -1.1188950538635254,
                1.2857228517532349,
                -0.8092555999755859,
                1.5987646579742432,
                1.559447169303894,
                -0.8618654608726501,
                -1.0172125101089478,
                -0.4941334128379822,
                0.7260631918907166,
                -0.7841679453849792,
                0.14185918867588043,
                1.597654938697815,
                0.33110252022743225,
                -0.780390202999115,
                0.5261335968971252,
                1.9157216548919678,
                -0.42197173833847046,
                -0.8849033713340759,
                -1.180933952331543,
                -0.8681437969207764,
                -1.5004653930664062,
                -0.09911525994539261,
                -0.00040332323987968266,
                0.7513927817344666,
                0.9324253797531128,
                -0.389291375875473,
                0.41562503576278687,
                -0.2336128205060959
            ]
        },
        "embedding_layers.4.weight": {
            "shape": [
                5,
                9
            ],
            "data": [
                1.0687452554702759,
                -0.20481863617897034,
                -0.7524154782295227,
                0.6335415840148926,
                -1.0321085453033447,
                0.8724888563156128,
                0.5952712893486023,
                -0.8673891425132751,
                -1.4873294830322266,
                -0.8911534547805786,
                -1.5223478078842163,
                0.3831964433193207,
                -0.2863668203353882,
                -0.2631968557834625,
                -1.2330548763275146,
                -0.6640212535858154,
                -0.6890757083892822,
                -2.395463466644287,
                -0.13640005886554718,
                1.2889997959136963,
                0.10177439451217651,
                -0.8382893800735474,
                0.21278487145900726,
                -0.5637797117233276,
                -2.9043807983398438,
                1.1104170083999634,
                -0.37872618436813354,
                -0.7142733335494995,
                -0.321001261472702,
                1.0870780944824219,
                -1.501896858215332,
                1.4163012504577637,
                -0.4624359607696533,
                -0.23049037158489227,
                -0.740892767906189,
                -1.136925220489502,
                0.49319687485694885,
                -0.6956396698951721,
                -0.3220765292644501,
                0.19533194601535797,
                -0.3909495174884796,
                0.5416682958602905,
                1.71002995967865,
                -1.4128403663635254,
                -1.2148497104644775
            ]
        },
        "embedding_layers.5.weight": {
            "shape": [
                3,
                9
            ],
            "data": [
                -0.12969209253787994,
                0.13786248862743378,
                0.02053263410925865,
                0.7475965619087219,
                -0.9135488867759705,
                -0.5124495029449463,
                1.0356242656707764,
                0.5959399938583374,
                -0.7121086120605469,
                -0.2568751275539398,
                0.06413566321134567,
                -1.3038089275360107,
                -1.4651824235916138,
                -0.858936607837677,
                0.7994056344032288,
                -1.338509440422058,
                -0.06220757216215134,
                -1.45462167263031,
                1.1054809093475342,
                -1.5897202491760254,
                0.6609541177749634,
                -0.6113574504852295,
                0.1735885590314865,
                -0.2556229829788208,
                1.1347414255142212,
                -1.2144482135772705,
                -2.7123172283172607
            ]
        },
        "embedding_layers.6.weight": {
            "shape": [
                3,
                9
            ],
            "data": [
                -0.5016744136810303,
                0.17133474349975586,
                0.49235785007476807,
                1.5261255502700806,
                0.36645302176475525,
                0.17047256231307983,
                -1.3172869682312012,
                0.7490333914756775,
                0.9596470594406128,
                0.4184943437576294,
                -0.6719145774841309,
                0.3076114058494568,
                -0.21133063733577728,
                1.5616588592529297,
                -1.238599419593811,
                0.5853983163833618,
                1.0860410928726196,
                -0.22652965784072876,
                -0.36457470059394836,
                0.3035939335823059,
                0.035350773483514786,
                1.0716041326522827,
                0.8167945146560669,
                0.9191358089447021,
                -0.20542360842227936,
                0.46007853746414185,
                0.5597161650657654
            ]
        },
        "embedding_layers.7.weight": {
            "shape": [
                3,
                9
            ],
            "data": [
                -0.6151559948921204,
                -0.6881729364395142,
                1.3061155080795288,
                -0.3727884888648987,
                -1.518439769744873,
                -0.35444381833076477,
                0.08935031294822693,
                -0.618860125541687,
                0.27837273478507996,
                -0.19659386575222015,
                0.7879291772842407,
                -0.004496024921536446,
                -0.18935924768447876,
                -1.3821791410446167,
                -0.39483776688575745,
                0.23695838451385498,
                -0.363796591758728,
                1.1775988340377808,
                -1.4759314060211182,
                0.9258789420127869,
                1.938821792602539,
                2.2467644214630127,
                -0.018806643784046173,
                0.16056621074676514,
                0.9898784160614014,
                1.6688511371612549,
                -0.1577335149049759
            ]
        },
        "embedding_layers.8.weight": {
            "shape": [
                84,
                9
            ],
            "data": [
                -0.43981367349624634,
                1.9456771612167358,
                -0.7769467234611511,
                1.3914412260055542,
                1.7918860912322998,
                -0.02661231718957424,
                -0.1416073888540268,
                -1.0642350912094116,
                -0.35753458738327026,
                0.6812329888343811,
                1.387572169303894,
                -0.3291877806186676,
                -0.2308899611234665,
                0.4980248808860779,
                1.7077549695968628,
                -1.3807357549667358,
                -0.7343916893005371,
                -1.5367403030395508,
                -0.33456987142562866,
                -1.0523451566696167,
                -0.39760807156562805,
                -0.27133193612098694,
                0.23810431361198425,
                0.8760099411010742,
                -0.08603402227163315,
                -0.13339680433273315,
                -0.5880300998687744,
                -0.2625913918018341,
                -0.23550766706466675,
                0.33604514598846436,
                -1.158102035522461,
                0.7349678874015808,
                1.4912009239196777,
                -1.2251945734024048,
                -1.3724228143692017,
                -0.7650843858718872,
                1.1836131811141968,
                -0.03978479653596878,
                1.179969310760498,
                0.45564061403274536,
                1.966892957687378,
                -1.702185034751892,
                -0.46953079104423523,
                -0.18292513489723206,
                0.29346558451652527,
                0.05009627342224121,
                -0.5854517817497253,
                -0.8150551915168762,
                0.20339013636112213,
                0.5707092881202698,
                -0.7529481649398804,
                -1.0342042446136475,
                -0.345744788646698,
                0.9905319213867188,
                -0.6117652058601379,
                1.9854412078857422,
                0.011336980387568474,
                0.9500645399093628,
                0.7500795722007751,
                0.7812373042106628,
                -2.0510005950927734,
                -1.394279956817627,
                1.1969645023345947,
                1.5445219278335571,
                -0.7391642928123474,
                -1.016427993774414,
                -0.22383765876293182,
                -0.09507183730602264,
                -0.7583260536193848,
                -0.908393919467926,
                0.4772181808948517,
                0.03228152543306351,
                0.6208986639976501,
                0.3048381209373474,
                -1.4110862016677856,
                -0.6580792665481567,
                1.017593264579773,
                -0.3463934063911438,
                -0.8551998734474182,
                0.9149991869926453,
                -0.34204745292663574,
                -0.9541757106781006,
                -0.2339663952589035,
                -0.3781032860279083,
                -0.7257389426231384,
                0.051711760461330414,
                -0.5377618670463562,
                -0.8743905425071716,
                -0.4952666759490967,
                -0.06295622885227203,
                -1.9223508834838867,
                0.2809460163116455,
                0.7329400181770325,
                -0.5845727920532227,
                1.755000114440918,
                0.8229633569717407,
                -0.8076098561286926,
                -0.8072850704193115,
                -0.25049328804016113,
                -0.6472958922386169,
                0.747490406036377,
                -0.9039328694343567,
                -0.32864251732826233,
                0.454170286655426,
                -2.3524816036224365,
                0.2242419570684433,
                0.7254408001899719,
                0.43284884095191956,
                1.362710952758789,
                1.4803811311721802,
                0.6109046339988708,
                0.24360692501068115,
                0.5340454578399658,
                -0.8311700820922852,
                2.1552035808563232,
                -0.1564188003540039,
                1.1872166395187378,
                -0.24351879954338074,
                0.3165819048881531,
                -1.3779934644699097,
                1.2585591077804565,
                -0.508133590221405,
                0.767828106880188,
                -0.5838164687156677,
                0.3434474468231201,
                -0.2765716314315796,
                -0.013399573974311352,
                -2.271226644515991,
                -0.38962695002555847,
                0.5749193429946899,
                1.2791765928268433,
                -0.31069809198379517,
                0.3352598249912262,
                0.5425739884376526,
                0.20116779208183289,
                1.2700166702270508,
                0.2752573490142822,
                0.6139498353004456,
                0.47522103786468506,
                0.8730672001838684,
                -0.9523521065711975,
                -2.143115520477295,
                0.463557630777359,
                0.9576728940010071,
                -2.6390597820281982,
                -2.709538698196411,
                0.3396086096763611,
                0.33884769678115845,
                0.08613446354866028,
                -0.9199714064598083,
                -0.5907624363899231,
                0.6597537994384766,
                -1.1996698379516602,
                -1.518263339996338,
                0.7204245924949646,
                0.4349961280822754,
                -0.8498513102531433,
                1.0739600658416748,
                -0.07575789093971252,
                -0.8571836948394775,
                -1.2325724363327026,
                0.1870415061712265,
                -1.8359771966934204,
                -1.0063525438308716,
                0.41881605982780457,
                -1.3789628744125366,
                1.304286241531372,
                -1.7498191595077515,
                0.1906193494796753,
                1.1799484491348267,
                0.7782590389251709,
                -0.6470881700515747,
                -0.03762441128492355,
                1.4499192237854004,
                1.2577399015426636,
                0.14055463671684265,
                -1.409834623336792,
                -0.265215128660202,
                -0.05804520845413208,
                0.7206572890281677,
                1.0513806343078613,
                0.29911863803863525,
                -0.16886591911315918,
                -0.11853187531232834,
                1.7580735683441162,
                -1.6469923257827759,
                0.44210124015808105,
                1.2681957483291626,
                0.1752842515707016,
                -0.35821858048439026,
                -0.9478124380111694,
                0.9612260460853577,
                1.8247613906860352,
                0.1755768060684204,
                -1.4774352312088013,
                0.006566676311194897,
                -0.025788087397813797,
                -0.5125080347061157,
                -0.820650577545166,
                0.9325079321861267,
                -0.8683192729949951,
                -0.7505345344543457,
                -1.48895263671875,
                0.9200406670570374,
                1.446424961090088,
                0.4825131893157959,
                0.014743391424417496,
                -0.9339793920516968,
                -0.6236529350280762,
                0.3826149106025696,
                0.4974668025970459,
                -0.4709232449531555,
                -1.1528661251068115,
                -0.94057697057724,
                0.7036754488945007,
                -0.33392825722694397,
                0.7175620198249817,
                0.9973922371864319,
                1.7089611291885376,
                -0.8789224028587341,
                2.162142038345337,
                -0.35213667154312134,
                -0.2682710587978363,
                0.37834829092025757,
                1.2538068294525146,
                0.38724616169929504,
                -1.8350110054016113,
                0.14259284734725952,
                -0.4651632010936737,
                1.4853540658950806,
                0.24059416353702545,
                0.4473678171634674,
                0.011709275655448437,
                -0.7846226692199707,
                0.43644726276397705,
                -0.928969144821167,
                -1.067522406578064,
                0.9274802207946777,
                1.2932655811309814,
                -0.3296424448490143,
                0.31459149718284607,
                -0.2637360095977783,
                -0.02882382832467556,
                0.9130499958992004,
                -0.733218789100647,
                2.4738059043884277,
                2.405815362930298,
                -1.662494421005249,
                -0.31838926672935486,
                -0.9929167032241821,
                0.07209201157093048,
                0.0913623571395874,
                0.5030728578567505,
                0.049052171409130096,
                -0.136435404419899,
                0.1482103168964386,
                1.2944527864456177,
                -2.539623737335205,
                -1.2248125076293945,
                -0.5342006683349609,
                0.3918169140815735,
                0.2927110493183136,
                0.7448245882987976,
                0.4301115870475769,
                -0.41974303126335144,
                -0.4694683849811554,
                1.568331241607666,
                0.64825439453125,
                -1.5894477367401123,
                0.8140500783920288,
                -2.1887853145599365,
                0.0324576161801815,
                1.3407028913497925,
                -0.3733711540699005,
                1.62022066116333,
                0.8267313838005066,
                -1.2562059164047241,
                0.835729718208313,
                -0.935332715511322,
                -0.04255044460296631,
                0.4176880121231079,
                -0.5324157476425171,
                0.7540633082389832,
                0.20949438214302063,
                0.030571984127163887,
                0.5075840950012207,
                0.17423224449157715,
                0.04303417354822159,
                0.8217629790306091,
                0.08910471946001053,
                -0.48509690165519714,
                2.093752384185791,
                1.1001986265182495,
                -0.5446513295173645,
                -1.3291674852371216,
                -0.2934304475784302,
                -0.05660957098007202,
                1.1288607120513916,
                -0.28369826078414917,
                0.21315206587314606,
                1.297368049621582,
                -0.421596497297287,
                -1.41426682472229,
                0.007811581715941429,
                -1.414620280265808,
                1.8369826078414917,
                0.14432166516780853,
                1.2396154403686523,
                -0.2054755985736847,
                0.07521593570709229,
                -1.1614208221435547,
                1.0876491069793701,
                -0.30716583132743835,
                -0.43422603607177734,
                1.069368600845337,
                -0.7568968534469604,
                -0.5940222144126892,
                -0.7651290893554688,
                -0.15451680123806,
                0.17414017021656036,
                -0.5535218119621277,
                -0.5595707893371582,
                -0.8326997756958008,
                0.3407450020313263,
                -0.38446280360221863,
                0.571483850479126,
                -0.5200581550598145,
                -0.33185237646102905,
                0.23110362887382507,
                -0.5014301538467407,
                -1.1294524669647217,
                -0.4614849388599396,
                -1.0473437309265137,
                2.104947566986084,
                -1.2107455730438232,
                -0.9217702150344849,
                -0.2862465977668762,
                0.1034620925784111,
                -1.0628166198730469,
                -0.8222648501396179,
                0.2938825786113739,
                -0.38682663440704346,
                0.8803192377090454,
                -1.1283512115478516,
                0.2639995813369751,
                1.348989486694336,
                0.7348213791847229,
                -0.9491555094718933,
                1.6577723026275635,
                1.0367591381072998,
                -0.14908373355865479,
                1.0332759618759155,
                -0.5579301714897156,
                0.6427091360092163,
                1.2528671026229858,
                1.0831482410430908,
                -0.6437197923660278,
                0.704100489616394,
                0.3233160674571991,
                -1.241394281387329,
                -0.16639401018619537,
                1.1137495040893555,
                1.3706715106964111,
                1.1739202737808228,
                -1.2939802408218384,
                0.21125797927379608,
                0.5884325504302979,
                0.34759458899497986,
                0.9607090353965759,
                2.0567617416381836,
                -0.3934192657470703,
                0.6140842437744141,
                1.266596794128418,
                0.9666843414306641,
                -1.0022658109664917,
                0.3250167965888977,
                0.5078117251396179,
                -0.11849210411310196,
                -0.7260280847549438,
                -1.3986246585845947,
                -1.7965823411941528,
                -1.0282034873962402,
                -0.1674828678369522,
                2.0656850337982178,
                -0.4653567671775818,
                0.6076459884643555,
                0.3354993760585785,
                -0.18153803050518036,
                -0.8000653982162476,
                0.5489575266838074,
                1.1158462762832642,
                -0.4857434928417206,
                0.14321686327457428,
                1.5548226833343506,
                0.4090864658355713,
                -1.6095800399780273,
                -1.3565936088562012,
                -1.1814355850219727,
                -0.7170066237449646,
                0.2124258428812027,
                0.8347558379173279,
                -1.147384524345398,
                1.2210428714752197,
                0.7099739909172058,
                -0.8195093870162964,
                0.18149414658546448,
                1.0444748401641846,
                -0.5784167051315308,
                -0.3912234306335449,
                -0.12408816069364548,
                -0.27070969343185425,
                -0.058307185769081116,
                0.3610505759716034,
                -0.5636810660362244,
                2.1354708671569824,
                0.7572158575057983,
                -0.25272253155708313,
                -2.662201166152954,
                1.3698740005493164,
                1.4656095504760742,
                -0.3468700349330902,
                -0.46151092648506165,
                0.28448188304901123,
                -0.4262462556362152,
                0.954085111618042,
                0.41659000515937805,
                0.17152614891529083,
                -2.2633090019226074,
                -0.6948061585426331,
                0.07882236689329147,
                0.25241151452064514,
                1.2902787923812866,
                -0.12564200162887573,
                0.9101403951644897,
                -0.36117222905158997,
                0.7455016374588013,
                0.1936505138874054,
                -0.6793241500854492,
                0.18693703413009644,
                -1.9798833131790161,
                0.08754952251911163,
                0.4527827501296997,
                -0.8627629280090332,
                -0.6604925394058228,
                -0.5085885524749756,
                1.1360423564910889,
                -0.3741360604763031,
                0.05282854661345482,
                -1.3078548908233643,
                -0.6536455750465393,
                -1.0002471208572388,
                0.8573596477508545,
                -1.1649821996688843,
                -0.21172282099723816,
                0.7295671105384827,
                1.7383030652999878,
                0.5843527913093567,
                -0.6804401278495789,
                -1.3303117752075195,
                0.46125444769859314,
                -1.3806865215301514,
                0.05156663805246353,
                -1.2215031385421753,
                1.4554883241653442,
                0.07926469296216965,
                0.6096381545066833,
                -0.1654725968837738,
                -0.2837854027748108,
                0.6669286489486694,
                0.21347478032112122,
                0.8014670610427856,
                0.6043537855148315,
                -0.7040333151817322,
                1.1850098371505737,
                -0.36649173498153687,
                1.652678370475769,
                -1.4773550033569336,
                1.1973240375518799,
                -0.10993583500385284,
                -0.7588376402854919,
                -0.16539683938026428,
                0.00668272003531456,
                -0.0763656347990036,
                1.4072588682174683,
                -1.0868605375289917,
                -1.0358120203018188,
                -0.42131876945495605,
                1.121428370475769,
                -0.7428138256072998,
                -0.9028733968734741,
                -0.7836593985557556,
                0.9241681098937988,
                0.3546648919582367,
                1.2894296646118164,
                0.3607805669307709,
                -1.551683783531189,
                1.6002538204193115,
                -1.825866460800171,
                -0.01943245157599449,
                -0.5459670424461365,
                0.1434878557920456,
                0.22336933016777039,
                -0.7644546627998352,
                -0.29085931181907654,
                1.0542112588882446,
                0.15148621797561646,
                0.0804520845413208,
                2.4906575679779053,
                -0.18488427996635437,
                1.092226505279541,
                -0.6494976878166199,
                1.5365002155303955,
                1.0296355485916138,
                -1.0111545324325562,
                0.0071635618805885315,
                -0.7959567308425903,
                0.3756757080554962,
                -0.7938330769538879,
                -0.005793964024633169,
                -1.308261513710022,
                -0.14361053705215454,
                -0.3009020984172821,
                -0.22871923446655273,
                0.3415757715702057,
                0.15483319759368896,
                0.005744967143982649,
                1.8697564601898193,
                -0.24187834560871124,
                -1.1587061882019043,
                1.6012370586395264,
                0.6713019609451294,
                -0.15578900277614594,
                0.5121848583221436,
                0.25465697050094604,
                -1.2141667604446411,
                -0.43987786769866943,
                0.004247922915965319,
                -1.2660531997680664,
                1.0281062126159668,
                -0.7999319434165955,
                -0.5450658202171326,
                -1.213932991027832,
                -1.1677876710891724,
                0.047343507409095764,
                1.058164358139038,
                0.5340393781661987,
                0.04612169414758682,
                0.6900922060012817,
                -1.8569599390029907,
                0.5674648880958557,
                -0.6634992361068726,
                1.038807988166809,
                -0.8990864753723145,
                -1.2810560464859009,
                0.6854852437973022,
                -0.754723072052002,
                0.34807687997817993,
                0.3930535614490509,
                -0.5249956250190735,
                0.16673098504543304,
                -2.437288761138916,
                -1.4304591417312622,
                -1.4640355110168457,
                -0.09241463243961334,
                0.8743252158164978,
                1.4140448570251465,
                -0.1416761875152588,
                1.223453402519226,
                -0.5869157314300537,
                -2.062155246734619,
                0.3163616955280304,
                -0.9613298177719116,
                -0.13108772039413452,
                -0.06853819638490677,
                0.4776015281677246,
                1.9851382970809937,
                0.9627697467803955,
                0.3176320791244507,
                -0.7673913836479187,
                -0.08945490419864655,
                -0.7719486951828003,
                1.5677496194839478,
                0.6256980299949646,
                -0.16569921374320984,
                0.9849905967712402,
                -0.5597233772277832,
                -1.8403451442718506,
                -0.4973171353340149,
                -0.04340699687600136,
                0.6138755083084106,
                -0.5105941295623779,
                -0.0681595429778099,
                -1.0817105770111084,
                0.443187952041626,
                0.6820458769798279,
                -0.42404308915138245,
                0.12583695352077484,
                -0.33755627274513245,
                -0.208794966340065,
                -1.7326511144638062,
                0.7343401312828064,
                1.790399193763733,
                0.9251415729522705,
                -1.782365322113037,
                -1.1729992628097534,
                1.3560776710510254,
                0.47929081320762634,
                -1.4262568950653076,
                1.3135311603546143,
                0.07341422885656357,
                -0.9859635233879089,
                -0.12309849262237549,
                1.4409958124160767,
                1.0732022523880005,
                -0.6932296752929688,
                1.3828434944152832,
                0.0199580155313015,
                0.1246526911854744,
                1.1264245510101318,
                -0.15229828655719757,
                1.9740526676177979,
                -0.10398249328136444,
                0.3713410198688507,
                -2.6437718868255615,
                0.22003008425235748,
                -0.12570220232009888,
                -0.09563001990318298,
                0.030974255874753,
                -0.3471353352069855,
                0.9303737878799438,
                0.4090503752231598,
                -0.3138998746871948,
                0.06807176023721695,
                1.4901939630508423,
                -0.6895148754119873,
                -0.1030769795179367,
                1.9055684804916382,
                1.3474688529968262,
                -0.4396815001964569,
                -0.39118894934654236,
                -0.35681605339050293,
                0.21242161095142365,
                0.5741162896156311,
                2.111415147781372,
                -0.623745858669281,
                2.1736741065979004,
                -1.1812931299209595,
                -0.21833261847496033,
                0.7489882707595825,
                0.4035240113735199,
                -0.5045279860496521,
                1.144853949546814,
                1.9718732833862305,
                0.273251473903656,
                1.32254958152771,
                -1.404907464981079,
                -1.1349236965179443,
                -1.2444369792938232,
                1.8000338077545166,
                0.8474747538566589,
                0.41505151987075806,
                -0.6574251651763916,
                2.539027214050293,
                0.350944846868515,
                -1.275838017463684,
                0.532148540019989,
                -0.6396862864494324,
                -1.374031662940979,
                -0.5644689798355103,
                -0.2718137800693512,
                -1.940588355064392,
                -0.060699354857206345,
                -1.0142492055892944,
                0.4007702171802521,
                0.11313068866729736,
                1.3304791450500488,
                0.5227477550506592,
                -0.2508624494075775,
                0.015449750237166882,
                -0.08665027469396591,
                -0.938506543636322,
                0.8974371552467346,
                1.982129693031311,
                0.13648054003715515,
                0.007721837144345045,
                -1.023864984512329,
                -2.867772102355957,
                -0.030219407752156258,
                0.7013838291168213,
                1.2094091176986694,
                -1.3810744285583496,
                0.31524065136909485,
                0.520642101764679,
                1.7995854616165161,
                -0.11645805835723877,
                -0.3561485707759857,
                0.6027414202690125,
                0.0653105303645134,
                -0.8551212549209595,
                -0.07004962861537933,
                0.6579642295837402,
                -1.2115018367767334,
                0.9027754068374634,
                -0.19491706788539886,
                -0.28355154395103455,
                -0.014964832924306393,
                -0.7380421161651611,
                -0.11404286324977875,
                1.6137741804122925,
                3.658275842666626,
                -0.16079477965831757,
                -0.8019587397575378,
                -0.9732062816619873,
                1.1433120965957642,
                -0.7615257501602173,
                -1.9927488565444946,
                0.6570079326629639,
                -2.5373244285583496,
                -1.1600061655044556,
                -0.26565584540367126,
                1.9092411994934082,
                0.9150334000587463,
                1.7788373231887817,
                -0.9007981419563293,
                -1.225954532623291,
                1.8753646612167358,
                0.34573426842689514,
                -1.1894009113311768,
                -1.4562761783599854,
                1.6598488092422485,
                0.3941810429096222,
                -0.587118923664093,
                -1.8887876272201538,
                -1.1953914165496826,
                0.42010802030563354,
                -0.9910318851470947,
                0.9808624982833862,
                -1.0314087867736816,
                0.11049869656562805,
                0.1673969328403473,
                -0.5406334400177002,
                0.08427935093641281,
                -1.9119956493377686,
                -0.18659305572509766,
                -1.6563575267791748,
                -0.9962766170501709,
                0.6817062497138977,
                0.6537625789642334,
                -0.33014538884162903,
                -0.023509612306952477,
                1.5574499368667603,
                -1.3633629083633423,
                1.772828221321106,
                -0.6238877773284912,
                -1.5168814659118652,
                0.3219601511955261
            ]
        },
        "embedding_layers.9.weight": {
            "shape": [
                41,
                9
            ],
            "data": [
                0.9269464015960693,
                1.6373168230056763,
                -0.5894857048988342,
                1.1680328845977783,
                1.6150672435760498,
                0.839896559715271,
                0.768478274345398,
                0.04747242480516434,
                -0.17071855068206787,
                1.0345606803894043,
                -0.6505964398384094,
                -0.42435699701309204,
                1.5413997173309326,
                -0.36196550726890564,
                1.7998846769332886,
                0.8811824321746826,
                0.28544291853904724,
                -2.1944479942321777,
                0.1487709879875183,
                -1.7502317428588867,
                -0.6445280909538269,
                -0.2242414653301239,
                -0.4514937102794647,
                0.7986566424369812,
                1.7834514379501343,
                1.542296290397644,
                -0.2867547869682312,
                0.5649309754371643,
                -0.4723894000053406,
                -1.979119062423706,
                0.4153674244880676,
                -0.4528181552886963,
                -1.1959527730941772,
                -0.2626519799232483,
                0.30662235617637634,
                0.22700564563274384,
                -1.6463464498519897,
                0.22651377320289612,
                0.4235440492630005,
                0.6539098620414734,
                0.7391799092292786,
                0.022316884249448776,
                -0.5708441138267517,
                0.07715775817632675,
                -0.5644624829292297,
                0.7669011354446411,
                0.15813316404819489,
                1.5485721826553345,
                0.5067989230155945,
                1.3413004875183105,
                -1.2244185209274292,
                -0.1345667690038681,
                0.7517401576042175,
                0.3934350907802582,
                0.468614786863327,
                0.8448638916015625,
                2.4525933265686035,
                0.037152521312236786,
                0.3150089979171753,
                -0.8143213391304016,
                0.2375369518995285,
                0.1461927890777588,
                0.9145216345787048,
                0.6003684997558594,
                -0.5577524900436401,
                0.5933403968811035,
                0.2670903503894806,
                -0.26737838983535767,
                -0.4257776737213135,
                -0.11220420897006989,
                -0.27910006046295166,
                0.33511632680892944,
                0.519197940826416,
                -0.23114460706710815,
                1.4672973155975342,
                0.5104327201843262,
                0.7218892574310303,
                0.5178496241569519,
                -0.7615865468978882,
                1.6830601692199707,
                0.8739476203918457,
                1.0243993997573853,
                0.9207472801208496,
                0.639197051525116,
                1.2319051027297974,
                2.1467339992523193,
                0.14314612746238708,
                0.5060085654258728,
                0.16947434842586517,
                -1.1873207092285156,
                -0.7896069288253784,
                0.5093441605567932,
                -0.44580504298210144,
                0.5854918360710144,
                -0.10305272787809372,
                0.5112921595573425,
                0.2855854630470276,
                1.0229554176330566,
                0.5457686185836792,
                -0.23956827819347382,
                -0.3208734393119812,
                0.5478622317314148,
                -0.8094634413719177,
                -0.28282925486564636,
                -0.7804558873176575,
                0.6279226541519165,
                0.5369153618812561,
                -0.6695282459259033,
                0.9457354545593262,
                -0.27489548921585083,
                0.2015029340982437,
                0.6772308349609375,
                0.44141504168510437,
                -1.097622036933899,
                0.17071256041526794,
                0.8420498967170715,
                1.3585519790649414,
                1.098741054534912,
                -0.2980450689792633,
                -0.8391311764717102,
                -1.8135952949523926,
                0.20311613380908966,
                0.48746412992477417,
                0.724186360836029,
                1.2217706441879272,
                -0.48978227376937866,
                1.2435857057571411,
                0.5042866468429565,
                0.4938820004463196,
                1.1263856887817383,
                0.3255600333213806,
                -0.5990760922431946,
                0.5078963041305542,
                -0.3280617892742157,
                1.024469256401062,
                -0.4405149519443512,
                0.8876213431358337,
                -0.07737100124359131,
                -1.7289764881134033,
                -1.1668158769607544,
                0.5245708227157593,
                1.6037747859954834,
                -1.5860774517059326,
                -0.8897340297698975,
                0.7856383323669434,
                1.0395089387893677,
                0.20277734100818634,
                0.8219424486160278,
                -2.351590871810913,
                -0.011682737618684769,
                0.8223528861999512,
                -0.6378016471862793,
                0.5002624988555908,
                -1.3751393556594849,
                0.5633535385131836,
                1.1704380512237549,
                0.7811565399169922,
                -0.10850448161363602,
                1.1429736614227295,
                0.8650442957878113,
                -0.8982762694358826,
                -0.5340608954429626,
                -1.8503772020339966,
                -0.03232915699481964,
                0.3138878047466278,
                -0.7606523036956787,
                -0.8481348156929016,
                -0.4360818564891815,
                0.5581167340278625,
                1.7418551445007324,
                -0.34619078040122986,
                1.544092059135437,
                -1.5784603357315063,
                -0.5960704684257507,
                0.7188851833343506,
                0.41535234451293945,
                1.2605658769607544,
                -1.3673655986785889,
                0.823499321937561,
                -0.14091621339321136,
                -1.311522364616394,
                -0.7915337681770325,
                1.1241381168365479,
                0.2914433479309082,
                -0.40295204520225525,
                -1.3456815481185913,
                1.9289473295211792,
                0.2629334330558777,
                0.3476381003856659,
                -0.20752842724323273,
                -0.1712188869714737,
                1.826135516166687,
                -0.1104658991098404,
                0.23743942379951477,
                0.2530629336833954,
                -0.9941813349723816,
                -1.0542082786560059,
                -0.15150552988052368,
                0.2203783392906189,
                -1.6655808687210083,
                0.048452068120241165,
                -1.4792133569717407,
                0.1905890554189682,
                0.29817667603492737,
                1.5030003786087036,
                0.03744925931096077,
                1.192550539970398,
                0.08218587934970856,
                1.3482493162155151,
                1.778084397315979,
                -0.461860716342926,
                0.9033755660057068,
                0.48325780034065247,
                0.4636344909667969,
                -1.1660215854644775,
                0.1717785745859146,
                -0.6571333408355713,
                -1.0451942682266235,
                0.741645336151123,
                0.3400444984436035,
                -0.6508781909942627,
                0.24787631630897522,
                0.8345904350280762,
                -1.6257445812225342,
                0.4687497615814209,
                0.9330255389213562,
                0.2885701358318329,
                -1.4767825603485107,
                0.39181452989578247,
                -0.8910187482833862,
                0.6096056699752808,
                0.06367600709199905,
                0.39862707257270813,
                0.8778899312019348,
                1.275869607925415,
                0.8811819553375244,
                -0.4441181719303131,
                -1.9517579078674316,
                0.5918341875076294,
                -0.9011840224266052,
                0.7954351902008057,
                -0.6927844882011414,
                -0.2717566192150116,
                -1.2812162637710571,
                2.0091607570648193,
                -0.7375189661979675,
                0.5770096182823181,
                1.3451082706451416,
                0.00488198222592473,
                0.49429965019226074,
                -0.11558965593576431,
                -1.6368727684020996,
                0.03554167598485947,
                0.7779964208602905,
                -0.5627771615982056,
                0.7428902983665466,
                -0.1299341470003128,
                0.102803073823452,
                0.6350793838500977,
                -0.7644482851028442,
                0.039742156863212585,
                0.21279259026050568,
                0.36072489619255066,
                -0.8778839707374573,
                -1.3236916065216064,
                -0.0013430683175101876,
                0.244462788105011,
                0.41661375761032104,
                -0.663716197013855,
                -0.1139102503657341,
                -0.5534235835075378,
                -0.9620904922485352,
                -0.6921718120574951,
                0.23056776821613312,
                -0.5114065408706665,
                -0.3805738091468811,
                1.1339236497879028,
                1.9126901626586914,
                -0.9517785906791687,
                0.36476778984069824,
                0.6983867883682251,
                -0.1771065890789032,
                -0.15470948815345764,
                2.822489023208618,
                0.926856517791748,
                2.1430320739746094,
                -0.6907594799995422,
                0.3312530517578125,
                -0.19857731461524963,
                -0.5523322820663452,
                -0.4456227123737335,
                0.04942379519343376,
                0.18563514947891235,
                2.1044135093688965,
                0.3271917700767517,
                -1.5292599201202393,
                0.7575841546058655,
                -0.10732327401638031,
                -2.064279079437256,
                0.3278217315673828,
                1.7126665115356445,
                1.6523443460464478,
                -0.3917199373245239,
                -0.9088050127029419,
                -0.22350168228149414,
                1.546816349029541,
                0.4642905592918396,
                1.3337597846984863,
                -1.1850966215133667,
                0.69562166929245,
                1.097328782081604,
                -1.1737514734268188,
                -1.3770591020584106,
                -1.0130515098571777,
                0.8872416615486145,
                -1.089198350906372,
                0.4603680372238159,
                -0.33011096715927124,
                -0.5414729118347168,
                0.6721403002738953,
                -0.13274092972278595,
                -0.3407542109489441,
                -0.1804809272289276,
                0.07603496313095093,
                -1.1438629627227783,
                -0.5333491563796997,
                1.9898444414138794,
                0.5377278923988342,
                0.0339224636554718,
                0.43651437759399414,
                0.5787400007247925,
                -0.23708149790763855,
                1.3057339191436768,
                -0.17560656368732452,
                -0.24627967178821564,
                0.2888700067996979,
                1.9082221984863281,
                -0.7441360950469971,
                2.771580457687378,
                2.0191712379455566,
                -1.3022561073303223,
                -0.48265600204467773,
                -0.25009167194366455,
                -0.9943259358406067,
                0.6538209319114685,
                -0.8837264776229858,
                1.4995930194854736,
                -0.4849931299686432,
                -1.0904762744903564,
                -0.4179952144622803,
                -1.2362093925476074,
                2.6686553955078125,
                1.3140108585357666,
                -1.7047394514083862,
                0.8977673053741455,
                -0.6074836254119873,
                0.19263313710689545,
                -0.29688963294029236,
                1.6905922889709473,
                0.3540799915790558,
                0.7359839677810669,
                1.7965846061706543,
                0.583101749420166,
                1.096814513206482,
                -0.39550313353538513,
                -0.4756801128387451,
                0.846569836139679,
                -1.1865321397781372,
                1.5149462223052979
            ]
        },
        "embedding_layers.10.weight": {
            "shape": [
                722,
                9
            ],
            "data": [
                -0.6896596550941467,
                -0.7366095781326294,
                0.02560446783900261,
                -1.9317412376403809,
                -0.17559516429901123,
                0.5553277730941772,
                -1.6708400249481201,
                0.3111918866634369,
                -0.0649178996682167,
                -0.5867342948913574,
                1.1300880908966064,
                1.0481003522872925,
                -1.127618670463562,
                -0.11481861770153046,
                -1.1971334218978882,
                0.5138313174247742,
                1.7186628580093384,
                0.2172185182571411,
                1.3165192604064941,
                2.2087435722351074,
                -0.7510718107223511,
                -0.6227277517318726,
                -0.2483331561088562,
                -1.2471615076065063,
                0.5319980978965759,
                -0.01678198203444481,
                0.6176043748855591,
                -0.6525796055793762,
                -0.0689699575304985,
                0.5931671261787415,
                0.7163471579551697,
                -1.2069122791290283,
                -0.4357548654079437,
                -1.3668705224990845,
                0.7162861824035645,
                -0.771831750869751,
                0.7865133285522461,
                -0.893368124961853,
                1.196998119354248,
                -1.1138228178024292,
                0.5988885760307312,
                0.652702808380127,
                -0.7591570615768433,
                -2.532365083694458,
                0.8680802583694458,
                1.4936625957489014,
                -0.47963494062423706,
                2.472377061843872,
                0.4985511302947998,
                0.21582405269145966,
                1.3680365085601807,
                0.5699769854545593,
                0.8956455588340759,
                -1.3161519765853882,
                0.31883129477500916,
                0.21848291158676147,
                0.1191224455833435,
                -0.8472272157669067,
                0.09290195256471634,
                -0.9599921107292175,
                -0.8603848814964294,
                0.7911146879196167,
                -0.8132364749908447,
                -0.2647152543067932,
                -0.8478402495384216,
                1.8374511003494263,
                -0.2980448305606842,
                -0.7236328721046448,
                1.3007608652114868,
                2.0095198154449463,
                -1.2497284412384033,
                -0.23067694902420044,
                -0.41069960594177246,
                -1.9320988655090332,
                0.7291396260261536,
                -1.1951247453689575,
                -0.38682425022125244,
                0.37283527851104736,
                -0.41508749127388,
                -0.03181023523211479,
                -0.441792368888855,
                -0.6929560899734497,
                -0.815242350101471,
                1.4561794996261597,
                -0.6342304944992065,
                -0.20655693113803864,
                0.7112530469894409,
                -0.2385282814502716,
                0.3242153227329254,
                -0.7755922675132751,
                -0.34942618012428284,
                -0.1854601353406906,
                0.16696061193943024,
                0.17528140544891357,
                0.8333205580711365,
                -0.6697199940681458,
                0.8127173185348511,
                1.7372169494628906,
                0.5867182016372681,
                1.1279323101043701,
                -0.6855298280715942,
                0.4614066779613495,
                -1.8325303792953491,
                0.679884135723114,
                -1.324459433555603,
                0.1024194061756134,
                -0.22839857637882233,
                0.5476624369621277,
                -1.3022518157958984,
                1.9694159030914307,
                0.5448842644691467,
                -0.8750404715538025,
                -1.9999570846557617,
                -0.5562557578086853,
                -0.6655411720275879,
                -1.6785688400268555,
                -0.44940951466560364,
                -0.3453545868396759,
                0.4695945680141449,
                -0.2144424319267273,
                0.036121007055044174,
                -2.0856149196624756,
                -0.609447181224823,
                0.14576156437397003,
                -0.3315069079399109,
                1.8364287614822388,
                -0.48615559935569763,
                0.5483632683753967,
                1.3000032901763916,
                0.40731680393218994,
                0.2616666853427887,
                -0.03546083718538284,
                0.7126917839050293,
                -0.530306875705719,
                0.21665345132350922,
                -1.5300382375717163,
                -0.03339376300573349,
                0.11237888783216476,
                -0.28414595127105713,
                -0.4513236880302429,
                0.5859450697898865,
                0.6106581687927246,
                0.13747434318065643,
                -2.871656894683838,
                0.48670148849487305,
                0.03529825434088707,
                -0.06139843165874481,
                -1.5995017290115356,
                -0.16868536174297333,
                0.2296539694070816,
                -0.18297351896762848,
                -0.9987303614616394,
                -0.2696154713630676,
                -0.6370786428451538,
                1.0274895429611206,
                1.877709150314331,
                -0.42729225754737854,
                -1.0190051794052124,
                0.13356998562812805,
                1.3004474639892578,
                1.0018213987350464,
                1.568459391593933,
                -0.3367585837841034,
                1.3165345191955566,
                1.4013683795928955,
                0.442559152841568,
                1.8590362071990967,
                -0.6607093811035156,
                -0.3840121030807495,
                -1.1941691637039185,
                0.02603938616812229,
                -2.4094934463500977,
                -0.9791274666786194,
                1.1113499402999878,
                -0.5626243352890015,
                0.08055104315280914,
                0.572643518447876,
                -0.17621563374996185,
                0.4176294207572937,
                -1.5296962261199951,
                -1.1695442199707031,
                1.2535655498504639,
                -0.855584979057312,
                0.4116211533546448,
                -0.2856394946575165,
                -0.8689934015274048,
                -0.9286344647407532,
                1.49567449092865,
                -0.640684962272644,
                -0.3332873582839966,
                0.8499255776405334,
                -1.0699931383132935,
                0.21688489615917206,
                1.373285174369812,
                1.7034896612167358,
                -0.17403064668178558,
                -0.17766119539737701,
                0.5357804894447327,
                1.611878514289856,
                0.08981748670339584,
                -0.3712238371372223,
                -0.1792071908712387,
                0.13162004947662354,
                1.4920146465301514,
                -0.2528340816497803,
                -0.14749296009540558,
                1.3867311477661133,
                2.230839967727661,
                0.6459911465644836,
                1.5141574144363403,
                -0.8979823589324951,
                -0.003979846835136414,
                1.1900103092193604,
                1.5362011194229126,
                0.6843597888946533,
                -1.265714406967163,
                0.4523516297340393,
                -0.2160952389240265,
                1.097041368484497,
                -0.1324797123670578,
                0.32105356454849243,
                1.2463593482971191,
                0.8827140927314758,
                1.0730215311050415,
                -0.5458309650421143,
                -1.590803623199463,
                -2.1711692810058594,
                -1.5295157432556152,
                0.5097221732139587,
                1.4262311458587646,
                1.7405345439910889,
                0.7350397109985352,
                -0.6187761425971985,
                0.34376516938209534,
                -1.8781574964523315,
                -0.14943747222423553,
                0.7601054310798645,
                0.14939410984516144,
                -0.057300321757793427,
                -0.826008141040802,
                -0.2481527179479599,
                -0.1671418696641922,
                0.23349006474018097,
                -1.1849567890167236,
                0.8455408811569214,
                -0.09317333251237869,
                -0.6032702326774597,
                1.6164164543151855,
                0.294131338596344,
                -1.6930674314498901,
                0.10458806902170181,
                0.2505530118942261,
                1.0770299434661865,
                -0.7713623046875,
                -1.4875611066818237,
                -0.1407397985458374,
                -0.039100296795368195,
                2.27245831489563,
                -1.5216602087020874,
                1.0927367210388184,
                -1.2016655206680298,
                -2.965803861618042,
                1.6422250270843506,
                -1.2303245067596436,
                -1.568319320678711,
                -0.9434635043144226,
                -0.6581228971481323,
                2.2428529262542725,
                -0.5805718302726746,
                -1.3885507583618164,
                1.999030590057373,
                -0.44743913412094116,
                0.11555758118629456,
                1.077298879623413,
                -0.15811167657375336,
                -0.905703604221344,
                -2.826164484024048,
                0.5594801902770996,
                0.5882324576377869,
                1.0311706066131592,
                1.326314926147461,
                0.990805983543396,
                -0.06567133963108063,
                0.7615658640861511,
                -1.372843861579895,
                0.10339675843715668,
                -0.10502857714891434,
                -0.11825979501008987,
                2.0748939514160156,
                -2.6874947547912598,
                0.28905028104782104,
                -0.05721043795347214,
                -0.47408485412597656,
                -0.7300183773040771,
                1.835939645767212,
                2.4862749576568604,
                1.5440727472305298,
                -0.5556819438934326,
                -0.47962045669555664,
                -1.371255874633789,
                0.5661566257476807,
                -1.22333562374115,
                -1.4225733280181885,
                -0.9044917225837708,
                -0.09942713379859924,
                -1.0095058679580688,
                -0.2812132239341736,
                0.8006837368011475,
                1.4376274347305298,
                -0.2111215740442276,
                -0.2567783296108246,
                1.1107842922210693,
                -0.1431572139263153,
                0.5142601728439331,
                0.3715647757053375,
                1.131605625152588,
                0.888145923614502,
                -0.6210774779319763,
                -0.8895601630210876,
                -0.7042641043663025,
                1.0489188432693481,
                -0.13848300278186798,
                0.26237186789512634,
                1.7924331426620483,
                0.8739269971847534,
                -1.4100821018218994,
                -0.021531425416469574,
                -0.806947648525238,
                -1.4085301160812378,
                -1.079644799232483,
                1.623489499092102,
                -0.22639507055282593,
                -0.7002372741699219,
                0.13385771214962006,
                0.725165069103241,
                -1.8988131284713745,
                -1.3431713581085205,
                1.0154836177825928,
                1.8613064289093018,
                -1.0239300727844238,
                -0.3841114938259125,
                -0.5812358856201172,
                -0.9265249967575073,
                -0.4721662104129791,
                1.1646276712417603,
                1.428938865661621,
                0.41031357645988464,
                0.08651001006364822,
                0.8348237872123718,
                -0.910014271736145,
                -2.426485776901245,
                -2.2655179500579834,
                -1.7152185440063477,
                -1.619272232055664,
                1.1715140342712402,
                0.6045821905136108,
                -0.7315091490745544,
                0.5152421593666077,
                0.8374890685081482,
                1.2582087516784668,
                -1.6181881427764893,
                0.1253788322210312,
                0.7143089175224304,
                1.3652390241622925,
                -0.12287013977766037,
                -0.41320937871932983,
                1.3334403038024902,
                -0.7467831373214722,
                0.702411949634552,
                1.3037536144256592,
                -0.6266316771507263,
                0.01629209704697132,
                0.35395193099975586,
                0.6595265865325928,
                0.08117358386516571,
                1.9196579456329346,
                0.619344174861908,
                0.8942133784294128,
                -0.8823792338371277,
                0.9579753875732422,
                -0.4905243515968323,
                -0.5273672342300415,
                1.2192189693450928,
                -1.010412573814392,
                0.2653811275959015,
                2.1912992000579834,
                0.281419962644577,
                -1.0750447511672974,
                1.1808912754058838,
                -0.8168394565582275,
                -0.6019744873046875,
                -0.2186693251132965,
                -0.7166462540626526,
                2.652980089187622,
                1.7960904836654663,
                0.24975760281085968,
                -1.4963492155075073,
                0.6402863264083862,
                0.24812448024749756,
                0.285101056098938,
                0.19937312602996826,
                -0.5686450600624084,
                -0.8836338520050049,
                -0.23713476955890656,
                0.29618027806282043,
                -0.21542952954769135,
                2.4966909885406494,
                -0.5171045660972595,
                0.57562255859375,
                1.9566177129745483,
                -0.39134401082992554,
                0.8448885083198547,
                -0.2068513035774231,
                2.1178553104400635,
                -1.4879337549209595,
                -0.5118720531463623,
                -1.5481767654418945,
                -0.017582623288035393,
                -1.3452073335647583,
                -2.2759525775909424,
                0.6259623169898987,
                -0.2801722288131714,
                -0.023067697882652283,
                -2.213942289352417,
                -1.2212579250335693,
                -0.3716108798980713,
                1.2226580381393433,
                -0.9612875580787659,
                1.4471112489700317,
                -0.3767966032028198,
                -0.3682560920715332,
                0.5835685133934021,
                0.5320724844932556,
                1.2383657693862915,
                -0.20785050094127655,
                1.5220961570739746,
                1.3587208986282349,
                -0.42661935091018677,
                0.025776982307434082,
                -1.5762618780136108,
                0.6397560238838196,
                0.040221720933914185,
                -1.3268696069717407,
                1.1583163738250732,
                -0.9422048330307007,
                0.6057764887809753,
                -0.9746556878089905,
                -0.9537925720214844,
                -0.560935378074646,
                1.4711318016052246,
                -0.9480295181274414,
                -1.8119158744812012,
                -0.7695710062980652,
                -0.4725964367389679,
                0.8759422302246094,
                1.9939321279525757,
                -0.09189160913228989,
                0.7815514802932739,
                1.032072901725769,
                1.263906478881836,
                0.6608232259750366,
                2.318492889404297,
                -0.5470021963119507,
                0.027673780918121338,
                -0.08360660076141357,
                0.11747165024280548,
                0.025794075801968575,
                0.30169054865837097,
                1.0620282888412476,
                -0.856483519077301,
                -0.12480922788381577,
                0.09566965699195862,
                1.0642794370651245,
                -1.3712830543518066,
                -0.7474995851516724,
                -0.054235491901636124,
                1.478655457496643,
                2.1650848388671875,
                -0.6534650921821594,
                0.9130232930183411,
                0.282802551984787,
                2.4103238582611084,
                0.7935578227043152,
                0.12244458496570587,
                -0.7314848899841309,
                -2.0783703327178955,
                -0.577637255191803,
                1.9087692499160767,
                1.1740338802337646,
                -0.7699930667877197,
                -0.1926347017288208,
                -0.4041981101036072,
                -0.12673881649971008,
                0.2048461139202118,
                0.5158243775367737,
                0.7839723825454712,
                1.3906338214874268,
                -0.4990794062614441,
                1.3282139301300049,
                0.17185962200164795,
                -0.7245500087738037,
                0.9724410176277161,
                0.10054400563240051,
                0.8085681796073914,
                -2.0435662269592285,
                0.2283482849597931,
                -0.8224979639053345,
                -1.2350534200668335,
                -1.1264830827713013,
                1.7022082805633545,
                -0.9614553451538086,
                0.6444219350814819,
                -0.09667986631393433,
                0.8191046714782715,
                1.0451674461364746,
                -1.241958737373352,
                -0.7619479894638062,
                -0.7767923474311829,
                0.2939225733280182,
                1.8635785579681396,
                -1.0515520572662354,
                0.1103150025010109,
                -1.2711615562438965,
                -1.3063852787017822,
                0.23301120102405548,
                -0.3556004762649536,
                -0.04486752673983574,
                0.45929640531539917,
                -0.10744193196296692,
                -0.43967193365097046,
                -0.22935588657855988,
                -1.1581404209136963,
                -0.058947354555130005,
                0.22974660992622375,
                -0.5424135327339172,
                -2.974062442779541,
                -0.9373796582221985,
                0.6845759749412537,
                -0.21326905488967896,
                -2.5315728187561035,
                -0.9626639485359192,
                0.7388734817504883,
                0.6166778206825256,
                2.076301097869873,
                0.3919667899608612,
                -0.3420610725879669,
                1.2459911108016968,
                0.4089624881744385,
                -0.12638768553733826,
                -0.700891375541687,
                -0.550859272480011,
                1.8131999969482422,
                2.205911636352539,
                0.8098626732826233,
                0.23358093202114105,
                0.5186682939529419,
                0.7513851523399353,
                0.2571251392364502,
                0.34351831674575806,
                1.1395727396011353,
                0.20367366075515747,
                0.9081816077232361,
                -0.5261208415031433,
                0.959212064743042,
                1.0718562602996826,
                -0.37990906834602356,
                -0.2876284718513489,
                -0.07287569344043732,
                -1.2582424879074097,
                1.7160789966583252,
                -1.0795924663543701,
                -0.07449058443307877,
                0.5893058776855469,
                -0.8304852247238159,
                -1.1133241653442383,
                1.3593214750289917,
                0.5370165705680847,
                -0.10451309382915497,
                0.7012957334518433,
                0.8561723828315735,
                -0.8479666709899902,
                1.7223188877105713,
                -0.5814976692199707,
                -0.6003271341323853,
                0.5851203203201294,
                -0.2905704379081726,
                -1.747344970703125,
                -0.9743573665618896,
                0.8398439884185791,
                -0.1440664678812027,
                1.230098009109497,
                -0.0234985314309597,
                2.733417272567749,
                -0.5455256104469299,
                2.655984401702881,
                0.6466577053070068,
                0.11967404931783676,
                0.8139635920524597,
                0.17463821172714233,
                0.6570072174072266,
                -0.000174176981090568,
                -2.0765252113342285,
                0.7092156410217285,
                1.9922409057617188,
                0.29767152667045593,
                -0.16079562902450562,
                -0.9512935280799866,
                0.8043048977851868,
                0.2576800584793091,
                0.3048592805862427,
                1.8087091445922852,
                -1.3791195154190063,
                -0.5697271227836609,
                1.0176849365234375,
                1.4830125570297241,
                -1.1945257186889648,
                -0.39108508825302124,
                0.09643062204122543,
                -0.33950328826904297,
                -1.483747124671936,
                0.36192286014556885,
                -0.7117992639541626,
                -0.5102290511131287,
                -1.0697871446609497,
                0.9454473853111267,
                -0.1303570419549942,
                -0.7141852378845215,
                0.13222739100456238,
                0.5209755301475525,
                -1.7830325365066528,
                -1.5120086669921875,
                0.7029731273651123,
                -0.05207392945885658,
                -1.5377784967422485,
                0.5510362982749939,
                -0.2882731854915619,
                1.4462661743164062,
                0.7640321850776672,
                -0.24522966146469116,
                0.22911909222602844,
                0.08090472966432571,
                0.2063610553741455,
                0.9336885213851929,
                0.6599860787391663,
                0.7088738083839417,
                1.4180036783218384,
                0.8263972997665405,
                -0.2625543475151062,
                -0.023885412141680717,
                0.7854768633842468,
                -0.41564711928367615,
                -0.04397950321435928,
                0.9488451480865479,
                -0.16762182116508484,
                -0.18182338774204254,
                -0.5065160393714905,
                0.3731517493724823,
                -0.2734065353870392,
                -1.817787528038025,
                -1.6027721166610718,
                -1.0055168867111206,
                1.3984061479568481,
                0.15770208835601807,
                -0.2747553586959839,
                0.31819701194763184,
                0.22554293274879456,
                -0.5413705110549927,
                0.7499029636383057,
                -1.2213302850723267,
                -1.2485560178756714,
                0.5266755819320679,
                -0.1590466946363449,
                -0.3621525168418884,
                -0.7295041680335999,
                -1.3755658864974976,
                0.8739504814147949,
                1.1110628843307495,
                0.631871223449707,
                0.4902407228946686,
                1.088801622390747,
                -0.040143486112356186,
                -0.3704394996166229,
                -0.45482581853866577,
                -1.1300259828567505,
                0.3822307586669922,
                0.42200058698654175,
                -0.9985014200210571,
                0.06617329269647598,
                -0.6039105653762817,
                -0.059557992964982986,
                -1.0141923427581787,
                -1.0583453178405762,
                0.5180984139442444,
                1.5042393207550049,
                0.014443683438003063,
                -0.7903727293014526,
                -0.7621782422065735,
                0.7010174989700317,
                0.8380752801895142,
                0.5280759930610657,
                -0.1436551809310913,
                0.7194197177886963,
                0.9078357219696045,
                1.0433554649353027,
                0.15451066195964813,
                0.5829007625579834,
                -2.26757550239563,
                1.0244464874267578,
                0.13137413561344147,
                -2.07291841506958,
                -0.6320880651473999,
                -0.5786099433898926,
                -1.318339467048645,
                -0.6002905368804932,
                0.11373917013406754,
                1.2792646884918213,
                -0.6646183729171753,
                -0.22476248443126678,
                0.8834267258644104,
                -0.3013632595539093,
                -1.7983845472335815,
                -0.8808773159980774,
                2.059252977371216,
                -0.6435417532920837,
                1.754940152168274,
                -2.207268714904785,
                -0.48360535502433777,
                0.04113754257559776,
                0.2650022506713867,
                -0.38613611459732056,
                0.33431288599967957,
                -0.1461580991744995,
                0.48230090737342834,
                1.056923270225525,
                0.2138463407754898,
                0.09455440938472748,
                1.506656289100647,
                -0.6195193529129028,
                0.025468161329627037,
                1.4116418361663818,
                -0.1985892951488495,
                1.5254508256912231,
                0.5487242937088013,
                -0.9890564680099487,
                0.42964622378349304,
                1.3306723833084106,
                -0.37381574511528015,
                -0.10285402834415436,
                0.14857059717178345,
                -0.03828456997871399,
                0.021281257271766663,
                0.16120268404483795,
                -0.9742523431777954,
                2.0998761653900146,
                0.5192719101905823,
                -0.722834050655365,
                0.03046555444598198,
                -1.8067350387573242,
                0.014091544784605503,
                -2.2111454010009766,
                -0.4462644159793854,
                1.491875171661377,
                -0.7997304201126099,
                -0.8450590372085571,
                0.8354833722114563,
                0.9367272257804871,
                -1.2975724935531616,
                0.2694236636161804,
                -0.446498841047287,
                -0.39039501547813416,
                -0.7426638603210449,
                0.04651957005262375,
                1.7047743797302246,
                0.016226109117269516,
                -0.00393137289211154,
                -0.6657360196113586,
                -0.19758117198944092,
                -1.1263949871063232,
                -0.5778114199638367,
                0.2883056700229645,
                0.5610755085945129,
                0.2938564419746399,
                0.3556114435195923,
                0.6629925966262817,
                0.27968499064445496,
                0.7068475484848022,
                0.7204036712646484,
                0.7576135993003845,
                1.777832269668579,
                0.5795891880989075,
                1.3558317422866821,
                -0.7420648336410522,
                -2.275926351547241,
                -0.7156849503517151,
                0.36617642641067505,
                0.30332252383232117,
                -0.37420743703842163,
                -0.41857555508613586,
                1.590160846710205,
                2.6732656955718994,
                -2.1278390884399414,
                -0.05697523057460785,
                0.4287068545818329,
                -0.4327021539211273,
                1.0096596479415894,
                -1.060328483581543,
                -0.2840268611907959,
                1.503793478012085,
                0.9436733722686768,
                -0.8955503702163696,
                -0.9188650250434875,
                1.7302998304367065,
                -0.40861520171165466,
                0.30264976620674133,
                0.7518535852432251,
                -0.15510596334934235,
                -0.6286571621894836,
                0.5055398344993591,
                0.6449085474014282,
                0.6610936522483826,
                -1.1508760452270508,
                -0.7966638207435608,
                -0.3657815754413605,
                0.32768601179122925,
                0.9118944406509399,
                0.481492280960083,
                -0.6311253309249878,
                -0.891947865486145,
                1.2656010389328003,
                0.037687111645936966,
                1.6511924266815186,
                -0.3217417895793915,
                2.6091861724853516,
                -0.01066642627120018,
                -1.6634522676467896,
                -2.021324872970581,
                -0.4619637131690979,
                -0.305261492729187,
                -0.6116513013839722,
                0.6535881161689758,
                1.0328916311264038,
                -0.7495602369308472,
                -0.21275179088115692,
                -0.7007060050964355,
                1.1977131366729736,
                0.9062294960021973,
                -1.0581560134887695,
                -1.7181906700134277,
                0.5186983942985535,
                1.7591854333877563,
                -0.6918944120407104,
                -1.124754786491394,
                -2.273773193359375,
                -0.9145013689994812,
                0.04175208881497383,
                0.8465796709060669,
                -1.3424152135849,
                0.30379754304885864,
                1.4003273248672485,
                -1.656450867652893,
                1.206862449645996,
                -1.5673445463180542,
                0.6314146518707275,
                -0.3653033673763275,
                0.6827996969223022,
                -1.4803272485733032,
                1.0121036767959595,
                -0.18348708748817444,
                1.8187212944030762,
                1.862282633781433,
                -0.08586039394140244,
                2.106079578399658,
                -0.00761235598474741,
                -0.5454411506652832,
                2.6967689990997314,
                1.1298511028289795,
                -0.4695231318473816,
                0.6923314929008484,
                -2.466625928878784,
                2.265855073928833,
                0.14986681938171387,
                -2.358030319213867,
                0.7081403136253357,
                -0.011832773685455322,
                -1.1570323705673218,
                0.8748752474784851,
                0.06982738524675369,
                -1.4691673517227173,
                -0.5436718463897705,
                0.09131378680467606,
                1.6972649097442627,
                -0.37377163767814636,
                0.6328698992729187,
                0.7128804922103882,
                -0.37094846367836,
                1.5302399396896362,
                0.7655802965164185,
                -0.5778555274009705,
                1.3007878065109253,
                -0.2507082223892212,
                0.8098464012145996,
                -0.18399396538734436,
                0.3126952648162842,
                1.88579523563385,
                0.923522412776947,
                -0.8020593523979187,
                -0.07533923536539078,
                -0.7938032746315002,
                -0.3330860435962677,
                -0.08355476707220078,
                1.153676152229309,
                0.9204127192497253,
                -0.6963561177253723,
                -0.7442418336868286,
                -2.3853917121887207,
                -0.30174627900123596,
                -0.727003276348114,
                0.7792571187019348,
                0.4718396067619324,
                -0.21074499189853668,
                0.4467918574810028,
                -0.8862431645393372,
                -0.3262747824192047,
                2.3667595386505127,
                -1.0934711694717407,
                0.2408439964056015,
                0.2767564058303833,
                -0.6035988926887512,
                -0.5708975195884705,
                -0.20422527194023132,
                -1.2286237478256226,
                0.4027259647846222,
                0.002311456250026822,
                0.05930066853761673,
                -0.3659204840660095,
                0.46131792664527893,
                -1.2656828165054321,
                -0.37932756543159485,
                0.8365172147750854,
                0.49802863597869873,
                1.1867501735687256,
                -0.5755665302276611,
                0.7364832162857056,
                -0.519458532333374,
                -1.4950392246246338,
                -1.1216474771499634,
                -0.3074835240840912,
                0.5871135592460632,
                2.240475654602051,
                -1.7844936847686768,
                0.743689775466919,
                0.8174431324005127,
                -0.1922624707221985,
                0.22225452959537506,
                -0.5168506503105164,
                -0.6612082123756409,
                -0.46866580843925476,
                1.4921150207519531,
                -0.4349287152290344,
                -0.4975705146789551,
                -1.2723087072372437,
                0.46936503052711487,
                0.357959508895874,
                -0.024038156494498253,
                -0.36579322814941406,
                1.3573073148727417,
                0.6347717642784119,
                0.014591789804399014,
                -0.6141348481178284,
                0.363129585981369,
                1.7465399503707886,
                -0.060094863176345825,
                0.11622997373342514,
                -0.7150061130523682,
                -0.3606979548931122,
                -0.3726266026496887,
                0.9543548822402954,
                -1.022056221961975,
                1.5768660306930542,
                0.6208101511001587,
                1.443920612335205,
                -0.04773442819714546,
                -0.020936284214258194,
                0.8283653259277344,
                -0.3005022406578064,
                -0.6005225777626038,
                -1.1898671388626099,
                -2.126317024230957,
                0.5715785622596741,
                -0.9751741290092468,
                1.0408525466918945,
                0.11983617395162582,
                -0.9897640347480774,
                -1.2729030847549438,
                3.0236685276031494,
                1.2016133069992065,
                -0.47640058398246765,
                -1.5025429725646973,
                0.6321355104446411,
                -1.3677130937576294,
                -0.537546694278717,
                -0.2753761112689972,
                0.6308786273002625,
                -0.671083927154541,
                0.8280041217803955,
                -0.08049555867910385,
                3.1164417266845703,
                0.27720022201538086,
                0.6405661106109619,
                -0.14159396290779114,
                1.098595380783081,
                1.0155044794082642,
                0.8316061496734619,
                0.6547380685806274,
                0.8190280795097351,
                -0.01594608649611473,
                0.23241524398326874,
                2.4726204872131348,
                -0.15590742230415344,
                0.24221496284008026,
                1.3732860088348389,
                1.0585812330245972,
                0.6845216155052185,
                -0.9663985371589661,
                0.9802192449569702,
                -1.7407896518707275,
                -0.08497016131877899,
                -1.3979640007019043,
                0.5752275586128235,
                0.07200318574905396,
                1.243080496788025,
                1.5482155084609985,
                0.5780872702598572,
                0.15820403397083282,
                1.73091459274292,
                -0.7218962907791138,
                1.7280207872390747,
                0.0649208351969719,
                1.8872630596160889,
                1.3240610361099243,
                1.4872444868087769,
                1.1254167556762695,
                0.4915386140346527,
                -0.1326466053724289,
                -0.5229660272598267,
                -1.4125454425811768,
                -0.9278697967529297,
                -1.4492214918136597,
                0.3852415382862091,
                1.078153133392334,
                -0.9923539757728577,
                0.35177668929100037,
                -2.0126233100891113,
                2.036379814147949,
                -0.12856215238571167,
                0.4736092984676361,
                -0.1819525510072708,
                1.9413167238235474,
                0.5522499084472656,
                0.7972187399864197,
                -1.1458066701889038,
                1.074966549873352,
                -1.2872613668441772,
                0.451175332069397,
                0.2628069221973419,
                0.04774831235408783,
                -1.0737711191177368,
                -1.298419713973999,
                -1.9884084463119507,
                0.33243170380592346,
                -0.7711963057518005,
                -1.4345595836639404,
                -1.6346956491470337,
                1.2076787948608398,
                -2.700124502182007,
                -0.6449083685874939,
                -2.651832342147827,
                -1.006058692932129,
                1.2266145944595337,
                0.04324425384402275,
                0.7350956201553345,
                0.32887813448905945,
                0.9980446696281433,
                -0.4787812829017639,
                -0.1174730658531189,
                0.23748688399791718,
                0.003939620219171047,
                -1.451303243637085,
                -0.4942093789577484,
                -1.4301189184188843,
                0.7075234651565552,
                0.6000853776931763,
                -0.2854996919631958,
                1.3687458038330078,
                0.13291123509407043,
                -0.8353667855262756,
                -1.1585519313812256,
                1.1734954118728638,
                2.112412691116333,
                0.6768157482147217,
                -0.9785096049308777,
                1.4113655090332031,
                -0.6903206706047058,
                1.1768779754638672,
                -0.005721069406718016,
                -0.5788742303848267,
                0.35987865924835205,
                0.3660382032394409,
                -0.9698135256767273,
                0.01951599307358265,
                -0.3150976598262787,
                0.40412652492523193,
                0.591280460357666,
                -1.4634405374526978,
                0.04019783064723015,
                0.3528713583946228,
                -1.0374338626861572,
                -0.019990555942058563,
                -0.3829195499420166,
                -0.4385889768600464,
                -0.6003288626670837,
                -0.7025733590126038,
                0.2141193002462387,
                0.5701642632484436,
                -0.07870005071163177,
                1.3429292440414429,
                -2.0564520359039307,
                0.4964982271194458,
                1.5328997373580933,
                -1.4172914028167725,
                0.3546183705329895,
                -1.0859262943267822,
                -2.0316455364227295,
                -0.23548327386379242,
                0.9508123993873596,
                -2.1985459327697754,
                0.18978635966777802,
                0.3316357433795929,
                -0.6209664940834045,
                1.783786654472351,
                0.6056148409843445,
                -1.388298749923706,
                -0.45277902483940125,
                2.403510332107544,
                0.06777134537696838,
                0.4629477858543396,
                0.525606632232666,
                -0.6680712103843689,
                -0.49006181955337524,
                -0.16911466419696808,
                0.6474875807762146,
                0.8868947625160217,
                -1.3544175624847412,
                -1.8567060232162476,
                0.5218780040740967,
                -0.3816658854484558,
                0.4194568395614624,
                0.1334420144557953,
                0.6723228096961975,
                -1.776691198348999,
                -0.9002546072006226,
                0.01718534529209137,
                1.7059904336929321,
                0.1270628422498703,
                1.155722975730896,
                0.5462820529937744,
                2.4201228618621826,
                1.4614531993865967,
                -0.284946471452713,
                -0.2459297925233841,
                1.1039137840270996,
                0.7259747385978699,
                0.5912850499153137,
                2.174700975418091,
                0.9191752076148987,
                0.9179136753082275,
                -1.2823690176010132,
                0.7665359377861023,
                0.6939535737037659,
                -0.4112466871738434,
                0.7148699760437012,
                1.560601830482483,
                -0.0707239955663681,
                0.6129873394966125,
                1.427046775817871,
                -1.1848169565200806,
                0.10687331855297089,
                -0.058255914598703384,
                -0.6893597841262817,
                0.37359845638275146,
                0.08803125470876694,
                -0.21487317979335785,
                1.175848364830017,
                0.30594098567962646,
                -0.6075367331504822,
                -1.2514187097549438,
                0.9051445126533508,
                1.3432164192199707,
                0.2219589799642563,
                2.7336905002593994,
                -0.5135695934295654,
                -0.29211628437042236,
                0.8033645749092102,
                -1.0268092155456543,
                0.05354556813836098,
                -1.5169059038162231,
                -1.7417141199111938,
                -0.7729742527008057,
                -1.1908355951309204,
                1.5497829914093018,
                0.0026407078839838505,
                -0.04553231969475746,
                -0.9682447910308838,
                1.3394736051559448,
                -0.6850720047950745,
                -0.7644184827804565,
                -0.9863811135292053,
                -0.8024088740348816,
                -0.5748826861381531,
                -0.6934852004051208,
                -0.5037255883216858,
                0.44650518894195557,
                -1.5998256206512451,
                -1.6246216297149658,
                0.4981324374675751,
                -1.1778090000152588,
                -0.37136104702949524,
                0.8269325494766235,
                -0.9778537154197693,
                -0.2393365055322647,
                -0.7852800488471985,
                0.78903728723526,
                -0.1359672248363495,
                -0.023744618520140648,
                -0.19164393842220306,
                -0.7550643086433411,
                0.1514577865600586,
                2.646547317504883,
                -0.6674732565879822,
                1.8944768905639648,
                -1.331994652748108,
                2.2745840549468994,
                0.3131204843521118,
                -0.32921087741851807,
                -1.0530861616134644,
                1.4471780061721802,
                0.7391964197158813,
                0.19432826340198517,
                0.02380744367837906,
                0.08239434659481049,
                -1.5386580228805542,
                -1.964829444885254,
                0.16522464156150818,
                -0.016783760860562325,
                -0.10746768862009048,
                -0.3377126157283783,
                1.176261305809021,
                0.04600902274250984,
                0.3016527593135834,
                0.8621512055397034,
                1.6837661266326904,
                -0.31201332807540894,
                0.27876296639442444,
                -0.31296607851982117,
                0.5113615393638611,
                -0.25784507393836975,
                -0.30685001611709595,
                1.2677124738693237,
                -0.6470466256141663,
                -0.7768774628639221,
                0.1656852811574936,
                0.3937687575817108,
                -0.21253885328769684,
                1.8788824081420898,
                0.8867362141609192,
                0.5323420166969299,
                -1.3731173276901245,
                0.006674757227301598,
