{"tensor_map": {
    "conv1.weight": {"shape": [6, 1, 5, 5], "data": [0.2759377956390381, 0.2727317810058594, 0.1666090339422226, 0.05407993122935295, 0.27920570969581604, 0.26567986607551575, -0.1609184294939041, -0.36774978041648865, -0.2646911144256592, -0.12082506716251373, -0.10082423686981201, -0.2629069983959198, -0.20046159625053406, -0.3454234302043915, -0.35382238030433655, 0.061339765787124634, -0.21256186068058014, -0.2853269875049591, -0.18629074096679688, -0.034535929560661316, 0.25645896792411804, 0.04942505806684494, 0.1178009882569313, -0.005236207041889429, 0.20164471864700317, 0.03577207028865814, 0.5163866877555847, 0.4029919505119324, 0.5651154518127441, 0.5233697891235352, 0.29730111360549927, 0.30911487340927124, 0.3412097692489624, 0.22237154841423035, 0.22891946136951447, 0.1282833069562912, -0.09663189947605133, -0.24055305123329163, -0.3596057593822479, -0.4985930025577545, -0.24212853610515594, -0.4929465353488922, -0.506145715713501, -0.3625839054584503, -0.26518115401268005, -0.14250393211841583, -0.23828528821468353, -0.04479030519723892, -0.10416366159915924, 0.21428197622299194, -0.00712585961446166, -0.16449686884880066, -0.29516857862472534, -0.23892183601856232, 0.01090855710208416, -0.21718856692314148, -0.20540183782577515, -0.4052579402923584, -0.20908935368061066, -0.28194114565849304, -0.27115651965141296, -0.2865619957447052, -0.2482926994562149, -0.3753015697002411, -0.1833299696445465, -0.09559625387191772, -0.1305939108133316, -0.18054145574569702, -0.026846230030059814, 0.2527250349521637, 0.029940856620669365, 0.11912868916988373, 0.1680186539888382, 0.2793489098548889, 0.2442655861377716, 0.10343293100595474, -0.16266246140003204, -0.24268145859241486, -0.19237251579761505, -0.22423458099365234, -0.12988299131393433, -0.31024032831192017, -0.3077157437801361, -0.3162672221660614, -0.3240456283092499, 0.12822476029396057, 0.09962041676044464, -0.026758277788758278, -0.45667654275894165, -0.3350382149219513, 0.28264468908309937, 0.24556301534175873, 0.28953373432159424, -0.05179464817047119, 0.1567339450120926, 0.4093787372112274, 0.6170656085014343, 0.5478128790855408, 0.41811248660087585, 0.28180554509162903, 0.44105732440948486, 0.49893850088119507, -0.07665372639894485, -0.26088544726371765, -0.3143194019794464, 0.3601335287094116, 0.4122597277164459, -0.1760578751564026, -0.10892694443464279, -0.3462541997432709, 0.3997141718864441, 0.44421717524528503, -0.03467988967895508, -0.44080278277397156, -0.1964556872844696, 0.3325086534023285, 0.24084918200969696, -0.17957709729671478, -0.15015505254268646, -0.27549123764038086, 0.27056026458740234, 0.27653855085372925, -0.022915808483958244, 0.08020806312561035, 0.12208102643489838, 0.07834794372320175, -0.00643100356683135, -0.009196985512971878, -0.16131560504436493, -0.005557222757488489, 0.11648988723754883, -0.20563414692878723, -0.3580092489719391, -0.08866707980632782, 0.0007366687641479075, -0.22603881359100342, -0.3631299138069153, -0.4187065660953522, -0.22519266605377197, 0.44628584384918213, -0.3996148109436035, -0.3393385112285614, -0.18951275944709778, 0.39891213178634644, 0.5606847405433655, 0.2539321482181549, 0.12219269573688507, 0.49573731422424316, 0.8146553635597229, -0.0005922035779803991]
  },
    "conv1.bias": {"shape": [6], "data": [0.03359753638505936, 0.054588355123996735, -0.5358332991600037, 0.31096354126930237, 0.0898103415966034, 0.16889740526676178]
  },
    "conv2.weight": {"shape": [16, 6, 5, 5], "data": [0.04645809903740883, -0.04092777520418167, 0.019096480682492256, 0.04577626660466194, -0.020434197038412094, -0.05371149256825447, -0.043395448476076126, -0.06969654560089111, 0.033049777150154114, 0.05258948355913162, -0.1041431874036789, -0.05188298225402832, 0.0031808335334062576, 0.049915265291929245, -0.1183226928114891, -0.022618617862462997, -0.1448545902967453, -0.07549300044775009, 0.07887418568134308, 0.16543690860271454, -0.015520970337092876, -0.1547868400812149, 0.03753606975078583, 0.0617540217936039, 0.003831070614978671, -0.03724229335784912, 0.037778664380311966, -0.00213404418900609, 0.008075120858848095, -0.07401575148105621, -0.03869260847568512, 0.08645517379045486, 0.1119031012058258, 0.0432630330324173, 0.001582606928423047, 0.04757871478796005, -0.05576029419898987, -0.1795344054698944, -0.035618580877780914, 0.027642419561743736, -0.004802032373845577, -0.06221441552042961, -0.10636087507009506, 0.027332479134202003, 0.07457736879587173, -0.03543145954608917, 0.14040663838386536, 0.14895819127559662, 0.10732759535312653, -0.007437286898493767, 0.008468693122267723, 0.024628788232803345, 0.1083768829703331, 0.1164584830403328, 0.13203634321689606, 0.03664006292819977, -0.12437566369771957, -0.09171382337808609, 0.0016742845764383674, 0.02015794813632965, -0.10478192567825317, -0.18679694831371307, -0.18825018405914307, -0.09371118247509003, 0.061411432921886444, -0.09536708146333694, -0.19193212687969208, -0.1774844229221344, 0.06843797117471695, 0.15090766549110413, -0.043260570615530014, -0.17406044900417328, 9.921930904965848e-05, 0.149663507938385, 0.2214295119047165, 0.12232590466737747, 0.2131013572216034, 0.05774259194731712, 0.19206582009792328, 0.15523962676525116, 0.017302434891462326, 0.060093969106674194, -0.015225556679069996, -0.042132142931222916, 0.011823507025837898, -0.11841534823179245, -0.12499405443668365, 0.04779874533414841, 0.033786412328481674, -0.10533668100833893, -0.0972164124250412, -0.058076661080121994, -0.003965856973081827, -0.1618921309709549, 0.017285482957959175, -0.10303370654582977, -0.10812456160783768, 0.0789051502943039, -0.051059819757938385, -0.04763035848736763, -0.05827717483043671, -0.009739256463944912, -0.12981027364730835, -0.11581327766180038, -0.005699682980775833, 0.026010319590568542, -0.017970601096749306, -0.11522779613733292, -0.12268191576004028, 0.003146565519273281, -0.054993096739053726, 0.0869612991809845, 0.061060745269060135, 0.02818877063691616, -0.0342424213886261, 0.11396294087171555, -0.12020362168550491, 0.17713186144828796, 0.07654640823602676, 0.003782732877880335, -0.06974483281373978, -0.019535576924681664, 0.2166307419538498, 0.057664088904857635, -0.09829834848642349, -0.008742935955524445, 0.11813493818044662, 0.16413316130638123, -0.05238403379917145, 0.06646468490362167, 0.15030989050865173, -0.03854691982269287, -0.09487943351268768, -0.1610511839389801, -0.06718047708272934, -0.17271624505519867, 0.045090965926647186, 0.04070483148097992, -0.09016785770654678, -0.03480944782495499, 0.042330220341682434, 0.181701198220253, -0.07350517809391022, -0.032779015600681305, -0.01848513074219227, -0.027790352702140808, 0.015074176713824272, -0.14776533842086792, -0.012944015674293041, -0.0008066100417636335, 0.004843686241656542, -0.07794538885354996, -0.07521604746580124, 0.020147787407040596, 0.0431431420147419, 0.030106108635663986, 0.08934444934129715, -0.16766010224819183, -0.0809735432267189, 0.144318088889122, 0.05911833047866821, 0.05860431119799614, -0.19151222705841064, -0.11864794045686722, 0.18323786556720734, 0.0050770933739840984, -0.1535317301750183, -0.2593858242034912, 0.007974667474627495, 0.09102512896060944, -0.1571742743253708, -0.11822324246168137, 0.07572712004184723, 0.09748750180006027, 0.08170132339000702, -0.019906453788280487, 0.03480374440550804, -0.09439130872488022, -0.0812901183962822, -0.056067321449518204, 0.014475374482572079, -0.044560737907886505, -0.07063126564025879, -0.18230631947517395, -0.01445799134671688, 0.04417923465371132, -0.13269512355327606, -0.3201579451560974, -0.0373118557035923, 0.029810551553964615, 0.06631845235824585, -0.03303205594420433, -0.032751187682151794, 0.2480030208826065, 0.04310668259859085, 0.13620732724666595, -0.039944130927324295, 0.10149459540843964, -0.07775367796421051, -0.09281598031520844, 0.05612918362021446, -0.02912840247154236, -0.12392600625753403, -0.19428451359272003, 0.02662561647593975, 0.0925387367606163, -0.046728286892175674, -0.1626719981431961, -0.20988599956035614, 0.07047934830188751, 0.00020303437486290932, 0.21781735122203827, 0.05348723381757736, -0.3084088861942291, 0.0338670052587986, -0.022041819989681244, 0.11236981302499771, -0.1787295639514923, -0.07811171561479568, 0.14600934088230133, -0.12019281834363937, -0.25357532501220703, -0.09527536481618881, 0.07891261577606201, 0.054321810603141785, 0.013195153325796127, -0.013698159717023373, 0.16891519725322723, 0.12609823048114777, -0.0396946519613266, 0.15002189576625824, -0.12718358635902405, -0.04879156872630119, 0.032698553055524826, -0.010485028848052025, 0.18881729245185852, -0.1409936249256134, -0.16576677560806274, -0.005603395402431488, -0.045381296426057816, 0.15255199372768402, -0.10472900420427322, -0.05842107906937599, -0.20083217322826385, -0.05735669657588005, 0.020666252821683884, -0.0685751661658287, -0.012051401659846306, 0.03615931421518326, 0.14774218201637268, -0.04773632436990738, -0.13829444348812103, 0.019806645810604095, 0.15737128257751465, -0.06301570683717728, -0.12292464822530746, -0.17828212678432465, -0.04699842259287834, 0.1714828610420227, 0.15831194818019867, -0.06700611114501953, -0.23085062205791473, -0.13246330618858337, 0.32394468784332275, 0.06923709809780121, -0.09780876338481903, -0.21399594843387604, -0.06743482500314713, 0.20881231129169464, 0.020553581416606903, -0.08822065591812134, -0.1250128448009491, 0.12112172693014145, 0.08277308195829391, -0.00012892384256701916, -0.11478669941425323, -0.12661999464035034, -0.07944365590810776, -0.15216921269893646, -0.014824672602117062, -0.304185152053833, -0.1723387986421585, -0.007184430956840515, -0.05105172470211983, -0.07944907248020172, -0.1731429547071457, 0.4208957254886627, 0.30400341749191284, -0.061925411224365234, 0.002073433715850115, 0.02673247642815113, 0.17227180302143097, -0.045031748712062836, -0.14426884055137634, -0.027270473539829254, 0.0660741999745369, -0.11090593785047531, -0.036340322345495224, 0.04037310928106308, 0.09508099406957626, -0.04371819272637367, 0.13887548446655273, 0.011376844719052315, 0.08920803666114807, 0.06522298604249954, -0.10507889837026596, 0.06602480262517929, 0.07047481834888458, -0.027958212420344353, 0.03987376391887665, -0.19969142973423004, -0.0405629500746727, -0.01820547692477703, 0.1263972520828247, -0.022640177980065346, -0.13990741968154907, -0.14462769031524658, 0.06306824088096619, 0.020458409562706947, -0.033325713127851486, -0.03793054819107056, -0.07785864919424057, -0.10585937649011612, -0.0034082038328051567, -0.191443532705307, -0.058249227702617645, -0.09433133900165558, -0.11012756079435349, 0.02660239301621914, -0.09892266988754272, -0.08614463359117508, -0.1990366280078888, -0.11743426322937012, -0.09264367073774338, -0.1400550901889801, -0.19622428715229034, -0.13404077291488647, -0.16144239902496338, -0.15274874866008759, -0.060724250972270966, -0.12754827737808228, -0.068485327064991, -0.11849749088287354, -0.12410037219524384, -0.11711373180150986, -0.030365729704499245, -0.11610465496778488, -0.11842535436153412, -0.14463956654071808, -0.1564348191022873, 0.0228747371584177, 0.1630859076976776, 0.11138077825307846, 0.06432351469993591, 0.2317180633544922, -0.13493293523788452, 0.029451142996549606, 0.09786168485879898, 0.01822061836719513, 0.1123664528131485, -0.10282215476036072, -0.169521301984787, 0.0030089772772043943, 0.14651092886924744, -0.002642108825966716, -0.14530953764915466, -0.17969582974910736, -0.10255681723356247, 0.07391708344221115, -0.06438121944665909, 0.05040745064616203, -0.2155740112066269, -0.12367166578769684, 0.04844443500041962, -0.17569760978221893, 0.02388792484998703, 0.050585053861141205, -0.15379707515239716, -0.06119215488433838, -0.06262518465518951, 0.11938448995351791, 0.13499395549297333, -0.1178036704659462, -0.15583758056163788, -0.12929148972034454, 0.03954993933439255, 0.0703326091170311, 0.0037283001001924276, -0.08537621796131134, -0.11564397066831589, -0.18432338535785675, -0.052610132843256, 0.08087959885597229, 0.01846151612699032, 0.07407286018133163, -0.2110326886177063, 0.08727611601352692, 0.09838661551475525, 0.04660247638821602, 0.07431144267320633, 0.048929791897535324, -0.04366319254040718, -0.12744483351707458, -0.03231837600469589, 0.1822909712791443, 0.005018873605877161, 0.18149417638778687, -0.08894120901823044, 0.07652225345373154, 0.1364486962556839, 0.05485948547720909, 0.32589012384414673, 0.016573544591665268, 0.010912294499576092, 0.04197206348180771, -0.11039728671312332, 0.327311635017395, 0.17418590188026428, 0.08015903830528259, 0.04340139031410217, -0.10427799820899963, -0.01200530119240284, 0.06121344864368439, -0.013315318152308464, 0.0007949850405566394, 0.01076302956789732, 0.013618187978863716, -0.04879678040742874, -0.005463127978146076, 0.10559885203838348, -0.04750822111964226, 0.08955221623182297, -0.004938472528010607, -0.08839985728263855, 0.024774497374892235, 0.015347803011536598, 0.0009658320341259241, -0.02368191070854664, 0.024733729660511017, 0.07367803156375885, 0.08027680218219757, -0.09427189826965332, -0.11436387151479721, 0.15216852724552155, 0.1718030571937561, 0.11863816529512405, -0.12191522866487503, 0.1109481155872345, 0.17803017795085907, 0.14718033373355865, -0.054526474326848984, -0.12444040179252625, 0.03361243009567261, 0.08246276527643204, 0.17150956392288208, -0.07142089307308197, -0.19760194420814514, -0.07495608925819397, -0.15141993761062622, -0.017867211252450943, 0.08563477545976639, 0.025992397218942642, 0.019128343090415, 0.09680018573999405, 0.08100852370262146, 0.015586892142891884, 0.10420770943164825, 0.10154718905687332, 0.0698353573679924, -0.01413463894277811, -0.07694748044013977, -0.006762268953025341, -0.07326189428567886, -0.02019006386399269, -0.023287611082196236, -0.09434277564287186, -0.00202830508351326, -0.018910948187112808, 0.02660643309354782, -0.010361377149820328, -0.033271949738264084, -0.16863913834095, -0.23287878930568695, -0.12460239231586456, -0.029322363436222076, 0.023260697722434998, 0.1448071002960205, 0.42104285955429077, 0.5315781831741333, 0.1801704615354538, -0.053964268416166306, 0.04632630571722984, 0.10730398446321487, -0.18339306116104126, -0.21687594056129456, 0.025524171069264412, -0.004760142415761948, 0.013841421343386173, -0.06551572680473328, -0.028712589293718338, -0.05771971121430397, -0.09394073486328125, -0.17784929275512695, -0.003862943034619093, 0.16988007724285126, -0.12217444181442261, -0.1807376593351364, -0.14478151500225067, -0.11930333822965622, -0.09297731518745422, -0.029376819729804993, -0.11162704229354858, -0.16575384140014648, -0.16788451373577118, -0.09773747622966766, 0.10518184304237366, 0.20090410113334656, 0.2036299854516983, 0.2776675820350647, 0.0656985491514206, 0.07411898672580719, 0.10115353018045425, 0.07744062691926956, -0.022805863991379738, 0.0078666340559721, -0.08647149801254272, -0.05862761288881302, 0.006788911297917366, 0.043130408972501755, -0.02990875393152237, 0.07004214078187943, 0.08142738789319992, 0.10659068822860718, 0.11918377876281738, 0.033106185495853424, -0.05204801633954048, -0.011237459257245064, -0.06652200222015381, -0.26887840032577515, -0.20414383709430695, 0.21616798639297485, 0.2087344080209732, 0.06280077993869781, -0.01345700491219759, -0.039473872631788254, -0.03236602619290352, -0.08688950538635254, 0.009863737039268017, -0.16739119589328766, -0.12477383762598038, 0.0839761272072792, 0.04275057092308998, 0.08326884359121323, -0.12648987770080566, -0.017549864947795868, -0.024055570363998413, -0.09484761208295822, -0.03058330900967121, -0.14006540179252625, -0.14987127482891083, -0.055217377841472626, -0.0339202918112278, -0.14205138385295868, -0.13722479343414307, -0.07965520024299622, -0.08095292747020721, -0.12777605652809143, -0.11526988446712494, -0.26276955008506775, -0.07520987838506699, -0.07328376173973083, 0.09934179484844208, -0.05506022274494171, 0.06658370792865753, 0.02494685724377632, 0.0092942388728261, 0.14751794934272766, 0.04311618581414223, 0.13192693889141083, 0.214391827583313, -0.08604255318641663, -0.08311610668897629, 0.042907990515232086, -0.08205223083496094, -0.2566467523574829, -0.20269398391246796, -0.3226165473461151, -0.33353713154792786, -0.1697443574666977, -0.0571039542555809, 0.04061471298336983, 0.058934953063726425, 0.14900429546833038, 0.17479455471038818, 0.05883745104074478, 0.13373498618602753, 0.07646381855010986, 0.1111968383193016, 0.0009223712258972228, -0.23417086899280548, -0.07019706070423126, -0.12397722899913788, -0.1683233678340912, -0.12886062264442444, -0.08899537473917007, 0.21821340918540955, 0.03038093075156212, 0.033514056354761124, 0.02417059801518917, 0.075411856174469, 0.1379048079252243, 0.07491068542003632, -0.01595083624124527, 0.13499219715595245, 0.2226978987455368, -0.004764951765537262, 0.08043773472309113, -0.006812309380620718, 0.0608527846634388, 0.07701501995325089, -0.19883988797664642, 0.05032474547624588, -0.0081158597022295, -0.0696803629398346, 0.0032384160440415144, -0.008285350166261196, 0.01294830534607172, 0.023825081065297127, 0.02375718019902706, 0.05608649551868439, 0.1334919035434723, 0.12868982553482056, 0.16611410677433014, 0.3108699917793274, 0.15546324849128723, -0.037566155195236206, 0.057595741003751755, -0.011499418877065182, 0.1217886358499527, 0.025312203913927078, -0.14224568009376526, -0.060981012880802155, -0.02128801867365837, -0.1245758980512619, -0.08708368241786957, -0.08917497098445892, -0.15453310310840607, -0.0027072366792708635, -0.01863480918109417, -0.06292463839054108, -0.34887775778770447, -0.3427508771419525, -0.30837178230285645, -0.2489050179719925, -0.2761991620063782, 0.041408129036426544, -0.021544527262449265, -0.08401522785425186, -0.047173529863357544, -0.11907204985618591, 0.13243086636066437, 0.08286646008491516, 0.15004615485668182, 0.20868879556655884, 0.3242019712924957, 0.07410682737827301, 0.013658298179507256, 0.18232174217700958, 0.16661027073860168, 0.23993536829948425, -0.11855759471654892, 0.04393927752971649, 0.17435553669929504, 0.09535063803195953, 0.030882136896252632, -0.10680020600557327, -0.018146749585866928, -0.08713477849960327, -0.03501284867525101, -0.017099520191550255, -0.07371442019939423, -0.09429590404033661, -0.13920095562934875, -0.11246820539236069, -0.23156386613845825, 0.09661038219928741, -0.0429588258266449, -0.23611365258693695, -0.12705780565738678, -0.11401932686567307, -0.047420684248209, -0.10603587329387665, -0.19423657655715942, -0.08434673398733139, -0.07316648960113525, -0.08664438873529434, -0.08735829591751099, -0.0861884132027626, -0.10042152553796768, -0.014085493050515652, 0.02101043052971363, -0.025363365188241005, -0.06071656942367554, 0.01896093413233757, 0.10478363931179047, -0.08253901451826096, -0.13225892186164856, -0.07326929271221161, 0.020294003188610077, 0.11825219541788101, -0.04952436685562134, -0.10380764305591583, -0.09808347374200821, -0.015141255222260952, 0.07844583690166473, 0.07440561801195145, 0.05835428088903427, -0.1133413314819336, -0.09709147363901138, -0.03013448789715767, 0.15873627364635468, 0.20971304178237915, -0.07194466143846512, -0.04289265349507332, -0.11115383356809616, -0.07610449939966202, -0.07488127052783966, -0.1314280480146408, 0.0469854474067688, -0.07450761646032333, -0.19688349962234497, -0.17733372747898102, -0.1316109150648117, -0.08181753754615784, -0.24606375396251678, -0.14794641733169556, -0.09314464777708054, -0.12735480070114136, 0.0005142431473359466, -0.027185657992959023, -0.06262751668691635, -0.15149688720703125, -0.09134674072265625, 0.056399520486593246, -0.0389634408056736, -0.18901294469833374, -0.07561811804771423, -0.10244730859994888, 0.0730665922164917, -0.036803774535655975, 0.05034071207046509, -0.003799379337579012, 0.07073581963777542, -0.010567896068096161, -0.0632152259349823, -0.05918210744857788, 0.0543052963912487, -0.03451155126094818, -0.028745073825120926, 0.056585971266031265, 0.06947054713964462, -0.02122420445084572, -0.07219759374856949, -0.061386726796627045, -0.04076967388391495, -0.05467718839645386, 0.029217123985290527, -0.04205802083015442, 0.038133107125759125, -0.0218278169631958, -0.05334093049168587, 0.000607859343290329, -0.00018875529349315912, -0.04056919366121292, -0.029978258535265923, -0.0476987324655056, 0.07881923764944077, 0.008731205947697163, -0.0623198039829731, -0.07206147164106369, -0.05738668143749237, -0.05393316224217415, 0.02665267512202263, -0.031744346022605896, -0.06205649673938751, -0.0020362650975584984, -0.04592286795377731, -0.04518131911754608, -0.058437954634428024, -0.027346940711140633, -0.04202656075358391, -0.032214801758527756, 0.03517398238182068, -0.03711668774485588, 0.04085594415664673, -0.06679002195596695, 0.045101962983608246, -0.06694547086954117, -0.03229553997516632, -0.05855248123407364, -0.07088237255811691, -0.06440416723489761, 0.05394962430000305, -0.04970339685678482, 0.015097435563802719, -0.06482293456792831, -0.0799500048160553, 0.06564930081367493, -0.022410012781620026, 0.006232249550521374, -0.019412152469158173, -0.06373808532953262, -0.035645801573991776, -0.05539175495505333, -0.04215843603014946, -0.06341222673654556, -0.07187752425670624, -0.027865219861268997, 0.05897614732384682, 0.05444794148206711, 0.07644829899072647, -0.07385730743408203, -0.06645894050598145, 0.06798849254846573, -0.05662480741739273, 0.04110501706600189, 0.05855729430913925, 0.023923616856336594, -0.045802295207977295, -0.007230049930512905, 0.03768264502286911, 0.022006675601005554, -0.0695285052061081, 0.044287264347076416, -0.0417603924870491, 0.057250313460826874, 0.03912985697388649, -0.0060469177551567554, 0.039989370852708817, 0.0110907768830657, -0.07896890491247177, -0.01679101772606373, -0.05541979894042015, 0.03041164018213749, -0.07849610596895218, 0.01084007415920496, 0.06719953566789627, -0.018299100920557976, -0.040788859128952026, 0.06667844951152802, 0.01702558994293213, 0.011469212360680103, -0.02594272792339325, 0.04176383838057518, 0.06566847115755081, -0.019079329445958138, -0.02143152989447117, 0.024838663637638092, -0.014791088178753853, -0.02999757044017315, -0.07801252603530884, 0.03219200298190117, 0.01749645546078682, -0.0424170084297657, -0.0431014783680439, 0.046603042632341385, 0.059434182941913605, 0.0038204859010875225, 0.0631222352385521, 0.06889265030622482, -0.07631857693195343, -0.0617876797914505, -0.019655127078294754, -0.02901781164109707, -0.07093869894742966, -0.059991076588630676, -0.02020319364964962, 0.010747198946774006, -0.08373668789863586, 0.04569350928068161, -0.03487849980592728, 0.019144602119922638, 0.05036136135458946, 0.06321922689676285, -0.03812176361680031, -0.05577009171247482, 0.03148791193962097, -0.005562042351812124, -0.0333438403904438, -0.013333424925804138, -0.015559526160359383, -0.04511890932917595, 0.04714539274573326, 0.06378521770238876, 0.048654258251190186, -0.07530976831912994, 0.04671532288193703, 0.03743547573685646, 0.06764084845781326, -0.04026810824871063, 0.023549728095531464, -0.1235334724187851, -0.06684966385364532, 0.026880284771323204, -0.10711023211479187, 0.0047163404524326324, 0.014276459813117981, -0.03851989284157753, -0.04174910485744476, -0.15047068893909454, -0.009799766354262829, -0.05747164040803909, -0.2190486043691635, -0.24694550037384033, 0.0358508825302124, -0.0802750363945961, -0.10451570898294449, 5.876658178749494e-05, 0.20359796285629272, 0.18982961773872375, -0.01337108388543129, 0.08421491831541061, 0.022371161729097366, 0.10090819001197815, 0.018321620300412178, 0.0708564966917038, 0.02909241057932377, -0.05263020098209381, -0.06286649405956268, -0.11259274184703827, 0.026651695370674133, -0.01250924076884985, 0.0762641504406929, -0.18681024014949799, -0.23820021748542786, -0.0313420407474041, -0.24678008258342743, -0.15480051934719086, 0.04232921078801155, 0.01296048890799284, 0.024403007701039314, -0.016958601772785187, 0.26190775632858276, 0.2854597866535187, 0.01655993051826954, 0.051951952278614044, 0.12323310971260071, 0.041096124798059464, -0.16419212520122528, -0.14089931547641754, 0.0961771234869957, -0.06634742766618729, -0.10730360448360443, 0.04046102985739708, -0.05808782950043678, 0.04991859570145607, -0.05778636038303375, 0.08240824937820435, -0.11968664824962616, -0.11388660967350006, -0.0035770093090832233, 0.06585129350423813, 0.10328322649002075, -0.21269042789936066, -0.03689001128077507, -0.07962790131568909, -0.11097612977027893, -0.2107352912425995, 0.035787396132946014, 0.002736827591434121, -0.13146473467350006, 0.02655758149921894, 0.02821304462850094, 0.12701277434825897, 0.06228848919272423, 0.00047267944319173694, -0.1377170830965042, 0.013571235351264477, 0.038974829018116, 0.026143569499254227, -0.016514655202627182, -0.09309832751750946, 0.0578409880399704, 0.23611104488372803, 0.11046045273542404, 0.040679965168237686, 0.01978551596403122, 0.07743667811155319, -0.06580229848623276, -0.09231720119714737, -0.15236742794513702, -0.16621296107769012, -0.23275290429592133, -0.06695916503667831, -0.06124188378453255, -0.1097889170050621, -0.0027079686988145113, 0.08708622306585312, 0.09266673028469086, -0.1813858300447464, 0.12100497633218765, 0.08277566730976105, 0.014975626952946186, 0.07892455905675888, 0.04067372530698776, 0.13173381984233856, -0.06027309596538544, 0.020341169089078903, -0.08835946768522263, -0.07202240079641342, 0.008555320091545582, -0.129297137260437, 0.014204154722392559, -0.20075073838233948, -0.08388382196426392, -0.007525543216615915, 0.04685027152299881, 0.03571391850709915, 0.0073393527418375015, -0.12005499750375748, -0.10726034641265869, 0.0821646898984909, 0.15986424684524536, -0.04609664902091026, -0.15218029916286469, 0.10719354450702667, 0.035376597195863724, -0.05679352954030037, -0.0526111014187336, 0.10688109695911407, 0.006239715497940779, 0.15896889567375183, 0.14276088774204254, 0.21075069904327393, -0.013927953317761421, 0.09152600914239883, 0.2804034352302551, 0.15559889376163483, -0.10151668637990952, -0.14871005713939667, 0.015053492039442062, -0.021475352346897125, -0.07259441167116165, -0.09834832698106766, -0.049476660788059235, -0.1940484195947647, 0.10167616605758667, 0.030160490423440933, 0.008411653339862823, 0.004717128351330757, 0.15992838144302368, 0.01200173795223236, -0.1044047549366951, -0.018715791404247284, -0.1279592663049698, 0.07078830152750015, 0.075328029692173, -0.10248711705207825, -0.19939669966697693, -0.04148554801940918, 0.07381156086921692, 0.10956012457609177, 0.005224463529884815, -0.21216155588626862, 0.01036402303725481, 0.041287947446107864, 0.042206332087516785, 0.1024828851222992, -0.09566101431846619, -0.1059071272611618, -0.027288131415843964, 0.09155195206403732, 0.04170427843928337, 0.14394041895866394, -0.07118936628103256, 0.04721754789352417, -0.038771335035562515, -0.16471946239471436, -0.07030259072780609, 0.01147434301674366, 0.02039051242172718, -0.10297929495573044, -0.09203298389911652, -0.14772893488407135, -0.016943132504820824, -0.027911009266972542, 0.018731631338596344, 0.010568659752607346, -0.041249632835388184, 0.01255593728274107, -0.09065642207860947, -0.07365185022354126, 0.161307692527771, 0.11648532003164291, 0.10717254877090454, -0.03054485283792019, -0.10339554399251938, -0.02287556231021881, 0.13739900290966034, 0.06709396094083786, 0.05991443619132042, 0.0006780763505958021, 0.01224430650472641, -0.17085394263267517, -0.1689682900905609, 0.18005238473415375, 0.11480533331632614, -0.21642673015594482, -0.27138182520866394, -0.25359100103378296, 0.18790119886398315, 0.1280788630247116, 0.0036353820469230413, -0.29750677943229675, -0.3246731758117676, 0.20463639497756958, 0.23749271035194397, 0.2623453438282013, -0.020492317155003548, -0.18210312724113464, 0.09278324246406555, 0.19593457877635956, 0.10948341339826584, 0.1810903698205948, -0.0076663680374622345, -0.05025772377848625, -0.13567319512367249, -0.18286454677581787, -0.13040447235107422, -0.20251908898353577, 0.01808369904756546, -0.11928161233663559, -0.14480814337730408, 0.07595449686050415, 0.14338159561157227, 0.026855750009417534, -0.09859036654233932, -0.08473903685808182, 0.027864493429660797, 0.11934584379196167, 0.09940911084413528, 0.13758684694766998, 0.05167074501514435, -0.051208943128585815, -0.07579696923494339, 0.0938226729631424, 0.06097684055566788, 0.012082144618034363, 0.09991686046123505, -0.027181535959243774, -0.03964383155107498, -0.03912854194641113, 0.033509012311697006, 0.19498220086097717, -0.061817869544029236, -0.0899684876203537, -0.07215479016304016, -0.05072949081659317, 0.24470791220664978, -0.012592673301696777, -0.018043817952275276, -0.020354462787508965, 0.04181439056992531, 0.016961345449090004, 0.048242900520563126, -0.046411190181970596, -0.058701906353235245, 0.039692167192697525, -0.19048410654067993, -0.019114118069410324, -0.025373095646500587, -0.0352998822927475, 0.0023899911902844906, -0.05259818211197853, -0.046497732400894165, -0.03810136392712593, 0.059864357113838196, 0.0015296153724193573, -0.14787758886814117, 0.03666660562157631, -0.036347243934869766, -0.06430162489414215, -0.08444405347108841, -0.1948723942041397, 0.0334804467856884, -0.10078749805688858, -0.2084672749042511, -0.11217914521694183, -0.1535569280385971, -0.07444195449352264, -0.021560272201895714, -0.07798966765403748, -0.05447150394320488, -0.006495426408946514, -0.08224909752607346, 0.06623511016368866, 0.03208222985267639, 0.08867845684289932, 0.1245773434638977, 0.05841455236077309, 0.06588932126760483, 0.024193113669753075, -0.028971856459975243, 0.041614145040512085, 0.024855582043528557, 0.0529303178191185, -0.012523064389824867, 0.024686923250555992, -0.02091672457754612, 0.062244072556495667, -0.037655964493751526, -0.025740627199411392, -0.02632579579949379, -0.019260825589299202, -0.012420838698744774, -0.06402187794446945, -0.0533951073884964, -0.08043564110994339, -0.04806037247180939, -0.040784332901239395, -0.07089322805404663, -0.02101944386959076, 0.00067888357443735, 0.04931437596678734, -0.03472425416111946, -0.061196520924568176, 0.03821058198809624, -0.06980916112661362, -0.023233015090227127, 0.05111462622880936, 0.06432511657476425, -0.043361399322748184, 0.038728583604097366, -0.06282948702573776, 0.052935533225536346, -0.023808903992176056, -0.006405187770724297, -0.03457942232489586, -0.00209439336322248, 0.04314671829342842, 0.004312378820031881, -0.05544157326221466, -0.05072372034192085, -0.08056636154651642, 0.005373324733227491, 0.023267677053809166, -0.05700306221842766, 0.014159574173390865, -0.021108949556946754, 0.026597652584314346, -0.048633456230163574, -0.04334728419780731, 0.06944914907217026, 0.027665436267852783, 0.006984433624893427, -0.026312140747904778, -0.03829669579863548, -0.06164996325969696, -0.023380327969789505, -0.061177704483270645, 0.06323837488889694, 0.022484200075268745, -0.06899216026067734, -0.02087278664112091, -0.03749983385205269, -0.008935291320085526, -0.028112469241023064, 0.03918939083814621, 0.05500739440321922, -0.03557340428233147, 0.02281796932220459, 0.022484920918941498, 0.009193367324769497, -0.04794200882315636, 0.01623406819999218, -0.0381004698574543, 0.06242850422859192, -0.008145800791680813, -0.0051176114939153194, 0.0003101328038610518, 0.026210874319076538, 0.026706866919994354, -0.021926535293459892, 0.07288134098052979, -0.07074081152677536, -0.009646507911384106, -0.06686121225357056, -0.0272513534873724, -0.06490221619606018, 0.03056528978049755, 0.06989774852991104, -0.017928486689925194, -0.008424664847552776, -0.0514112152159214, 0.038570620119571686, -0.016552718356251717, 0.07431762665510178, 0.06335228681564331, 0.07774404436349869, -0.05825616419315338, 0.038198355585336685, 0.06153130158782005, 0.012702577747404575, 0.005157960578799248, -0.05504671856760979, 0.019546372815966606, -0.029283152893185616, 0.06780143827199936, -0.056033335626125336, 0.013980000279843807, -0.08390052616596222, -0.05799012631177902, 0.004391315393149853, -0.0057834782637655735, -0.02995748072862625, 0.027424722909927368, -0.0029367711395025253, -0.006171249784529209, -0.05040600150823593, -0.019422901794314384, -0.014249436557292938, -0.05138082802295685, 0.07921694219112396, -0.06916390359401703, 0.08075100928544998, 0.06592488288879395, 0.05387929081916809, -0.060397520661354065, -0.007934162393212318, -0.029921988025307655, -0.01341599877923727, -0.022887971252202988, -0.024183114990592003, -0.03741835430264473, -0.0662589967250824, -0.07444392144680023, 0.08157768100500107, 0.07415936142206192, 0.06728817522525787, 0.055017244070768356, -0.03966829553246498, -0.03957049921154976, -0.07686685770750046, -0.0747043713927269, -0.044925443828105927, 0.036568474024534225, -0.018287617713212967, -0.042875729501247406, 0.006428465247154236, -0.01675070822238922, 0.053441911935806274, -0.006304215639829636, -0.009687702171504498, -0.09972278028726578, 0.040799129754304886, 0.07266940176486969, -0.11049635708332062, -0.22194704413414001, 0.06812337785959244, 0.08631030470132828, -0.010778035968542099, -0.24497242271900177, 0.07614931464195251, 0.1503135859966278, 0.097243532538414, -0.16100886464118958, -0.11003834754228592, 0.13280202448368073, -0.050024811178445816, 0.041939690709114075, -0.042864810675382614, -0.0535782091319561, 0.01305985264480114, 0.0038032836746424437, 0.055132295936346054, 0.06177416443824768, 0.08600999414920807, 0.07798387855291367, -0.13846442103385925, 0.019054383039474487, 0.08990395814180374, 0.01827736757695675, 0.049717701971530914, 0.044782817363739014, 0.02981998212635517, -0.24477967619895935, -0.1290828138589859, 0.0625227838754654, 0.030428946018218994, 0.00820874609053135, -0.15796716511249542, -0.18332307040691376, -0.06209849938750267, 0.04665188491344452, 0.09087903797626495, -0.08032768964767456, -0.10218799859285355, 0.061411887407302856, 0.0029848567210137844, 0.06831374019384384, 0.09671458601951599, 0.1291361004114151, 0.05640538036823273, -0.0011816062033176422, -0.08464906364679337, 0.07916716486215591, 0.14596158266067505, -0.0729198157787323, -0.1844366043806076, -0.01746911182999611, -0.03980836272239685, -0.12803640961647034, -0.3157919943332672, -0.03418561816215515, 0.03255148231983185, -0.19133269786834717, -0.2519805133342743, -0.1635734736919403, -0.015876512974500656, -0.01100542489439249, -0.06451654434204102, -0.27987560629844666, -0.28787288069725037, -0.014925501309335232, 0.019162746146321297, 0.004822207614779472, 0.08071596920490265, 0.05495042726397514, 0.027303071692585945, 0.014380127191543579, 0.03213675320148468, 0.04466438665986061, -0.010809410363435745, -0.0241935383528471, -0.050321683287620544, -0.09570106118917465, -0.1289096623659134, -0.04155702143907547, 0.08966412395238876, 0.0924295112490654, -0.2059597223997116, -0.02012050524353981, 0.03303825855255127, 0.14298364520072937, 0.011723525822162628, 0.03465953469276428, 0.061497852206230164, 0.26441094279289246, -0.013194780796766281, 0.04098823666572571, -0.1534779965877533, -0.05010558292269707, -0.031972263008356094, -0.10733526945114136, 0.0018485101172700524, -0.031098660081624985, -0.04770069569349289, -0.011354057118296623, -0.08548171073198318, -0.05970892682671547, -0.07342848181724548, 0.0580793097615242, 0.12999366223812103, -0.13265380263328552, -0.09436871856451035, -0.025438835844397545, 0.2281588464975357, 0.01525338925421238, -0.09095412492752075, -0.02269258350133896, -0.12720119953155518, 0.18097810447216034, 0.09978685528039932, 0.0690583884716034, 0.011320700868964195, 0.009162812493741512, 0.10829491913318634, 0.21954341232776642, 0.1288452297449112, -0.01178070716559887, 0.14503292739391327, 0.2759176790714264, 0.06032589077949524, -0.087771475315094, -0.09870825707912445, 0.18733209371566772, 0.0010768092470243573, -0.18764783442020416, -0.0525154210627079, -0.12296143919229507, -0.10538904368877411, -0.3269696533679962, -0.07025115191936493, -0.03825591132044792, -0.14672483503818512, -0.13242481648921967, -0.0747842788696289, 0.04610750079154968, 0.0532195083796978, -0.13430413603782654, -0.010324886068701744, -0.05867781490087509, 0.020979251712560654, 0.02814769372344017, 0.09253109246492386, 0.015177217312157154, 0.17732858657836914, 0.049779489636421204, 0.03714426979422569, 0.1087334156036377, -0.15694227814674377, -0.17587639391422272, 0.020058363676071167, 0.048996198922395706, -0.09959901124238968, 0.03415348008275032, -0.1782473921775818, -0.20858298242092133, -0.01683601550757885, 0.0823991671204567, 0.10265851765871048, 0.06406739354133606, 0.02379872091114521, 0.00565936416387558, 0.13938255608081818, -0.05664772912859917, -0.06827037781476974, -0.008931512013077736, 0.011462857946753502, 0.05625917389988899, -0.1294698268175125, -0.05704512447118759, 0.04984049126505852, 0.005297007039189339, -0.11588048934936523, -0.19009645283222198, -0.2636696994304657, -0.17761817574501038, -0.0492544062435627, -0.018428197130560875, 0.23499779403209686, 0.1363922655582428, -0.03762975335121155, 0.009021124802529812, 0.07618532329797745, -0.2168872356414795, 0.040106892585754395, 0.15684974193572998, 0.12134521454572678, -0.004411420784890652, 0.14437352120876312, 0.08544810116291046, 0.023881852626800537, 0.021952634677290916, 0.058608539402484894, -0.08144456893205643, 0.09334398061037064, 0.04949960112571716, 0.04449021443724632, 0.015208537690341473, -0.18368776142597198, -0.12163099646568298, 0.010465133935213089, 0.06857232749462128, 0.03661743551492691, -0.06979186832904816, -0.20616625249385834, -0.22596846520900726, -0.1736009418964386, 0.030764661729335785, 0.1236799880862236, 0.1420566588640213, -0.005776136182248592, -0.05770302563905716, 0.08477018773555756, 0.037372320890426636, -0.04973410442471504, -0.011776815168559551, 0.010820206254720688, 0.05294254422187805, 0.17158721387386322, 0.03933032229542732, 0.05678442865610123, -0.11972499638795853, -0.008186552673578262, 0.13095857203006744, 0.39613428711891174, 0.42584389448165894, 0.2434157282114029, 0.09155797213315964, -0.11593753099441528, -0.028645414859056473, 0.06395748257637024, -0.011201239190995693, 0.03359806165099144, -0.07389424741268158, -0.032175302505493164, -0.035722434520721436, 0.02026713825762272, 0.013961663469672203, -0.16187885403633118, 0.07379887253046036, 0.06848658621311188, 0.1273108720779419, 0.14651212096214294, 0.032208770513534546, 0.10274151712656021, -0.10710667818784714, 0.027024729177355766, -0.07756859064102173, -0.033684033900499344, -0.12911760807037354, -0.09671399742364883, -0.14991618692874908, -0.030443325638771057, -0.06532040238380432, -0.2193310409784317, -0.018054302781820297, -0.0953306332230568, -0.058937955647706985, 0.0982428565621376, 0.01442781277000904, -0.011835330165922642, -0.0020030757877975702, 0.07352007925510406, 0.1260259598493576, 0.016008391976356506, 0.05751018226146698, -0.029408009722828865, -0.08826010674238205, -0.029290197417140007, -0.024980580434203148, -0.05937431752681732, 0.06973039358854294, 0.03824319317936897, -0.0841987356543541, -0.05765652284026146, 0.03558659553527832, 0.15472511947155, 0.14681163430213928, -0.22227919101715088, -0.2119148075580597, -0.33317625522613525, -0.18142513930797577, -0.11939842253923416, -0.13194744288921356, -0.10597354173660278, -0.14159472286701202, -0.049369923770427704, -0.029255645349621773, -0.030801665037870407, -0.17559832334518433, -0.09438009560108185, -0.10701535642147064, -0.04255520924925804, -0.005863160360604525, 0.004928553011268377, 0.14472289383411407, 0.11954732239246368, -0.007216684985905886, 0.06058960407972336, 0.10602861642837524, 0.041982252150774, 0.09870155900716782, 0.004719291813671589, 0.030334092676639557, -0.007897737435996532, -0.046155013144016266, 0.09301146864891052, 0.03723932430148125, -0.023946082219481468, -0.0497114472091198, -0.0958695113658905, -0.07304953038692474, 0.030294813215732574, -0.133451446890831, -0.061860665678977966, 0.03818897530436516, -0.0032943529076874256, -0.10745274275541306, -0.007929668761789799, 0.136874720454216, 0.17970801889896393, 0.13137295842170715, -0.04791392758488655, 0.09071709215641022, -0.010158123448491096, 0.04704754054546356, -0.06643367558717728, -0.0457104928791523, -0.008015690371394157, -0.05026312172412872, -0.09400120377540588, -0.0926487147808075, 0.0021157811861485243, -0.09783412516117096, 0.0405815988779068, -0.008972926065325737, -0.03031298518180847, -0.10364547371864319, -0.015667319297790527, -0.12400247156620026, -0.0998305007815361, -0.08833140134811401, -0.03475111722946167, -0.1572471410036087, -0.22275438904762268, -0.0028417925350368023, 0.10671882331371307, -0.0181420911103487, -0.10501700639724731, 0.06798428297042847, 0.1817680299282074, 0.1775825172662735, 0.10805273801088333, -0.048792533576488495, 0.055547527968883514, 0.16084185242652893, 0.13316483795642853, 0.12437255680561066, 0.0024475432001054287, -0.13081616163253784, -0.0340876430273056, -0.05721348151564598, 0.040976788848638535, 0.12752656638622284, 0.07624495774507523, 0.03418087586760521, -0.07875198125839233, -0.0032978421077132225, 0.09597033262252808, -0.0790938138961792, -0.09823337197303772, -0.12463515996932983, -0.01893514208495617, -0.06831435859203339, -0.01480044238269329, -0.024197546765208244, -0.06054757907986641, -0.0570063441991806, -0.08231079578399658, 0.1056886613368988, 0.06878523528575897, 0.1062038391828537, 0.08006944507360458, 0.034646306186914444, 0.09016524255275726, 0.005176509264856577, -0.042340923100709915, -0.013265720568597317, -0.16223467886447906, -0.0811314508318901, 0.02482922188937664, 0.079220250248909, 0.04998176172375679, -0.10934562236070633, 0.07032842934131622, 0.17688928544521332, 0.01882876455783844, -0.018217286095023155, -0.0939229354262352, 0.10355430841445923, 0.05737285315990448, -0.14085638523101807, -0.10942801833152771, -0.014951992779970169, -0.05004202947020531, -0.10416590422391891, 0.01015094481408596, -0.11217368394136429, -0.007921148091554642, -0.09108907729387283, 0.04038504511117935, -0.11870520561933517, 0.057419925928115845, 0.19054554402828217, 0.045474130660295486, -0.03971538692712784, -0.13742271065711975, -0.1393139809370041, 0.12060008198022842, 0.006350510288029909, -0.1865227073431015, -0.15378254652023315, -0.19960811734199524, -0.11247166991233826, -0.1711980700492859, -0.023510031402111053, -0.14506858587265015, -0.159164160490036, 0.005400246009230614, -0.0499861054122448, -0.0047364141792058945, -0.045971743762493134, -0.08335141092538834, -0.026918577030301094, 0.04778485372662544, 0.01680666022002697, -0.1303539127111435, -0.049569543451070786, 0.02772585116326809, -0.014784170314669609, 0.1094474345445633, 0.04495009779930115, 0.12303871661424637, 0.059482965618371964, 0.033011652529239655, 0.07701300829648972, -0.07310912758111954, -0.07417809963226318, -0.016369303688406944, 0.10193289071321487, -0.19640396535396576, -0.11977814137935638, 0.16778641939163208, -0.12190471589565277, -0.1373114138841629, -0.19563926756381989, 0.010459914803504944, 0.08250291645526886, -0.21889150142669678, -0.22847092151641846, -0.10150662064552307, -0.03313044086098671, 0.016511304304003716, 0.05110993981361389, 0.017270402982831, 0.15451380610466003, 0.0030390555039048195, -0.09366322308778763, -0.0040146540850400925, -0.016066331416368484, 0.014805631712079048, -0.03888487443327904, 0.014977931044995785, 0.0011394425528123975, -0.13453523814678192, -0.150459423661232, 0.08544645458459854, 0.19625172019004822, -0.16489183902740479, -0.27830344438552856, -0.16413810849189758, -0.0006913320976309478, -0.04316292330622673, -0.18034827709197998, -0.19119979441165924, -0.027488918974995613, 0.0011630195658653975, 0.13623833656311035, 0.06562013924121857, 0.008153473027050495, 0.11972811073064804, 0.20069554448127747, 0.1343076229095459, -0.0266099963337183, 0.06057974696159363, 0.2735288143157959, 0.2385985553264618, -0.0751815065741539, 0.024524731561541557, 0.15580669045448303, 0.06267759948968887, -0.25488102436065674, 0.045345935970544815, 0.0347016379237175, -0.07668276876211166, -0.3299839198589325, -0.05895084887742996, 0.12270788848400116, -0.2498016506433487, -0.1959684193134308, -0.3203483521938324, -0.07040587812662125, -0.010652427561581135, -0.022916613146662712, -0.15458734333515167, -0.038896623998880386, -0.06836587935686111, 0.12073489278554916, -0.08907940983772278, 0.015878992155194283, -0.048632554709911346, -0.021559538319706917, 0.09477954357862473, 0.05681777372956276, 0.003067907178774476, -0.14940319955348969, -0.08734725415706635, -0.07829773426055908, 0.022290363907814026, -0.1558012068271637, -0.031711168587207794, -0.14095866680145264, -0.09289398789405823, 0.02942262776196003, 0.07188894599676132, 0.1824188083410263, 0.13823875784873962, 0.17995989322662354, 0.03324800357222557, 0.012143929488956928, 8.709686881047674e-06, -0.06050322204828262, 0.05456509441137314, 0.03668483346700668, 0.04907623678445816, 0.005131653510034084, -0.10253450274467468, -0.0492507740855217, 0.10002001374959946, 0.06655547767877579, -0.11249105632305145, 0.03402712568640709, -0.048574309796094894, 0.0403602160513401, 0.023722674697637558, 0.03887031972408295, 0.10498468577861786, -0.060922883450984955, 0.10001927614212036, -0.016089625656604767, 0.07021833211183548, 0.06197359040379524, -0.05475829169154167, -0.008517995476722717, -0.2061764895915985, -0.17449645698070526, 0.17188113927841187, 0.018055923283100128, -0.08476169407367706, -0.020527981221675873, 0.2816115617752075, 0.1937403827905655, -0.1298964023590088, -0.048810623586177826, 0.306470662355423, 0.1902150809764862, -0.30483758449554443, 0.044471461325883865, 0.056145403534173965, 0.02126547507941723, -0.30170223116874695, -0.16601084172725677, 0.038576558232307434, -0.06455142796039581, -0.17916162312030792, -0.18620061874389648, -0.03139118477702141, -0.07802490890026093, -0.016041766852140427, 0.09736713767051697, 0.07247763872146606, 0.1288454383611679, 0.048934899270534515, -0.022882021963596344, 0.07023240625858307, 0.11619489639997482, 0.07108563929796219, 0.02201147936284542, 0.12282904982566833, 0.11689957231283188, -0.022494573146104813, 0.005994928069412708, -0.13452523946762085, -0.0715150237083435, -0.0392414890229702, -0.15261000394821167, -0.13637225329875946, -0.13214974105358124, -0.1479695439338684, 0.03076091594994068, -0.13126890361309052, -0.03714973106980324, -0.1972579061985016, 0.10211765766143799, 0.011542116291821003, -0.035003021359443665, 0.005041119176894426, -0.12298233807086945, -0.04261777922511101, 0.10277961939573288, 0.053357355296611786, 0.09701894223690033, -0.15624241530895233, 0.1242946982383728, 0.10098156332969666, 0.06358835101127625, -0.10881978273391724, -0.0620461106300354, -0.03982308879494667, -0.0902409628033638, 0.03944285959005356, 0.07280106842517853, -0.07964099198579788, 0.035906832665205, 0.004641847684979439, -0.05231735482811928, -0.12640295922756195, -0.18637007474899292, -0.08030030131340027, -6.775365181965753e-05, 0.05980710685253143, 0.06416751444339752, 0.12985622882843018, -0.0354277677834034, 0.08161403983831406, 0.1496407389640808, 0.17644359171390533, 0.06793923676013947, 0.1997019350528717, 0.22627374529838562, 0.19159771502017975, 0.15598326921463013, -0.033061616122722626, 0.03358439356088638, 0.20574888586997986, 0.023145560175180435, -0.2697497308254242, -0.11673381179571152, -0.1605743020772934, -0.18422995507717133, -0.14203187823295593, -0.15174426138401031, -0.23540404438972473, -0.11326287686824799, -0.17195869982242584, -0.08580972999334335, -0.09449154138565063, -0.19497039914131165, -0.059616751968860626, -0.10646029561758041, -0.0740857794880867, -0.12635135650634766, -0.09265954047441483, -0.00511705968528986, 0.09004822373390198, -0.011235849000513554, 0.11333306133747101, -0.10650886595249176, -0.004126275423914194, -0.019780410453677177, -0.18315359950065613, -0.1727445423603058, -0.1416841298341751, -0.039126746356487274, 0.11491384357213974, 0.015272182412445545, 0.09806458652019501, 0.1298699826002121, 0.14945900440216064, 0.116696298122406, 0.18131014704704285, 0.025207752361893654, 0.04750891402363777, -0.04367097094655037, -0.08328761905431747, 0.08507851511240005, -0.008166419342160225, -0.10261160880327225, -0.03160092607140541, -0.11197354644536972, -0.16866958141326904, -0.19675175845623016, -0.17887476086616516, -0.1145879328250885, -0.11873668432235718, -0.086345374584198, -0.1973000317811966, -0.23282942175865173, 0.040633223950862885, 0.012943203561007977, -0.04625167325139046, -0.1254064440727234, -0.09887129813432693, -0.09853717684745789, -0.0014173436211422086, -0.027851860970258713, -0.013755550608038902, -0.11796241253614426, -0.12542706727981567, -0.12667883932590485, -0.04399915039539337, 0.09433714300394058, 0.1318756639957428, -0.028165871277451515, 0.18671101331710815, 0.25708648562431335, 0.2577420175075531, -0.03131110593676567, 0.047652535140514374, 0.14720532298088074, -0.027595652267336845, -0.06759364902973175, -0.10423164814710617, 0.07485347986221313, 0.11928340792655945, 0.0011502684792503715, 0.10715388506650925, 0.01706710457801819, -0.010381758213043213, 0.10893469303846359, -0.00935429148375988, 0.1299424022436142, 0.08649221062660217, -0.1077587679028511, -0.12907643616199493, -0.008187751285731792, -0.006249299738556147, 0.0486798919737339, 0.07816289365291595, -0.07919452339410782, -0.16445237398147583, -0.15507124364376068, -0.05730975791811943, 0.058646317571401596, 0.10158012807369232, 0.0015137552982196212, -0.2109638750553131, -0.14365291595458984, 0.06020257994532585, -0.06223360449075699, -0.02840087004005909, -0.02040928602218628, -0.1140362024307251, -0.04306462034583092, -0.0019992459565401077, -0.016926685348153114, 0.0736401230096817, 0.04568469524383545, 0.013421734794974327, -0.04745154455304146, -0.17661869525909424, -0.054249245673418045, -0.0316065214574337, 0.11449930816888809, 0.15316380560398102, -0.026885278522968292, -0.11722347885370255, 0.007533764000982046, 0.11120036989450455, 0.22012196481227875, 0.09825234115123749, 0.010764425620436668, 0.03560128062963486, -0.11799650639295578, -0.016550717875361443, -0.09869454801082611, 0.10100671648979187, 0.016661042347550392, 0.06746691465377808, -0.02055279165506363, -0.054341427981853485, 0.049175065010786057, 0.06792756170034409, -0.06354526430368423, -0.0018737626960501075, 0.05756485462188721, 0.002055494813248515, 0.10994698852300644, 0.015000969171524048, -0.1331482231616974, -0.3146083354949951, -0.22276563942432404, -0.1083194762468338, 0.08189273625612259, 0.17408128082752228, -0.12467799335718155, -0.12032652646303177, -0.2087293416261673, 0.14202235639095306, 0.12983550131320953, 0.15698735415935516, 0.0535188652575016, -0.11671845614910126, 0.10033827275037766, -0.04751086235046387, 0.04350999370217323, 0.05122915282845497, 0.006639858707785606, 0.014026837423443794, 0.05963940545916557, 0.1679750680923462, 0.37210848927497864, 0.22958222031593323, -0.14774325489997864, -0.011261028237640858, 0.04052283987402916, 0.1229587197303772, 0.1274939328432083, 0.003778002690523863, -0.14430548250675201, -0.12479642033576965, -0.04224471375346184, 0.13701660931110382, 0.005341898184269667, -0.02791089564561844, -0.16121605038642883, -0.20750747621059418, -0.1571955680847168, 0.03867349401116371, -0.002165423007681966, -0.04895250126719475, -0.11927038431167603, -0.09116138517856598, -0.046175818890333176, -0.07926880568265915, -0.12706971168518066, -0.04940808191895485, -0.09809005260467529, -0.051204532384872437, -0.018834812566637993, -0.1098436713218689, -0.09860440343618393, 0.1183210015296936, 0.009745970368385315, -0.06625249981880188, -0.08293137699365616, -0.1002400815486908, 0.13300859928131104, -0.011816021986305714, -0.08865544945001602, -0.19075681269168854, -0.1404389590024948, 0.12660345435142517, 0.08440489321947098, 0.09383940696716309, 0.02410939708352089, 0.0736110582947731, -0.08315262943506241, 0.16651535034179688, 0.07718518376350403, -0.040595632046461105, 0.028394944965839386, -0.010864181444048882, -0.14743489027023315, -0.09943991899490356, -0.2517428994178772, -0.2032974660396576, -0.0662553533911705, 0.01675289124250412, 0.05801147595047951, 0.0021821344271302223, -0.03760647028684616, -0.013323689810931683, 0.1553441733121872, 0.13302944600582123, 0.09987598657608032, 0.07117106765508652, -0.06819450855255127, -0.13909517228603363, -0.024963272735476494, 0.07882126420736313, -0.202535018324852, -0.14145083725452423, -0.04496871307492256, 0.12215790897607803, 0.07579886168241501, -0.30804991722106934, 0.030470728874206543, 0.015704648569226265, 0.08707248419523239, 0.024582911282777786, -0.14732229709625244, 0.08802936226129532, 0.11126171052455902, 0.07063134759664536, 0.015280632302165031, -0.03492105379700661, -0.03720607981085777, 0.018906397745013237, -0.003801660379394889, 0.0786694884300232, -0.031489886343479156, -0.01500671450048685, -0.08321703225374222, -0.1590593159198761, -0.00417987909168005, -0.1836031675338745, -0.05997616797685623, -0.09064503014087677, 0.17452481389045715, -0.098978690803051, -0.19234547019004822, -0.02768506295979023, 0.09471438080072403, 0.07718825340270996, -0.25757238268852234, -0.3133232891559601, -0.047178540378808975, 0.12036633491516113, -0.26527324318885803, -0.34060215950012207, -0.19703181087970734, 0.028430579230189323, -0.012192515656352043, -0.21211731433868408, -0.26342490315437317, -0.1275356411933899, -0.006695002783089876, 0.03888414800167084, 0.1842559427022934, 0.0583343580365181, -0.05384530872106552, -0.28142106533050537, -0.009772668592631817, 0.08302510529756546, 0.13348405063152313, -0.018731843680143356, -0.21095570921897888, 0.05494086816906929, 0.14986228942871094, 0.1628115177154541, -0.20950943231582642, -0.10082884132862091, 0.18364298343658447, 0.15169231593608856, 0.10742753744125366, -0.1564483940601349, -0.15349794924259186, 0.15669924020767212, 0.08541633933782578, -0.0008845282136462629, 0.035592012107372284, -0.20442788302898407, 0.2180553525686264, 0.058853235095739365, -0.11675847321748734, -0.13896094262599945, -0.004523095209151506, 0.13001982867717743, -0.09013835340738297, -0.2244209349155426, -0.1889888495206833, -0.1368386298418045, -0.11269733309745789, -0.2631428837776184, -0.30932343006134033, -0.22155940532684326, -0.08453091233968735, -0.048632800579071045, -0.09271855652332306, -0.21472197771072388, -0.06449437886476517, 0.056284401565790176, -0.10924135148525238, -0.0639970451593399, 0.00890333577990532, 0.004256174899637699, -0.05448570474982262, 0.06994771957397461, 0.18681685626506805, -0.07248655706644058, -0.10335513949394226, 0.3077981770038605, 0.188109889626503, 0.14763452112674713, -0.0555167980492115, -0.014425997622311115, 0.332961767911911, 0.20385384559631348, -0.004602429457008839, -0.164512500166893, 0.012651024386286736, 0.4438680410385132, 0.08349082618951797, -0.04842148721218109, -0.07084734737873077, 0.16119438409805298, 0.16026312112808228, -0.11922817677259445, -0.11573395878076553, 0.07219648361206055, 0.1428419053554535, -0.01503103319555521, -0.04259028658270836, -0.1382945477962494, 0.05702274665236473, 0.03400441259145737, -0.028691250830888748, -0.06003153324127197, -0.27735695242881775, 0.19759759306907654, 0.06063801795244217, -0.10687753558158875, -0.03259332478046417, -0.12897343933582306, 0.25311920046806335, -0.12484641373157501, -0.09788258373737335, 0.0906122624874115, 0.008386263623833656, 0.08345289528369904, -0.06218649074435234, 0.006444260012358427, 0.15569733083248138, 0.03175128996372223, -0.06644123047590256, -0.01836574822664261, -0.07779105752706528]
  },
    "conv2.bias": {"shape": [16], "data": [-0.049443989992141724, 0.011788489297032356, -0.0075239879079163074, 0.05802551284432411, 0.007215968333184719, -0.006898375693708658, -0.023540105670690536, 0.07385857403278351, -0.06963874399662018, -0.008635412901639938, 0.0854925885796547, -0.02581511065363884, 0.019258689135313034, 0.05921969562768936, -0.014621117152273655, -0.05527523159980774]
  },
    "input": {"shape": [1, 1, 28, 28], "data":  [0, 0, 0, 0, 0, 0, 0, 0, 0, 0, 0, 0, 0, 0, 0, 0, 0, 0, 0, 0, 0, 0, 0, 0, 0, 0, 0, 0, 0, 0, 0, 0, 0, 0, 0, 0, 0, 0, 0, 0, 0, 0, 0, 0, 0, 0, 0, 0, 0, 0, 0, 0, 0, 0, 0, 0, 0, 0, 0, 0, 0, 0, 0, 0, 0, 0, 0, 0, 0, 0, 0, 0, 0, 0, 0, 0, 0, 0, 0, 0, 0, 0, 0, 0, 0, 0, 0, 0, 0, 0, 0, 0, 0, 0, 0, 0, 0, 0, 0, 0, 0, 0, 0, 0, 0, 0, 0, 0, 0, 0, 0, 0, 0, 0, 0, 0, 0, 0, 0, 0, 0, 0, 0, 0, 0, 0, 0, 0, 38, 254, 109, 0, 0, 0, 0, 0, 0, 0, 0, 0, 0, 0, 0, 0, 0, 0, 0, 0, 0, 0, 0, 0, 0, 0, 0, 0, 87, 252, 82, 0, 0, 0, 0, 0, 0, 0, 0, 0, 0, 0, 0, 0, 0, 0, 0, 0, 0, 0, 0, 0, 0, 0, 0, 0, 135, 241, 0, 0, 0, 0, 0, 0, 0, 0, 0, 0, 0, 0, 0, 0, 0, 0, 0, 0, 0, 0, 0, 0, 0, 0, 0, 45, 244, 150, 0, 0, 0, 0, 0, 0, 0, 0, 0, 0, 0, 0, 0, 0, 0, 0, 0, 0, 0, 0, 0, 0, 0, 0, 0, 84, 254, 63, 0, 0, 0, 0, 0, 0, 0, 0, 0, 0, 0, 0, 0, 0, 0, 0, 0, 0, 0, 0, 0, 0, 0, 0, 0, 202, 223, 11, 0, 0, 0, 0, 0, 0, 0, 0, 0, 0, 0, 0, 0, 0, 0, 0, 0, 0, 0, 0, 0, 0, 0, 0, 32, 254, 216, 0, 0, 0, 0, 0, 0, 0, 0, 0, 0, 0, 0, 0, 0, 0, 0, 0, 0, 0, 0, 0, 0, 0, 0, 0, 95, 254, 195, 0, 0, 0, 0, 0, 0, 0, 0, 0, 0, 0, 0, 0, 0, 0, 0, 0, 0, 0, 0, 0, 0, 0, 0, 0, 140, 254, 77, 0, 0, 0, 0, 0, 0, 0, 0, 0, 0, 0, 0, 0, 0, 0, 0, 0, 0, 0, 0, 0, 0, 0, 0, 57, 237, 205, 8, 0, 0, 0, 0, 0, 0, 0, 0, 0, 0, 0, 0, 0, 0, 0, 0, 0, 0, 0, 0, 0, 0, 0, 0, 124, 255, 165, 0, 0, 0, 0, 0, 0, 0, 0, 0, 0, 0, 0, 0, 0, 0, 0, 0, 0, 0, 0, 0, 0, 0, 0, 0, 171, 254, 81, 0, 0, 0, 0, 0, 0, 0, 0, 0, 0, 0, 0, 0, 0, 0, 0, 0, 0, 0, 0, 0, 0, 0, 0, 24, 232, 215, 0, 0, 0, 0, 0, 0, 0, 0, 0, 0, 0, 0, 0, 0, 0, 0, 0, 0, 0, 0, 0, 0, 0, 0, 0, 120, 254, 159, 0, 0, 0, 0, 0, 0, 0, 0, 0, 0, 0, 0, 0, 0, 0, 0, 0, 0, 0, 0, 0, 0, 0, 0, 0, 151, 254, 142, 0, 0, 0, 0, 0, 0, 0, 0, 0, 0, 0, 0, 0, 0, 0, 0, 0, 0, 0, 0, 0, 0, 0, 0, 0, 228, 254, 66, 0, 0, 0, 0, 0, 0, 0, 0, 0, 0, 0, 0, 0, 0, 0, 0, 0, 0, 0, 0, 0, 0, 0, 0, 61, 251, 254, 66, 0, 0, 0, 0, 0, 0, 0, 0, 0, 0, 0, 0, 0, 0, 0, 0, 0, 0, 0, 0, 0, 0, 0, 0, 141, 254, 205, 3, 0, 0, 0, 0, 0, 0, 0, 0, 0, 0, 0, 0, 0, 0, 0, 0, 0, 0, 0, 0, 0, 0, 0, 10, 215, 254, 121, 0, 0, 0, 0, 0, 0, 0, 0, 0, 0, 0, 0, 0, 0, 0, 0, 0, 0, 0, 0, 0, 0, 0, 0, 5, 198, 176, 10, 0, 0, 0, 0, 0, 0, 0, 0, 0, 0, 0, 0, 0, 0, 0, 0, 0, 0, 0, 0, 0, 0, 0, 0, 0, 0, 0, 0, 0, 0, 0, 0, 0, 0, 0, 0, 0, 0, 0, 0, 0, 0, 0, 0, 0, 0, 0, 0, 0, 0, 0, 0, 0, 0, 0, 0, 0, 0, 0, 0, 0, 0, 0, 0, 0, 0, 0, 0, 0, 0, 0, 0, 0, 0, 0, 0, 0, 0, 0, 0, 0, 0, 0, 0, 0, 0, 0, 0, 0, 0, 0, 0, 0, 0, 0, 0, 0, 0, 0, 0, 0, 0, 0, 0, 0, 0, 0, 0, 0, 0, 0, 0, 0, 0, 0, 0, 0, 0, 0, 0, 0, 0, 0, 0, 0, 0]
    }
  },
  
    "nodes": [
      {"op_type": "Conv",
        "inputs": ["input", "conv1.weight", "conv1.bias"],
        "outputs": ["/conv1/Conv_output_0"],
        "attributes": {"dilations": [1, 1], "group": [1], "kernel_shape": [5, 5], "pads": [2, 2, 2, 2], "strides": [1, 1]},
        "backward_inputs": ["gradient_10", "input", "conv1.weight", "conv1.bias"],
        "backward_outputs": ["gradient_output", "conv1.weight"]},
  
      {"op_type": "Relu",
        "inputs": ["/conv1/Conv_output_0"],
        "outputs": ["/Relu_output_0"],
        "attributes": {},
        "backward_inputs": ["gradient_9", "/conv1/Conv_output_0"],
        "backward_outputs": ["gradient_10"]},
  
      {"op_type": "MaxPool",
        "inputs": ["/Relu_output_0"],
        "outputs": ["/pool1/MaxPool_output_0"],
        "attributes": {"ceil_mode": [0], "dilations": [1, 1], "kernel_shape": [2, 2], "pads": [0, 0, 0, 0], "strides": [2, 2]},
        "backward_inputs": ["gradient_8", "/Relu_output_0"],
        "backward_outputs": ["gradient_9"]},
  
      {"op_type": "Conv",
        "inputs": ["/pool1/MaxPool_output_0", "conv2.weight", "conv2.bias"],
        "outputs": ["/conv2/Conv_output_0"],
        "attributes": {"dilations": [1, 1], "group": [1], "kernel_shape": [5, 5], "pads": [0, 0, 0, 0], "strides": [1, 1]},
        "backward_inputs": ["gradient_7", "/pool1/MaxPool_output_0", "conv2.weight", "conv2.bias"],
        "backward_outputs": ["gradient_8", "conv2.weight"]},
  
      {"op_type": "Relu",
        "inputs": ["/conv2/Conv_output_0"],
        "outputs": ["/Relu_1_output_0"],
        "attributes": {},
        "backward_inputs": ["gradient_6", "/conv2/Conv_output_0"],
        "backward_outputs": ["gradient_7"]},
  
      {"op_type": "MaxPool",
        "inputs": ["/Relu_1_output_0"],
        "outputs": ["/pool2/MaxPool_output_0"],
        "attributes": {"ceil_mode": [0], "dilations": [1, 1], "kernel_shape": [2, 2], "pads": [0, 0, 0, 0], "strides": [2, 2]},
        "backward_inputs": ["gradient_5", "/Relu_1_output_0"],
        "backward_outputs": ["gradient_6"]},
  
      {"op_type": "Reshape",
        "inputs": ["/pool2/MaxPool_output_0"],
        "outputs": ["/Reshape_output_0"],
        "attributes": {"allowzero": [0]},
        "backward_inputs": ["gradient", "/pool2/MaxPool_output_0"],
        "backward_outputs": ["gradient_5"]}
    ],
  
    "input_shape": [1, 1, 28, 28],
    "output_shape": [1, 400]
  }