{ "tensor_map": {
    "embedding.weight": {"shape": [10, 3], "data": [0.008816982619464397, 0.9512589573860168, 1.524165391921997, -0.7925037145614624, -0.557899534702301, -1.5445235967636108, -1.2160406112670898, 1.2694003582000732, 0.009232521057128906, 0.09188059717416763, 0.9735918045043945, 0.32514357566833496, -0.23204031586647034, 1.3075714111328125, 1.1144129037857056, -1.113106369972229, 0.33427828550338745, -0.7047058939933777, -0.20171742141246796, -0.19067412614822388, -0.625582754611969, -1.4114103317260742, 2.1252524852752686, -1.5593092441558838, -2.0403060913085938, -0.7779139876365662, -0.4047141671180725, 0.2877098321914673, 0.5116416811943054, -0.8259497284889221]},
    "fc1.weight": {"shape": [3, 32], "data": [-0.2925071716308594, -0.2401779145002365, -0.11989176273345947, -0.15452320873737335, 0.07071759551763535, -0.025333594530820847, 0.12936140596866608, -0.2708922028541565, 0.2917947769165039, -0.4367421865463257, -0.0745861753821373, 0.25600212812423706, -0.3011772632598877, 0.19985395669937134, -0.5027363896369934, 0.20531906187534332, 0.24842528998851776, -0.2185613363981247, 0.13076263666152954, -0.45869332551956177, 0.14804182946681976, 0.20551493763923645, -0.4460963308811188, 0.6066975593566895, 0.5339807868003845, -0.4119664430618286, 0.5235548615455627, 0.47766825556755066, -0.49759921431541443, 0.2647455036640167, -0.3665294349193573, -0.41929590702056885, -0.5478094220161438, 0.2879139482975006, -0.5391008257865906, 0.28030985593795776, 0.03833724185824394, -0.20498153567314148, -0.3915298283100128, 0.014400899410247803, 0.17150971293449402, 0.48449841141700745, -0.10073277354240417, -0.5599620342254639, 0.21828371286392212, -0.20594757795333862, 0.19338639080524445, -0.006128388922661543, -0.03199078142642975, 0.04447675123810768, -0.3127255141735077, 0.3082908093929291, -0.0413048192858696, -0.08850453048944473, 0.4346129894256592, 0.057139165699481964, -0.2981567978858948, -0.33820807933807373, 0.2334841638803482, -0.4891221821308136, 0.05525972321629524, 0.4656051993370056, -0.2048220932483673, -0.42810338735580444, -0.4451017379760742, -0.40607336163520813, -0.3983657956123352, -0.18440459668636322, 0.40542179346084595, 0.5414133071899414, -0.3720337450504303, 0.2579740881919861, -0.30962952971458435, 0.12027808278799057, 0.49693727493286133, -0.3435594141483307, 0.517422080039978, -0.45738014578819275, 0.3250123858451843, -0.35739561915397644, 0.11301304399967194, 0.17915639281272888, -0.1337173581123352, 0.0800432413816452, -0.4989358186721802, -0.43910378217697144, -0.16519086062908173, 0.21561065316200256, 0.5812380909919739, -0.22128528356552124, 0.32006576657295227, 0.17225268483161926, 0.05935217812657356, -0.20914344489574432, 0.4330902397632599, -0.06397730112075806]},
    "fc1.bias": {"shape": [32, 1], "data": [0.20312005281448364, 0.5264743566513062, -0.5626828670501709, 0.5148270726203918, 0.5988427996635437, 0.3459606170654297, 0.12294930964708328, -0.17729803919792175, -0.5744644403457642, -0.3727402687072754, -0.1379263699054718, -0.30238887667655945, 0.052095551043748856, -0.3095545768737793, 0.30625879764556885, 0.49562931060791016, 0.11259527504444122, 0.23989829421043396, 0.49321696162223816, 0.1980784833431244, -0.006623017601668835, -0.3630794584751129, 0.3170025944709778, 0.24783265590667725, -0.1741490364074707, 0.0040885163471102715, 0.5840237140655518, -0.5279018878936768, -0.20640966296195984, 0.09156336635351181, 0.09873372316360474, -0.4906875193119049]},
    "fc2.weight": {"shape": [32, 2], "data": [0.07440582662820816, -0.11315424740314484, 0.0480387881398201, -0.07005792111158371, 0.025314509868621826, 0.04561726748943329, -0.06700241565704346, -0.1683952957391739, 0.08079730719327927, -0.013083667494356632, -0.06480003148317337, 0.15524232387542725, 0.22628067433834076, -0.05108267813920975, 0.10065020620822906, 0.0181569904088974, 0.16870149970054626, 0.1060219258069992, -0.012583904899656773, -0.15328475832939148, -0.06983212381601334, 0.09056897461414337, 0.09905816614627838, 0.11591347306966782, 0.06907583028078079, 0.09320322424173355, -0.03868909925222397, -0.04208928346633911, -0.14326263964176178, -0.09000562131404877, -0.12160922586917877, 0.08713957667350769, 0.10140103846788406, 0.1695704460144043, -0.09537432342767715, -0.03568929061293602, -0.10851739346981049, 0.021121850237250328, -0.1469523161649704, -0.009957638569176197, 0.013306332752108574, -0.20656077563762665, 0.027335191145539284, 0.03351551666855812, -0.09658296406269073, -0.004358022939413786, -0.13691459596157074, 0.14504621922969818, -0.02454879879951477, -0.062008898705244064, -0.09065094590187073, -0.004204940050840378, 0.18447254598140717, 0.14674220979213715, 0.22230179607868195, -0.05317356437444687, 0.1580616533756256, -0.005175639409571886, -0.12594234943389893, -0.047967299818992615, -0.018159030005335808, 0.04230409488081932, 0.08527795970439911, -0.011248946189880371]},
    "fc2.bias": {"shape": [2, 1], "data": [-0.012850944884121418, -0.051477424800395966]},
    "input": {"shape": [1, 1], "data": [1]}
  },
  "nodes": [
    { "op_type": "Gather",
      "inputs": ["input", "embedding.weight"],
      "outputs": ["/embedding/Gather_output_0"],
      "attributes": {},
      "backward_inputs": ["gradient_2", "input", "embedding.weight"],
      "backward_outputs": ["gradient_3", "embedding.weight.grad"]
    },
    { "op_type": "Gemm",
      "inputs": ["/embedding/Gather_output_0", "fc1.weight", "fc1.bias"],
      "outputs": ["/fc1/Gemm_output_0"],
      "attributes": {"alpha": [1.0], "beta": [1.0], "transB": [1]},
      "backward_inputs": ["gradient_1", "/embedding/Gather_output_0", "fc1.weight", "fc1.bias"],
      "backward_outputs": ["gradient_2", "fc1.weight.grad"]
    },
    { "op_type": "Relu",
      "inputs": ["/fc1/Gemm_output_0"],
      "outputs": ["/relu/Relu_output_0"],
      "attributes": {},
      "backward_inputs": ["gradient_0", "/fc1/Gemm_output_0"],
      "backward_outputs": ["gradient_1"]
    },
    { "op_type": "Gemm",
      "inputs": ["/relu/Relu_output_0", "fc2.weight", "fc2.bias"],
      "outputs": ["output"],
      "attributes": {"alpha": [1.0], "beta": [1.0], "transB": [1]},
      "backward_inputs": ["gradient", "/relu/Relu_output_0", "fc2.weight", "fc2.bias"],
      "backward_outputs": ["gradient_0", "fc2.weight.grad"]
    }
  ],
  "input_shape": [0, 10],
  "output_shape": [0, 2]
}