{
    "tensor_map": {
        "embedding_layers.0.weight": {
            "shape": [
                28,
                9
            ],
            "data": [
                0.37226974964141846,
                0.1290229707956314,
                -0.4358750581741333,
                -0.05735667422413826,
                1.238065481185913,
                -0.521831214427948,
                -0.7265027165412903,
                -0.8275619745254517,
                0.33549100160598755,
                -0.11161547154188156,
                0.16090473532676697,
                -0.13496793806552887,
                2.3984570503234863,
                -0.21182917058467865,
                0.8586627840995789,
                1.7401524782180786,
                0.5749800205230713,
                0.7129819393157959,
                0.5181646347045898,
                -0.8979432582855225,
                0.9653087854385376,
                -1.173702597618103,
                -0.2087031453847885,
                -0.8433899879455566,
                0.3149726688861847,
                -1.1856848001480103,
                -0.10016708821058273,
                -0.6178696155548096,
                1.3356891870498657,
                -0.18847982585430145,
                -0.3644721508026123,
                1.122251033782959,
                0.030973145738244057,
                -0.6972924470901489,
                -1.3220036029815674,
                1.062548279762268,
                0.09488940238952637,
                -0.5529657006263733,
                0.49557656049728394,
                -0.0944475531578064,
                -0.5957620143890381,
                0.09821902215480804,
                1.6094876527786255,
                1.049273133277893,
                -0.9190786480903625,
                -0.4692610204219818,
                0.3486155569553375,
                -0.07833069562911987,
                -0.9165045022964478,
                -0.7068604826927185,
                -1.0399720668792725,
                -1.9005335569381714,
                0.5847718715667725,
                1.442541480064392,
                0.38241419196128845,
                -0.19599738717079163,
                0.6808044910430908,
                1.8414340019226074,
                -2.3998348712921143,
                0.2575928270816803,
                -1.7707451581954956,
                0.5413862466812134,
                -0.42490944266319275,
                -1.4405220746994019,
                -0.3658697307109833,
                1.58766770362854,
                1.3483742475509644,
                -1.123918056488037,
                -0.44660794734954834,
                -0.17422886192798615,
                -1.7439090013504028,
                0.23118169605731964,
                -1.1704883575439453,
                -1.2799065113067627,
                0.1382509022951126,
                -0.5143231153488159,
                0.08235777914524078,
                -0.7492266297340393,
                -1.295300841331482,
                1.0858080387115479,
                -0.48102429509162903,
                0.2280675172805786,
                0.24163539707660675,
                0.9738726615905762,
                0.4511474072933197,
                -0.42302343249320984,
                1.865081548690796,
                0.9316518902778625,
                0.15462474524974823,
                0.977329671382904,
                -0.6881805062294006,
                0.6747363805770874,
                0.06349612027406693,
                0.34645718336105347,
                -1.262587070465088,
                -0.7157931923866272,
                -1.863769769668579,
                0.4797808825969696,
                -1.4114865064620972,
                -0.4747309386730194,
                0.8532251119613647,
                0.09754040837287903,
                -1.4213500022888184,
                -0.8270636200904846,
                -0.9886885285377502,
                -1.08115816116333,
                -0.6522951126098633,
                -1.6027641296386719,
                0.8655171394348145,
                1.5810694694519043,
                0.09494440257549286,
                1.088541865348816,
                -0.906314492225647,
                0.2503724694252014,
                0.9154706001281738,
                1.0112190246582031,
                -1.0397664308547974,
                -2.428975820541382,
                -1.4066162109375,
                0.8849918842315674,
                1.3486151695251465,
                0.22779743373394012,
                -0.0657619833946228,
                0.3343326151371002,
                -0.8604646325111389,
                0.7354586124420166,
                0.7097952961921692,
                0.7733103632926941,
                -1.8298673629760742,
                0.8787497282028198,
                1.640842080116272,
                -1.458857774734497,
                0.5780589580535889,
                -0.8741157650947571,
                -1.5366902351379395,
                0.49593666195869446,
                -0.6434314846992493,
                0.18643543124198914,
                0.1327386200428009,
                1.1814303398132324,
                -1.4764275550842285,
                0.406013160943985,
                -0.8878675699234009,
                1.5496416091918945,
                -0.19324557483196259,
                -0.5670033097267151,
                1.168336033821106,
                -1.3914227485656738,
                -2.075678586959839,
                0.686496913433075,
                1.4167736768722534,
                0.16618123650550842,
                0.8268221020698547,
                -0.6709096431732178,
                0.7390844225883484,
                -0.8674964308738708,
                0.50175541639328,
                1.2299385070800781,
                0.2389458566904068,
                0.7302913665771484,
                0.17323674261569977,
                -0.08810871094465256,
                0.6574041247367859,
                -0.1429571956396103,
                0.32937368750572205,
                -1.3828463554382324,
                1.9416438341140747,
                1.793247103691101,
                -0.9943984746932983,
                -0.18040816485881805,
                0.9461154341697693,
                0.20083235204219818,
                1.0446020364761353,
                -0.07129373401403427,
                -0.4769587814807892,
                0.25883471965789795,
                0.16589395701885223,
                0.04375430569052696,
                0.14493469893932343,
                -0.004236702807247639,
                1.638497233390808,
                -0.3178804814815521,
                -0.0926007330417633,
                -1.1012837886810303,
                0.7179647088050842,
                0.8563782572746277,
                -0.055834993720054626,
                -0.650336742401123,
                -0.22867771983146667,
                -0.7161712646484375,
                -0.1936320960521698,
                -0.13928872346878052,
                -2.40578293800354,
                0.27908003330230713,
                0.1475270688533783,
                1.231609582901001,
                -0.3449418842792511,
                0.702663242816925,
                1.39011549949646,
                -0.7875152826309204,
                1.3586466312408447,
                -0.9571452140808105,
                -1.0215312242507935,
                -1.1316299438476562,
                0.4195046126842499,
                0.2482132762670517,
                0.1535359025001526,
                -1.5034935474395752,
                -0.845841646194458,
                0.01868584379553795,
                -0.02732185833156109,
                -0.5978432893753052,
                1.6080771684646606,
                -1.0641493797302246,
                -0.6462754011154175,
                0.20847390592098236,
                -2.6017160415649414,
                -0.3110348582267761,
                0.9231286644935608,
                -1.1818996667861938,
                -0.8821876049041748,
                0.17959026992321014,
                0.6542807221412659,
                -0.6561495065689087,
                -0.6803385019302368,
                -1.3786729574203491,
                -0.1332540214061737,
                -0.2654678225517273,
                1.0007004737854004,
                -1.2414072751998901,
                1.3107268810272217,
                0.0977541133761406,
                -0.12700505554676056,
                -0.678330659866333,
                -1.311966061592102,
                -0.574344277381897,
                0.5814813375473022,
                -0.4717002809047699,
                1.594011902809143,
                0.4122186005115509,
                -0.47291553020477295,
                1.152827501296997,
                0.10859314352273941,
                0.5467033982276917,
                -0.19713564217090607,
                -0.35178321599960327,
                0.7922462224960327,
                1.2665153741836548,
                -0.829124391078949,
                -0.8612815141677856,
                0.6166117787361145,
                0.23552542924880981
            ]
        },
        "embedding_layers.1.weight": {
            "shape": [
                93,
                9
            ],
            "data": [
                -0.9624992609024048,
                -0.057195164263248444,
                1.796486735343933,
                2.2406554222106934,
                1.4267041683197021,
                -0.5875630378723145,
                -0.5411903858184814,
                1.563680648803711,
                0.17610538005828857,
                1.5917531251907349,
                0.39058157801628113,
                -2.199479341506958,
                1.7880659103393555,
                -0.17978085577487946,
                -1.383668065071106,
                0.06035298481583595,
                -0.25379905104637146,
                0.16296514868736267,
                -0.0015619492623955011,
                -0.607588529586792,
                0.5904407501220703,
                -0.02813992090523243,
                -1.2554923295974731,
                -0.014529448933899403,
                -0.0326455794274807,
                0.12316925823688507,
                -1.8269325494766235,
                -0.8369554877281189,
                1.4008686542510986,
                0.2949770987033844,
                1.9794306755065918,
                -0.0349324531853199,
                -1.175861120223999,
                1.1097530126571655,
                0.30241677165031433,
                -1.6309734582901,
                -1.612858772277832,
                -0.6500099897384644,
                0.6395986080169678,
                -2.483445167541504,
                -0.08572522550821304,
                -1.4576172828674316,
                1.1676111221313477,
                1.7576714754104614,
                1.3069318532943726,
                0.5640890002250671,
                -0.7184992432594299,
                -0.419324666261673,
                0.5222452878952026,
                -1.217421531677246,
                -0.46256741881370544,
                0.6382741928100586,
                -1.2423620223999023,
                0.2273845076560974,
                0.6328243613243103,
                0.22837720811367035,
                0.0922374352812767,
                0.19578638672828674,
                -0.9189922213554382,
                -0.6182453632354736,
                0.13866233825683594,
                -1.2514185905456543,
                0.3164491653442383,
                -1.465382695198059,
                -0.8017252683639526,
                0.6265918016433716,
                -0.947121798992157,
                1.1111699342727661,
                -0.3050762712955475,
                0.3403934836387634,
                -0.7357417345046997,
                1.053094744682312,
                -0.16062305867671967,
                -1.2479017972946167,
                0.0729743242263794,
                0.3814724385738373,
                -2.2836062908172607,
                0.5644092559814453,
                1.4294381141662598,
                -0.786334216594696,
                -2.538393020629883,
                -0.16420745849609375,
                -1.2348300218582153,
                0.28741735219955444,
                -0.8464769721031189,
                0.7541149258613586,
                1.7607159614562988,
                0.819496750831604,
                0.4796878397464752,
                1.1961289644241333,
                -0.41283339262008667,
                -0.31863006949424744,
                -0.4262957274913788,
                -0.2716979384422302,
                -0.9547298550605774,
                -2.2657110691070557,
                -0.4574587643146515,
                -0.4787013530731201,
                0.34783822298049927,
                -0.4435672461986542,
                -1.3515444993972778,
                -1.1244165897369385,
                -0.32357901334762573,
                -1.9598197937011719,
                0.45124343037605286,
                -0.5289124846458435,
                0.5963562726974487,
                0.4284285306930542,
                0.8427799940109253,
                -0.6448856592178345,
                0.06799729913473129,
                1.9737701416015625,
                0.0027738846838474274,
                1.0374348163604736,
                0.7777767181396484,
                0.3876368999481201,
                1.0389552116394043,
                0.6056416034698486,
                1.976808786392212,
                1.3757058382034302,
                0.3877224624156952,
                -0.577844500541687,
                0.7905406951904297,
                -0.4166601300239563,
                0.20897208154201508,
                0.251343697309494,
                0.037893932312726974,
                -0.6893001198768616,
                0.7531182169914246,
                -2.102736711502075,
                -0.34631219506263733,
                0.07272905111312866,
                0.43146076798439026,
                0.4968571066856384,
                0.9943868517875671,
                0.2906590700149536,
                1.6533821821212769,
                -1.7555755376815796,
                -0.8035260438919067,
                0.9992403984069824,
                0.9650160670280457,
                1.7733988761901855,
                -0.22045476734638214,
                -0.2523907721042633,
                0.7156776785850525,
                1.264778733253479,
                -0.3651012182235718,
                0.6537646651268005,
                -1.0234460830688477,
                -0.4251463711261749,
                -0.20627784729003906,
                -0.7700743079185486,
                -1.8898824453353882,
                -0.6450486183166504,
                1.0161715745925903,
                0.5389588475227356,
                1.840498685836792,
                0.9001111388206482,
                -0.11170753091573715,
                0.2249821424484253,
                0.1901089996099472,
                -0.2874631881713867,
                1.7093839645385742,
                -0.034626130014657974,
                1.7227827310562134,
                0.3750004172325134,
                1.6381348371505737,
                -0.6122663617134094,
                -0.26814359426498413,
                1.9593693017959595,
                -0.25778359174728394,
                -0.634277880191803,
                1.5235646963119507,
                -0.4730376601219177,
                0.6194371581077576,
                -1.421046257019043,
                -1.1712595224380493,
                1.4589569568634033,
                0.7126390933990479,
                0.5833449363708496,
                2.6144542694091797,
                1.110753059387207,
                0.5784613490104675,
                -1.0214592218399048,
                0.3538055419921875,
                -0.2117549329996109,
                -0.15982748568058014,
                -0.4690213203430176,
                0.7065138816833496,
                0.3082302212715149,
                2.0233445167541504,
                0.5482649207115173,
                -0.5896968245506287,
                0.2891184091567993,
                0.1906152069568634,
                1.104262351989746,
                0.26744285225868225,
                -0.8266997337341309,
                1.1541839838027954,
                0.008688315749168396,
                0.15767768025398254,
                0.27489638328552246,
                0.22497117519378662,
                -0.8944987058639526,
                0.7852452993392944,
                0.4690363109111786,
                1.6227335929870605,
                0.5733916759490967,
                -1.6705188751220703,
                -1.4556461572647095,
                0.5123817324638367,
                0.6516745090484619,
                0.08300092816352844,
                0.060072507709264755,
                -1.9956632852554321,
                0.7995515465736389,
                -1.3718444108963013,
                0.4602169394493103,
                0.8995710611343384,
                -0.014454894699156284,
                0.7354015111923218,
                0.10768935084342957,
                0.35851290822029114,
                -0.07044254243373871,
                -0.2083795815706253,
                -0.47327688336372375,
                -0.035018328577280045,
                -1.1315382719039917,
                -0.296328067779541,
                0.41228604316711426,
                -1.575807809829712,
                -1.3499680757522583,
                -0.5203068256378174,
                -0.14264945685863495,
                -0.016536468639969826,
                0.09544677287340164,
                0.24748024344444275,
                0.6951073408126831,
                0.4484572112560272,
                0.7122736573219299,
                0.09009986370801926,
                -0.6893336772918701,
                1.768418550491333,
                1.0528348684310913,
                1.5429631471633911,
                0.2874448597431183,
                -0.3641761243343353,
                1.5604197978973389,
                0.09304605424404144,
                -0.6620079278945923,
                0.3522980809211731,
                -1.3186006546020508,
                0.07123074680566788,
                -1.1666640043258667,
                -0.730872392654419,
                -0.8849438428878784,
                -0.17474932968616486,
                1.6276558637619019,
                -0.077006496489048,
                -3.2606284618377686,
                -0.7248280048370361,
                -1.5645524263381958,
                0.3858245611190796,
                0.7374544143676758,
                0.5694652795791626,
                0.5555400252342224,
                -0.2668088972568512,
                0.836170494556427,
                0.35498446226119995,
                -0.3528212606906891,
                0.576888918876648,
                -1.2277299165725708,
                -0.47940024733543396,
                -0.6542601585388184,
                -0.3361659646034241,
                1.366474986076355,
                -1.5302863121032715,
                -1.2703169584274292,
                -0.27107322216033936,
                -0.3614040017127991,
                -0.6027860045433044,
                -0.6692208647727966,
                0.49010980129241943,
                -0.2630974054336548,
                1.756329894065857,
                1.144988775253296,
                0.8850745558738708,
                -2.33420729637146,
                -0.12543970346450806,
                0.1797552853822708,
                -0.6005862355232239,
                1.5386461019515991,
                -0.756666898727417,
                0.8008275628089905,
                -0.04009883105754852,
                -0.19262760877609253,
                -1.3278309106826782,
                0.8876747488975525,
                -0.5444572567939758,
                1.461594581604004,
                1.6405560970306396,
                -1.1985015869140625,
                0.2582348883152008,
                -1.331337809562683,
                -0.8054546117782593,
                1.833619475364685,
                -3.257375478744507,
                0.861199140548706,
                0.016409894451498985,
                0.10960099846124649,
                -1.6024290323257446,
                0.40512681007385254,
                0.7293612360954285,
                -2.7411043643951416,
                0.018185988068580627,
                -0.295215904712677,
                0.344020277261734,
                -1.305200219154358,
                -0.5477011799812317,
                -1.3007675409317017,
                -0.3210446536540985,
                0.7463447451591492,
                0.22869540750980377,
                1.9390405416488647,
                -2.0895252227783203,
                0.8862327337265015,
                1.5323138236999512,
                0.5357284545898438,
                1.8568053245544434,
                -0.5526059865951538,
                -0.03624892979860306,
                -0.039368342608213425,
                -0.8053708672523499,
                0.8846085667610168,
                -0.35923099517822266,
                0.966776967048645,
                0.6237155199050903,
                -0.2680484652519226,
                1.099015235900879,
                -0.7238437533378601,
                -1.829182744026184,
                1.5221967697143555,
                1.6215811967849731,
                0.06657383590936661,
                -1.4653232097625732,
                2.1884548664093018,
                0.6947593092918396,
                0.19252651929855347,
                -0.16432586312294006,
                -0.21432308852672577,
                -0.18582843244075775,
                1.0395786762237549,
                -1.1132155656814575,
                0.8951830267906189,
                -0.15231943130493164,
                -0.06608737260103226,
                0.16203980147838593,
                0.6987836360931396,
                -0.9166348576545715,
                0.08041834831237793,
                -0.9410458207130432,
                1.0145299434661865,
                -0.7989249229431152,
                0.11606352776288986,
                -0.5205402970314026,
                0.1379852294921875,
                -0.27271705865859985,
                1.553342580795288,
                -2.1258082389831543,
                -1.2574704885482788,
                -0.7024965882301331,
                2.05832576751709,
                -0.7370468974113464,
                -1.483667254447937,
                -0.21343554556369781,
                1.1736177206039429,
                0.0647960677742958,
                0.7866423726081848,
                0.5113937854766846,
                -0.5075272917747498,
                -0.9411520957946777,
                0.18506862223148346,
                0.47494402527809143,
                0.44670844078063965,
                -0.2248190939426422,
                -0.5795238018035889,
                -1.1990406513214111,
                -0.617228090763092,
                1.2021867036819458,
                0.8650662302970886,
                -1.8975414037704468,
                -1.5817291736602783,
                -1.0158231258392334,
                -0.24029546976089478,
                -1.3500066995620728,
                0.47138169407844543,
                -0.7588852047920227,
                0.2906860113143921,
                -0.9138251543045044,
                -0.33418402075767517,
                -1.6549913883209229,
                0.1253112405538559,
                0.059078894555568695,
                0.8831160664558411,
                -0.03885659575462341,
                0.1150144413113594,
                0.4642440676689148,
                0.9942912459373474,
                0.4771674871444702,
                -0.10093987733125687,
                2.726569652557373,
                1.3179796934127808,
                0.034621451050043106,
                0.053902819752693176,
                0.6513951420783997,
                -1.290094017982483,
                0.8387353420257568,
                -1.4620299339294434,
                1.3399772644042969,
                1.8811360597610474,
                -0.7832323908805847,
                0.2183016985654831,
                -0.574135959148407,
                -0.4558456838130951,
                0.7828535437583923,
                -1.6380397081375122,
                -1.2828619480133057,
                2.2252390384674072,
                -1.1249158382415771,
                0.37958335876464844,
                0.5413293242454529,
                -0.4679034948348999,
                -0.5445244908332825,
                -0.3031325042247772,
                -0.7703871726989746,
                -1.2691001892089844,
                -0.786767840385437,
                -1.0663280487060547,
                -0.8243599534034729,
                1.6493687629699707,
                -0.5396266579627991,
                -1.4376897811889648,
                -0.673473060131073,
                0.2900044918060303,
                0.23025409877300262,
                -0.5023868680000305,
                -1.8425147533416748,
                -0.3022879362106323,
                -0.4545246660709381,
                0.3737132251262665,
                0.3701944053173065,
                -0.28416749835014343,
                0.34158143401145935,
                -0.1851653903722763,
                0.573422908782959,
                0.6253039240837097,
                0.10924436897039413,
                0.14941705763339996,
                0.014424648135900497,
                1.0060328245162964,
                0.8090654611587524,
                -0.9395067095756531,
                0.3142215609550476,
                -1.071616530418396,
                0.37025076150894165,
                1.4283900260925293,
                0.08575665950775146,
                0.5254308581352234,
                -0.32579290866851807,
                0.7825118899345398,
                -0.5791483521461487,
                0.4132610559463501,
                -1.331132173538208,
                0.3627021610736847,
                0.9027161598205566,
                1.1473820209503174,
                -1.600282073020935,
                -0.3890169858932495,
                -1.7699627876281738,
                -0.15145359933376312,
                1.6836543083190918,
                1.9267635345458984,
                -2.3934733867645264,
                0.4258640706539154,
                1.333980679512024,
                1.3533912897109985,
                0.5657325983047485,
                0.8771578669548035,
                -0.26670560240745544,
                1.591520071029663,
                -0.10519787669181824,
                0.07458315789699554,
                2.3257896900177,
                -0.1571931540966034,
                0.28518104553222656,
                1.5044268369674683,
                0.030322572216391563,
                -2.6048479080200195,
                -0.4904816150665283,
                1.2072328329086304,
                -0.1990402340888977,
                0.4858172535896301,
                -0.41288360953330994,
                -2.719989538192749,
                0.937886118888855,
                -0.32533207535743713,
                0.3372199833393097,
                0.5267500877380371,
                -1.029508352279663,
                1.269781231880188,
                -0.12688209116458893,
                0.8175855875015259,
                0.7705074548721313,
                0.2948192059993744,
                -2.093841791152954,
                0.06453391164541245,
                0.2942959666252136,
                -0.17640414834022522,
                1.5387580394744873,
                -0.33710670471191406,
                0.6255804896354675,
                1.0703814029693604,
                1.946947455406189,
                -0.9014338850975037,
                0.6728658080101013,
                -0.7276763916015625,
                -0.669488787651062,
                1.1030744314193726,
                0.0026448641438037157,
                -0.20448970794677734,
                -2.499115467071533,
                -0.5573970079421997,
                -0.6180403828620911,
                1.3314299583435059,
                -1.877205729484558,
                2.937509775161743,
                -0.5629379153251648,
                0.8335200548171997,
                1.4708670377731323,
                -0.36532342433929443,
                -1.1064692735671997,
                -1.4997867345809937,
                0.4119567573070526,
                -1.519053339958191,
                -0.09012564271688461,
                0.4788959324359894,
                0.025333933532238007,
                0.42098602652549744,
                0.2720685601234436,
                -0.6817370057106018,
                -0.3581858277320862,
                0.3782203495502472,
                1.8941622972488403,
                0.09988994151353836,
                0.10162351280450821,
                -0.17423371970653534,
                -0.5546175837516785,
                -1.6389636993408203,
                -0.29937943816185,
                -1.2395727634429932,
                1.0654751062393188,
                -0.359980046749115,
                0.05568611994385719,
                -0.4321931004524231,
                0.30946919322013855,
                1.0111801624298096,
                -0.9507144093513489,
                -0.3767700493335724,
                0.004559719935059547,
                -0.5194540023803711,
                -0.0017805114621296525,
                -1.6162309646606445,
                -0.4334218204021454,
                -0.9727458953857422,
                0.047751352190971375,
                0.5780816674232483,
                1.5313218832015991,
                0.5672365427017212,
                0.36095115542411804,
                -0.3967737853527069,
                0.18686725199222565,
                -0.22346846759319305,
                0.6572042107582092,
                -0.45642590522766113,
                -0.2886679768562317,
                0.37828877568244934,
                1.0461044311523438,
                -0.42194679379463196,
                2.172595739364624,
                0.6658437848091125,
                -1.1835280656814575,
                1.7159545421600342,
                1.6749629974365234,
                0.3872357904911041,
                -1.1313987970352173,
                -0.01520796399563551,
                1.3752188682556152,
                -1.4877156019210815,
                -1.8692841529846191,
                0.3868792951107025,
                0.07448083162307739,
                -1.2816150188446045,
                0.2847706079483032,
                1.4860000610351562,
                -0.07584840804338455,
                1.017006754875183,
                1.0278552770614624,
                1.0803074836730957,
                0.3199203908443451,
                0.7152600288391113,
                -0.6416058540344238,
                -0.7738931775093079,
                0.736072301864624,
                -1.2322078943252563,
                -2.040142297744751,
                0.19757351279258728,
                0.8917816281318665,
                0.04209926724433899,
                0.616183876991272,
                -1.5723779201507568,
                0.7417174577713013,
                0.040931615978479385,
                -0.6069034337997437,
                0.0326215997338295,
                -1.542077660560608,
                0.027057131752371788,
                0.46041980385780334,
                -0.19893422722816467,
                0.6438710689544678,
                0.5082598328590393,
                -1.061023473739624,
                0.3500981330871582,
                -0.5838890075683594,
                -1.6437150239944458,
                -0.24966321885585785,
                -0.21360981464385986,
                2.110607862472534,
                1.192514419555664,
                -0.01642305590212345,
                1.3106251955032349,
                1.0520555973052979,
                0.24412016570568085,
                1.4751956462860107,
                -1.1302764415740967,
                -0.9996875524520874,
                0.7393580675125122,
                -1.2736011743545532,
                0.5431625843048096,
                -0.6471817493438721,
                -1.1696406602859497,
                -0.36337536573410034,
                0.597032368183136,
                2.6096484661102295,
                2.977969169616699,
                0.812073826789856,
                -0.5278257131576538,
                0.1911574900150299,
                0.18291597068309784,
                -0.25739768147468567,
                -0.0926094800233841,
                -0.48515260219573975,
                -0.6188669204711914,
                0.18476319313049316,
                1.4726773500442505,
                1.136866807937622,
                1.646498441696167,
                0.6479650735855103,
                -1.2917536497116089,
                -1.3319382667541504,
                0.09386780112981796,
                0.1531752347946167,
                1.9682050943374634,
                -0.703805685043335,
                1.644349217414856,
                -1.5443006753921509,
                -0.8111952543258667,
                -1.7004883289337158,
                -1.4520257711410522,
                0.9793552756309509,
                -1.140075445175171,
                2.9324731826782227,
                1.476732850074768,
                -0.6320003271102905,
                -0.38604292273521423,
                -0.6662017703056335,
                0.21990124881267548,
                1.3621264696121216,
                0.23066893219947815,
                0.8437662720680237,
                -1.8232120275497437,
                -1.055849552154541,
                0.3339574635028839,
                0.020163802430033684,
                -1.0431976318359375,
                0.14994342625141144,
                -1.4626163244247437,
                -2.1601758003234863,
                -0.24945314228534698,
                -0.13333944976329803,
                -1.0676759481430054,
                -0.7084465026855469,
                -0.09679082781076431,
                -1.2485500574111938,
                -1.0446840524673462,
                0.37826400995254517,
                0.7359846830368042,
                -0.05549473315477371,
                0.1096414178609848,
                -0.6098430156707764,
                -0.7138816118240356,
                0.4046368896961212,
                -1.3204954862594604,
                -1.2538584470748901,
                -0.4583503305912018,
                -0.23038440942764282,
                1.0237047672271729,
                -0.40004488825798035,
                -1.4799845218658447,
                -0.300081342458725,
                0.37869709730148315,
                -1.5906497240066528,
                0.10332823544740677,
                -1.9649959802627563,
                -0.35795658826828003,
                -1.4932664632797241,
                0.27563807368278503,
                0.5554296970367432,
                -1.5153553485870361,
                0.16197195649147034,
                -0.31325143575668335,
                0.15646247565746307,
                1.0041556358337402,
                0.5223931670188904,
                -0.6141113638877869,
                2.209408760070801,
                -0.08114100992679596,
                0.6578640341758728,
                -0.2142973244190216,
                -0.4128280580043793,
                -0.4269203841686249,
                -1.2892496585845947,
                -1.433343529701233,
                0.37728044390678406,
                -0.31265494227409363,
                0.780365526676178,
                -0.7538012862205505,
                -0.2040019929409027,
                -1.8924261331558228,
                -0.30728787183761597,
                -0.39772140979766846,
                -0.28763914108276367,
                0.7657088041305542,
                0.27867642045021057,
                -0.27195724844932556,
                -2.4902594089508057,
                -0.42644885182380676,
                -0.2800818383693695,
                -0.29656320810317993,
                -0.04385003820061684,
                0.9463741779327393,
                -0.14605583250522614,
                -1.1991502046585083,
                2.3653225898742676,
                1.9713282585144043,
                1.0491739511489868,
                2.1746315956115723,
                -1.1179739236831665,
                -0.8268200159072876,
                0.1680229753255844,
                1.557189702987671,
                0.12960755825042725,
                -1.522266149520874,
                1.875885009765625,
                -0.17276044189929962,
                0.5259228944778442,
                1.0006747245788574,
                0.9939036965370178,
                1.505749225616455,
                0.5101125836372375,
                0.4576058089733124,
                -0.4364243745803833,
                0.2751646637916565,
                1.2933111190795898,
                0.2977375388145447,
                3.5053646564483643,
                0.018509667366743088,
                1.5924206972122192,
                1.6274054050445557,
                1.7584705352783203,
                -0.3611917197704315,
                1.0288329124450684,
                -1.5544488430023193,
                2.079927682876587,
                1.9615246057510376,
                -0.03157888352870941,
                -0.39121997356414795,
                -2.223187208175659,
                0.13127633929252625,
                -0.42566004395484924,
                -1.2573521137237549,
                0.003085013711825013,
                -0.7265780568122864,
                2.028125047683716,
                -1.7790334224700928,
                1.2604012489318848,
                -0.7711703181266785,
                0.18847881257534027,
                0.2530886232852936,
                -0.1970217376947403,
                0.2700371742248535,
                1.0703500509262085,
                1.359641432762146,
                2.298287868499756,
                -1.2413769960403442,
                -2.6410346031188965,
                0.9085431694984436,
                -0.05490235984325409,
                0.03062267042696476,
                -0.8697326183319092,
                -1.6231722831726074,
                -0.11563524603843689,
                1.277814507484436,
                1.2428388595581055,
                1.0137355327606201,
                -2.233917713165283,
                0.604403018951416,
                0.5263004899024963,
                0.3876364231109619,
                0.2151605188846588,
                1.5521104335784912,
                0.8079249262809753,
                -1.6349815130233765,
                0.7793079614639282,
                0.7508242726325989,
                0.02344515174627304,
                2.0409369468688965,
                0.26731041073799133
            ]
        },
        "mlp1.weight": {
            "shape": [
                9,
                64
            ],
            "data": [
                0.15899452567100525,
                -0.13397908210754395,
                0.09097018837928772,
                -0.14440934360027313,
                0.23809215426445007,
                0.1359623372554779,
                0.1578860580921173,
                -0.25627586245536804,
                -0.2624478340148926,
                -0.04421904683113098,
                0.013958215713500977,
                0.22796300053596497,
                -0.1686716079711914,
                0.2142680585384369,
                0.07976329326629639,
                -0.2025080919265747,
                0.17276743054389954,
                -0.06365171074867249,
                0.2147616446018219,
                -0.04480382800102234,
                0.1826486885547638,
                -0.32107028365135193,
                -0.18656770884990692,
                -0.2039666622877121,
                0.1323472261428833,
                -0.0307634174823761,
                0.25926509499549866,
                -0.19981321692466736,
                0.2382936179637909,
                0.29433301091194153,
                -0.1061694324016571,
                0.25755301117897034,
                0.04948556423187256,
                -0.010683685541152954,
                -0.08463768661022186,
                -0.23599033057689667,
                -0.06514310836791992,
                0.2311479151248932,
                -0.11897620558738708,
                -0.26432299613952637,
                0.24231454730033875,
                0.2479809820652008,
                0.01284492015838623,
                0.09435760974884033,
                -0.31663841009140015,
                -0.027971267700195312,
                0.17102745175361633,
                -0.16892337799072266,
                -0.15894317626953125,
                -0.2596001625061035,
                0.029869943857192993,
                -0.31438204646110535,
                0.2136324942111969,
                -0.1438732147216797,
                -0.07098495960235596,
                -0.3317350149154663,
                -0.17461030185222626,
                0.2682752311229706,
                0.04152759909629822,
                0.03898468613624573,
                0.18809571862220764,
                -0.3057515323162079,
                -0.07194575667381287,
                -0.25372394919395447,
                -0.1392747163772583,
                0.10816836357116699,
                -0.014184117317199707,
                0.17850062251091003,
                0.11117598414421082,
                0.2191322147846222,
                0.11504170298576355,
                -0.13339242339134216,
                0.03295588493347168,
                -0.3218930959701538,
                0.2442995011806488,
                -0.2939717173576355,
                -0.3229926824569702,
                -0.0548253059387207,
                0.1707240641117096,
                0.2369738519191742,
                -0.27239078283309937,
                -0.2978140711784363,
                -0.06719496846199036,
                0.13353809714317322,
                -0.05340549349784851,
                -0.22686037421226501,
                -0.03297939896583557,
                -0.1811796873807907,
                -0.28928399085998535,
                -0.24320344626903534,
                0.13360556960105896,
                -0.03812083601951599,
                0.06521618366241455,
                -0.09862284362316132,
                0.048500269651412964,
                -0.2719566822052002,
                -0.17721852660179138,
                0.10800552368164062,
                0.21254637837409973,
                -0.1961658000946045,
                0.32915428280830383,
                -0.14605534076690674,
                0.10940495133399963,
                0.07421624660491943,
                0.06488728523254395,
                -0.25378990173339844,
                -0.31690487265586853,
                0.16284671425819397,
                0.14594659209251404,
                -0.021125465631484985,
                -0.26947396993637085,
                0.18568828701972961,
                0.1839999258518219,
                -0.16871702671051025,
                0.05203947424888611,
                0.2683505713939667,
                -0.0583568811416626,
                -0.1871608942747116,
                -0.08293047547340393,
                0.27130773663520813,
                -0.20594708621501923,
                -0.029289275407791138,
                -0.026790589094161987,
                0.030018538236618042,
                0.08271327614784241,
                -0.18701708316802979,
                -0.32565629482269287,
                0.04201710224151611,
                0.0681380033493042,
                -0.02581658959388733,
                0.10840627551078796,
                0.3064224421977997,
                0.2167970836162567,
                -0.14193293452262878,
                0.29035452008247375,
                0.02964523434638977,
                0.03229808807373047,
                -0.17688679695129395,
                0.2577519714832306,
                0.10457572340965271,
                -0.08539919555187225,
                0.3200733959674835,
                0.3279778063297272,
                0.059122323989868164,
                0.22075960040092468,
                0.19418808817863464,
                0.2047482430934906,
                -0.00863674283027649,
                -0.004484385251998901,
                0.27861031889915466,
                0.16576281189918518,
                0.04793190956115723,
                -0.05481255054473877,
                0.25397661328315735,
                0.019272565841674805,
                0.3320930302143097,
                0.20951035618782043,
                -0.15545611083507538,
                0.14492952823638916,
                -0.2518450617790222,
                0.1558833122253418,
                0.2604265511035919,
                -0.11471423506736755,
                0.0922459065914154,
                0.05267247557640076,
                -0.273199200630188,
                -0.2931588590145111,
                0.17666378617286682,
                0.11801603436470032,
                0.16273066401481628,
                0.043015360832214355,
                -0.1439158171415329,
                -0.10158681869506836,
                0.22199657559394836,
                -0.02281057834625244,
                0.2592492997646332,
                0.18778875470161438,
                -0.07730892300605774,
                -0.23861777782440186,
                -0.2400956153869629,
                -0.15071532130241394,
                0.15211641788482666,
                0.3222379982471466,
                0.29347869753837585,
                -0.283999502658844,
                -0.00737115740776062,
                0.011346191167831421,
                0.23929396271705627,
                -0.23773634433746338,
                0.1604137122631073,
                -0.078955739736557,
                0.21037974953651428,
                -0.2520408630371094,
                -0.2759798765182495,
                0.13011625409126282,
                0.152380108833313,
                -0.10834118723869324,
                0.13794109225273132,
                0.005756348371505737,
                -0.009271830320358276,
                -0.21784822642803192,
                0.12018871307373047,
                0.017494559288024902,
                0.29319456219673157,
                0.0875031054019928,
                -0.006613820791244507,
                0.21784988045692444,
                -0.16507872939109802,
                0.22507116198539734,
                0.005361437797546387,
                0.11509966850280762,
                0.09121564030647278,
                -0.28122860193252563,
                -0.1261250227689743,
                -0.1517195701599121,
                0.2875289022922516,
                -0.2327301949262619,
                0.2037757933139801,
                0.041858673095703125,
                0.10022762417793274,
                -0.17100369930267334,
                -0.2632586359977722,
                0.14503076672554016,
                0.23627963662147522,
                0.07710695266723633,
                0.09779796004295349,
                0.06387344002723694,
                0.19306859374046326,
                0.16954216361045837,
                -0.32728907465934753,
                -0.17020809650421143,
                -0.13686101138591766,
                -0.25186461210250854,
                0.2632751762866974,
                -0.32032033801078796,
                -0.06171071529388428,
                -0.3196514844894409,
                -0.14029507339000702,
                0.1998749077320099,
                -0.16618788242340088,
                -0.15703587234020233,
                -0.08527970314025879,
                0.24200358986854553,
                0.32251879572868347,
                0.2508437931537628,
                0.002991408109664917,
                0.15557444095611572,
                -0.2184484899044037,
                0.2925366461277008,
                0.0650956928730011,
                -0.08758485317230225,
                0.1615917980670929,
                -0.09353780746459961,
                -0.03197959065437317,
                0.3313853442668915,
                0.043742865324020386,
                -0.16345643997192383,
                -0.09710848331451416,
                0.12397745251655579,
                -0.033969759941101074,
                0.28759029507637024,
                -0.2766760289669037,
                0.31507840752601624,
                0.05266520380973816,
                0.2778919041156769,
                0.13217535614967346,
                -0.09632174670696259,
                -0.2558140754699707,
                -0.14226722717285156,
                -0.2468409240245819,
                0.1381581723690033,
                0.27166977524757385,
                -0.13348791003227234,
                0.17991355061531067,
                -0.29116445779800415,
                0.3116972744464874,
                0.051477402448654175,
                -0.27982622385025024,
                0.2821080982685089,
                -0.11419276893138885,
                0.3130904734134674,
                -0.2972009778022766,
                0.08481946587562561,
                -0.12651848793029785,
                -0.30375033617019653,
                0.08355584740638733,
                -0.13540422916412354,
                -0.32099100947380066,
                0.07892453670501709,
                -0.06897792220115662,
                -0.24317118525505066,
                -0.05796632170677185,
                0.29387977719306946,
                0.10891512036323547,
                -0.1086340844631195,
                -0.059206634759902954,
                0.06482979655265808,
                -0.2851637601852417,
                -0.1324617564678192,
                0.15020978450775146,
                0.2849140465259552,
                0.1007700264453888,
                0.25467368960380554,
                0.17005804181098938,
                0.20726600289344788,
                -0.3031611144542694,
                0.32393690943717957,
                -0.10903279483318329,
                0.1783512532711029,
                0.08973121643066406,
                0.3129803240299225,
                -0.1508321762084961,
                -0.1935030221939087,
                -0.2527915835380554,
                -0.1680145263671875,
                -0.3085181415081024,
                0.1188330352306366,
                -0.21372723579406738,
                0.22045549750328064,
                0.08036264777183533,
                0.20692291855812073,
                -0.09602153301239014,
                0.06712368130683899,
                0.2037598192691803,
                0.09753572940826416,
                0.05498090386390686,
                0.16940060257911682,
                0.27142539620399475,
                0.013768911361694336,
                0.32099083065986633,
                -0.24340133368968964,
                0.06739500164985657,
                -0.14878186583518982,
                0.0640329122543335,
                -0.2530671954154968,
                -0.034020453691482544,
                0.1477501392364502,
                0.17219021916389465,
                0.13430941104888916,
                0.0049401819705963135,
                -0.2319406270980835,
                -0.14274553954601288,
                0.2906475365161896,
                -0.1447344273328781,
                0.15828177332878113,
                0.26027539372444153,
                -0.1512957066297531,
                0.01792857050895691,
                0.23061397671699524,
                0.3102053701877594,
                -0.3265577256679535,
                -0.18329071998596191,
                -0.20540785789489746,
                -0.16204893589019775,
                -0.2927704453468323,
                0.004450082778930664,
                -0.10795438289642334,
                0.039185792207717896,
                -0.24894845485687256,
                0.09512284398078918,
                -0.07262179255485535,
                -0.2733082175254822,
                0.31856057047843933,
                -0.011065393686294556,
                0.2589643895626068,
                -0.0786677896976471,
                0.10790407657623291,
                -0.3301433324813843,
                -0.08866362273693085,
                -0.09363794326782227,
                0.04195082187652588,
                0.2838168442249298,
                0.044154971837997437,
                -0.10096284747123718,
                -0.05054953694343567,
                0.005658268928527832,
                0.23234990239143372,
                0.002635866403579712,
                0.1759949028491974,
                -0.2105763852596283,
                -0.08030286431312561,
                0.10554829239845276,
                -0.2531047761440277,
                0.029942482709884644,
                0.3168843686580658,
                0.037988513708114624,
                -0.13465699553489685,
                -0.10839609801769257,
                0.00783240795135498,
                0.07803967595100403,
                -0.013372629880905151,
                0.05153271555900574,
                -0.1164071261882782,
                -0.24319326877593994,
                -0.2583516240119934,
                0.06410619616508484,
                -0.28241121768951416,
                -0.22136537730693817,
                0.29764309525489807,
                0.12368035316467285,
                -0.04666265845298767,
                0.315972238779068,
                -0.20025913417339325,
                -0.20770065486431122,
                -0.10784976184368134,
                0.06732487678527832,
                -0.09029790759086609,
                0.17188790440559387,
                0.0019227266311645508,
                0.25675180554389954,
                -0.17898206412792206,
                0.3000181019306183,
                -0.07566031813621521,
                -0.12897412478923798,
                0.03458794951438904,
                0.1149817407131195,
                -0.11881265044212341,
                0.21106866002082825,
                -0.3226521909236908,
                -0.2694084346294403,
                -0.16466347873210907,
                0.06380435824394226,
                0.10512650012969971,
                0.3201119005680084,
                -0.21518635749816895,
                0.148574560880661,
                -0.07306540012359619,
                0.17822018265724182,
                0.23878213763237,
                -0.0010720789432525635,
                -0.3266427218914032,
                0.1543082892894745,
                -0.10862819850444794,
                -0.2734845280647278,
                -0.13416580855846405,
                -0.06601527333259583,
                -0.039436668157577515,
                -0.09656393527984619,
                -0.17267581820487976,
                0.02860090136528015,
                0.18575236201286316,
                0.059844374656677246,
                0.0368274450302124,
                0.13988244533538818,
                -0.16377882659435272,
                -0.2147149294614792,
                0.06456419825553894,
                -0.26131671667099,
                -0.11010098457336426,
                -0.0629323422908783,
                -0.06728866696357727,
                -0.32847321033477783,
                -0.18398305773735046,
                0.1222563087940216,
                0.172617107629776,
                -0.05154559016227722,
                0.1093771755695343,
                0.26660487055778503,
                0.26172271370887756,
                -0.13877539336681366,
                -0.16446757316589355,
                0.026264160871505737,
                0.1452280580997467,
                0.20509901642799377,
                -0.12447893619537354,
                0.1566692590713501,
                0.0047959089279174805,
                0.005795329809188843,
                -0.04893741011619568,
                0.32582738995552063,
                -0.23172025382518768,
                -0.06635591387748718,
                -0.020067483186721802,
                -0.0722065269947052,
                0.2840571701526642,
                -0.16977521777153015,
                -0.29883119463920593,
                0.07352712750434875,
                -0.2380887269973755,
                0.23961570858955383,
                -0.10333089530467987,
                0.0829770565032959,
                -0.19114789366722107,
                0.09269368648529053,
                -0.29240816831588745,
                -0.1198115348815918,
                -0.30391907691955566,
                0.27578577399253845,
                0.3199279010295868,
                -0.03688398003578186,
                -0.30363187193870544,
                0.23002007603645325,
                0.04445755481719971,
                -0.3088410496711731,
                -0.1946599930524826,
                0.11137402057647705,
                0.1261110007762909,
                0.1153922975063324,
                -0.09697191417217255,
                0.22700908780097961,
                0.22434672713279724,
                -0.20478098094463348,
                -0.15166597068309784,
                0.2136017382144928,
                0.13173270225524902,
                0.07110071182250977,
                -0.0537894070148468,
                0.3114560544490814,
                -0.06681203842163086,
                0.3016078770160675,
                -0.0029939115047454834,
                0.3292367160320282,
                -0.2951577305793762,
                -0.03401044011116028,
                0.09892639517784119,
                0.27497079968452454,
                -0.2083178460597992,
                -0.16109204292297363,
                0.06630334258079529,
                0.14543724060058594,
                0.3209274113178253,
                -0.2921198010444641,
                -0.20527184009552002,
                0.137337327003479,
                0.1446191370487213,
                -0.12155692279338837,
                0.08631321787834167,
                -0.013503879308700562,
                -0.11702708899974823,
                0.06998613476753235,
                0.1904691755771637,
                -0.11895665526390076,
                0.16114625334739685,
                0.024377554655075073,
                -0.2559055984020233,
                -0.1342991292476654,
                -0.3013739585876465,
                0.2575141489505768,
                -0.1740121841430664,
                0.06487667560577393,
                -0.1422824114561081,
                -0.20656678080558777,
                -0.1031862199306488,
                -0.17901937663555145,
                -0.1364172399044037,
                -0.013421058654785156,
                -0.09959372878074646,
                0.16172254085540771,
                0.22161898016929626,
                -0.1593014895915985,
                0.199222594499588,
                0.29554805159568787,
                -0.08637019991874695,
                -0.2995997667312622,
                -0.04352894425392151,
                -0.04848217964172363,
                0.19395354390144348,
                -0.009350508451461792,
                -0.28072261810302734,
                -0.07796061038970947,
                -0.3042016923427582,
                0.32262107729911804,
                -0.1465388983488083,
                -0.05549517273902893,
                0.13048318028450012,
                -0.017985671758651733,
                -0.23228320479393005,
                -0.11650276184082031,
                0.1428806483745575,
                -0.3036347031593323,
                -0.12285801768302917,
                -0.24191896617412567,
                -0.09512118995189667,
                0.15136468410491943,
                -0.05911090970039368,
                -0.16221849620342255
            ]
        },
        "mlp1.bias": {
            "shape": [
                64,
                1
            ],
            "data": [
                -0.17849695682525635,
                0.29199448227882385,
                0.01653715968132019,
                0.27497777342796326,
                0.08401212096214294,
                0.3261348307132721,
                0.051328063011169434,
                -0.2031041830778122,
                0.07055893540382385,
                -0.2685987949371338,
                0.2261718213558197,
                0.2621097266674042,
                -0.2352871596813202,
                -0.2756420373916626,
                -0.0065239667892456055,
                0.12941476702690125,
                0.32370397448539734,
                -0.07352384924888611,
                0.23900017142295837,
                0.11677417159080505,
                -0.32970213890075684,
                -0.043901681900024414,
                -0.06927743554115295,
                -0.140724778175354,
                0.15420040488243103,
                -0.17591969668865204,
                0.30389365553855896,
                0.13480070233345032,
                0.05210879445075989,
                0.30720070004463196,
                0.23164156079292297,
                0.22132518887519836,
                -0.30463215708732605,
                -0.24736551940441132,
                -0.27283594012260437,
                -0.09254467487335205,
                -0.06036689877510071,
                -0.1269848793745041,
                0.10928377509117126,
                0.049559712409973145,
                0.2665112316608429,
                0.2624413073062897,
                0.27549782395362854,
                0.3126276433467865,
                0.2407938539981842,
                0.0035809576511383057,
                0.29448410868644714,
                0.12714967131614685,
                0.2605617344379425,
                -0.05115678906440735,
                0.23318222165107727,
                0.18442502617835999,
                0.06567761301994324,
                -0.04173508286476135,
                0.23743930459022522,
                0.050534218549728394,
                -0.07500246167182922,
                0.08022177219390869,
                -0.04452010989189148,
                0.03145429491996765,
                -0.034934550523757935,
                0.2988686263561249,
                0.28201255202293396,
                0.09550309181213379
            ]
        },
        "mlp2.weight": {
            "shape": [
                64,
                1
            ],
            "data": [
                -0.10732109844684601,
                0.009785622358322144,
                -0.05071301758289337,
                0.11625288426876068,
                -0.053528085350990295,
                0.017582491040229797,
                -0.04490852355957031,
                -0.09196804463863373,
                0.021386265754699707,
                -0.011324599385261536,
                0.06465530395507812,
                0.07744534313678741,
                0.01623372733592987,
                -0.11936439573764801,
                -0.07535777986049652,
                0.03886786103248596,
                0.09268701076507568,
                -0.07955728471279144,
                -0.0971013605594635,
                0.12474788725376129,
                -0.1058557778596878,
                -0.12275169789791107,
                0.0680275559425354,
                -0.1174178272485733,
                -0.013739019632339478,
                -0.08656565845012665,
                0.01757676899433136,
                -0.043774351477622986,
                0.07218259572982788,
                -0.06434103846549988,
                0.029335737228393555,
                0.0062417685985565186,
                0.05356304347515106,
                -0.10530184209346771,
                -0.06874611973762512,
                -0.12185531854629517,
                0.027992263436317444,
                -0.0768541544675827,
                0.12369050085544586,
                -0.025874033570289612,
                0.1099480390548706,
                -0.10969504714012146,
                0.05370663106441498,
                -0.017464086413383484,
                0.10753397643566132,
                0.02587057650089264,
                -0.07382255792617798,
                0.07775583863258362,
                0.07701003551483154,
                0.1224374920129776,
                -0.009227544069290161,
                -0.11630330979824066,
                0.0713595300912857,
                -0.10924021899700165,
                -0.06841908395290375,
                -0.09785857796669006,
                -0.09000559151172638,
                0.09343789517879486,
                -0.036383599042892456,
                0.05517813563346863,
                -0.10894857347011566,
                -0.11234189569950104,
                -0.12307363748550415,
                0.11846721172332764
            ]
        },
        "mlp2.bias": {
            "shape": [
                1,
                1
            ],
            "data": [
                -0.03527362644672394
            ]
        },
        "input": {
            "shape": [
                2,
                2
            ],
            "data": [  0,   4,  1,  1]
        },
        "input0": {
            "shape": [
                2,
                1
            ],
            "data": [  0, 1]
        },
        "input1": {
            "shape": [
                2,
                1
            ],
            "data": [  4, 1]
        }
    },
    "nodes": [
        {
            "op_type": "Gather",
            "inputs": [
                "input0",
                "embedding_layers.0.weight"
            ],
            "outputs": [
                "/embedding_layers.0/Gather_output_0"
            ],
            "attributes": {
                "axis": [1]
            },
            "backward_inputs": [
                "gradient_gather_0",
                "input0", 
                "embedding_layers.0.weight"
              ],
              "backward_outputs": [
                "gradient_output",
                "embedding_layers.0.weight"
              ]
        },
        {
            "op_type": "Gather",
            "inputs": [
                "input1",
                "embedding_layers.1.weight"
            ],
            "outputs": [
                "/embedding_layers.1/Gather_output_0"
            ],
            "attributes": {
                "axis": [1]
            },
            "backward_inputs": [
                "gradient_gather_1",
                "input1",
                "embedding_layers.1.weight"
              ],
              "backward_outputs": [
                "gradient_gather_output_1", 
                "embedding_layers.1.weight"
              ]
        
        },
        {
            "op_type": "Unsqueeze",
            "inputs": [
              "/embedding_layers.0/Gather_output_0"
            ],
            "outputs": [
              "/Unsqueeze_output_0"
            ],
            "attributes": {},
            "backward_inputs": [
                "gradient_unsqueeze_0"
            ],
            "backward_outputs": [
                "gradient_gather_0"
            ]
        },
        {
            "op_type": "Unsqueeze",
            "inputs": [
              "/embedding_layers.1/Gather_output_0"
            ],
            "outputs": [
              "/Unsqueeze_1_output_0"
            ],
            "attributes": {},
            "backward_inputs": [
                "gradient_unsqueeze_1"
              ],
              "backward_outputs": [
                "gradient_gather_1"
              ]
        },
        {
            "op_type": "Concat",
            "inputs": [
                "/Unsqueeze_output_0",
                "/Unsqueeze_1_output_0"
            ],
            "outputs": [
                "/Concat_output_0"
            ],
            "attributes": {
                "axis": [1]
            },
            "backward_inputs": [
                "gradient_concat_1",
                "/Unsqueeze_output_0",
                "/Unsqueeze_1_output_0"
            ],
            "backward_outputs": [
              "gradient_unsqueeze_0",
              "gradient_unsqueeze_1"
            ]
        },
        {
            "op_type": "FM",
            "inputs": [
                "input",
                "/Concat_output_0"
            ],
            "outputs": [
                "/fm/fm_output_0"
            ],
            "attributes": {
                "alpha": 1.0,
                "beta": 1.0,
                "transB": 1
            },
            "backward_inputs": [
              ],
              "backward_outputs": [
              ]
        },
        {
            "op_type": "ReduceMean",
            "inputs": [
                "/Concat_output_0"
            ],
            "outputs": [
                "/ReduceMean_output_0"
            ],
            "attributes": {
                "axes": 1,
                "keepdims": 0
            },
            "backward_inputs": [
                "gradient_reduce_0",
                "/Concat_output_0"
              ],
              "backward_outputs": [
                "gradient_concat_1"
            ]
        },
        {
            "op_type": "Gemm",
            "inputs": [
                "/ReduceMean_output_0",
                "mlp1.weight",
                "mlp1.bias"
            ],
            "outputs": [
                "/mlp1/Gemm_output_0"
            ],
            "attributes": {
                "alpha": 1.0,
                "beta": 1.0,
                "transB": 1
            },
            "backward_inputs": [
                "gradient_gemm1_0",
                "/ReduceMean_output_0",
                "mlp1.weight",
                "mlp1.bias"
              ],
              "backward_outputs": [
                "gradient_reduce_0",
                "mlp1.weight",
                "mlp1.bias"
              ]
        },
        {
            "op_type": "Relu",
            "inputs": [
                "/mlp1/Gemm_output_0"
            ],
            "outputs": [
                "/relu/Relu_output_0"
            ],
            "attributes": {},
            "backward_inputs": [
                "gradient_relu_0",
                "/mlp1/Gemm_output_0"
              ],
              "backward_outputs": [
                "gradient_gemm1_0"
            ]
        },
        {
            "op_type": "Gemm",
            "inputs": [ 
                "/relu/Relu_output_0",
                "mlp2.weight",
                "mlp2.bias"
            ],
           "outputs": [
                "/mlp2/Gemm_output_0"
            ],
            "attributes": {
                "alpha": 1.0,
                "beta": 1.0,
                "transB": 1
            },
            "backward_inputs": [
                "gradient_gemm2_0",
                "/relu/Relu_output_0",
                "mlp2.weight",
                "mlp2.bias"
              ],
              "backward_outputs": [
                "gradient_relu_0",
                "mlp2.weight",
                "mlp2.bias"
              ]
        },
        {
            "op_type": "Add",
            "inputs": [
                "/fm/fm_output_0",
                "/mlp2/Gemm_output_0"
            ],
            "outputs": [
                "output"
            ],
            "attributes": {},
            "backward_inputs": [
                "gradient",
                "/fm/fm_output_0",
                "/mlp2/Gemm_output_0"
              ],
              "backward_outputs": [
                "gradient_fm_0",
                "gradient_gemm2_0"
              ]
        }
    ],
    "input_shape": [
        2,
        2
    ],
    "output_shape": [
        2,
        1
    ]
}