{
    "tensor_map": {
        "embedding_layers.0.weight": {
            "shape": [
                28,
                9
            ],
            "data": [
                0.37226974964141846,
                0.1290229707956314,
                -0.4358750581741333,
                -0.05735667422413826,
                1.238065481185913,
                -0.521831214427948,
                -0.7265027165412903,
                -0.8275619745254517,
                0.33549100160598755,
                -0.11161547154188156,
                0.16090473532676697,
                -0.13496793806552887,
                2.3984570503234863,
                -0.21182917058467865,
                0.8586627840995789,
                1.7401524782180786,
                0.5749800205230713,
                0.7129819393157959,
                0.5181646347045898,
                -0.8979432582855225,
                0.9653087854385376,
                -1.173702597618103,
                -0.2087031453847885,
                -0.8433899879455566,
                0.3149726688861847,
                -1.1856848001480103,
                -0.10016708821058273,
                -0.6178696155548096,
                1.3356891870498657,
                -0.18847982585430145,
                -0.3644721508026123,
                1.122251033782959,
                0.030973145738244057,
                -0.6972924470901489,
                -1.3220036029815674,
                1.062548279762268,
                0.09488940238952637,
                -0.5529657006263733,
                0.49557656049728394,
                -0.0944475531578064,
                -0.5957620143890381,
                0.09821902215480804,
                1.6094876527786255,
                1.049273133277893,
                -0.9190786480903625,
                -0.4692610204219818,
                0.3486155569553375,
                -0.07833069562911987,
                -0.9165045022964478,
                -0.7068604826927185,
                -1.0399720668792725,
                -1.9005335569381714,
                0.5847718715667725,
                1.442541480064392,
                0.38241419196128845,
                -0.19599738717079163,
                0.6808044910430908,
                1.8414340019226074,
                -2.3998348712921143,
                0.2575928270816803,
                -1.7707451581954956,
                0.5413862466812134,
                -0.42490944266319275,
                -1.4405220746994019,
                -0.3658697307109833,
                1.58766770362854,
                1.3483742475509644,
                -1.123918056488037,
                -0.44660794734954834,
                -0.17422886192798615,
                -1.7439090013504028,
                0.23118169605731964,
                -1.1704883575439453,
                -1.2799065113067627,
                0.1382509022951126,
                -0.5143231153488159,
                0.08235777914524078,
                -0.7492266297340393,
                -1.295300841331482,
                1.0858080387115479,
                -0.48102429509162903,
                0.2280675172805786,
                0.24163539707660675,
                0.9738726615905762,
                0.4511474072933197,
                -0.42302343249320984,
                1.865081548690796,
                0.9316518902778625,
                0.15462474524974823,
                0.977329671382904,
                -0.6881805062294006,
                0.6747363805770874,
                0.06349612027406693,
                0.34645718336105347,
                -1.262587070465088,
                -0.7157931923866272,
                -1.863769769668579,
                0.4797808825969696,
                -1.4114865064620972,
                -0.4747309386730194,
                0.8532251119613647,
                0.09754040837287903,
                -1.4213500022888184,
                -0.8270636200904846,
                -0.9886885285377502,
                -1.08115816116333,
                -0.6522951126098633,
                -1.6027641296386719,
                0.8655171394348145,
                1.5810694694519043,
                0.09494440257549286,
                1.088541865348816,
                -0.906314492225647,
                0.2503724694252014,
                0.9154706001281738,
                1.0112190246582031,
                -1.0397664308547974,
                -2.428975820541382,
                -1.4066162109375,
                0.8849918842315674,
                1.3486151695251465,
                0.22779743373394012,
                -0.0657619833946228,
                0.3343326151371002,
                -0.8604646325111389,
                0.7354586124420166,
                0.7097952961921692,
                0.7733103632926941,
                -1.8298673629760742,
                0.8787497282028198,
                1.640842080116272,
                -1.458857774734497,
                0.5780589580535889,
                -0.8741157650947571,
                -1.5366902351379395,
                0.49593666195869446,
                -0.6434314846992493,
                0.18643543124198914,
                0.1327386200428009,
                1.1814303398132324,
                -1.4764275550842285,
                0.406013160943985,
                -0.8878675699234009,
                1.5496416091918945,
                -0.19324557483196259,
                -0.5670033097267151,
                1.168336033821106,
                -1.3914227485656738,
                -2.075678586959839,
                0.686496913433075,
                1.4167736768722534,
                0.16618123650550842,
                0.8268221020698547,
                -0.6709096431732178,
                0.7390844225883484,
                -0.8674964308738708,
                0.50175541639328,
                1.2299385070800781,
                0.2389458566904068,
                0.7302913665771484,
                0.17323674261569977,
                -0.08810871094465256,
                0.6574041247367859,
                -0.1429571956396103,
                0.32937368750572205,
                -1.3828463554382324,
                1.9416438341140747,
                1.793247103691101,
                -0.9943984746932983,
                -0.18040816485881805,
                0.9461154341697693,
                0.20083235204219818,
                1.0446020364761353,
                -0.07129373401403427,
                -0.4769587814807892,
                0.25883471965789795,
                0.16589395701885223,
                0.04375430569052696,
                0.14493469893932343,
                -0.004236702807247639,
                1.638497233390808,
                -0.3178804814815521,
                -0.0926007330417633,
                -1.1012837886810303,
                0.7179647088050842,
                0.8563782572746277,
                -0.055834993720054626,
                -0.650336742401123,
                -0.22867771983146667,
                -0.7161712646484375,
                -0.1936320960521698,
                -0.13928872346878052,
                -2.40578293800354,
                0.27908003330230713,
                0.1475270688533783,
                1.231609582901001,
                -0.3449418842792511,
                0.702663242816925,
                1.39011549949646,
                -0.7875152826309204,
                1.3586466312408447,
                -0.9571452140808105,
                -1.0215312242507935,
                -1.1316299438476562,
                0.4195046126842499,
                0.2482132762670517,
                0.1535359025001526,
                -1.5034935474395752,
                -0.845841646194458,
                0.01868584379553795,
                -0.02732185833156109,
                -0.5978432893753052,
                1.6080771684646606,
                -1.0641493797302246,
                -0.6462754011154175,
                0.20847390592098236,
                -2.6017160415649414,
                -0.3110348582267761,
                0.9231286644935608,
                -1.1818996667861938,
                -0.8821876049041748,
                0.17959026992321014,
                0.6542807221412659,
                -0.6561495065689087,
                -0.6803385019302368,
                -1.3786729574203491,
                -0.1332540214061737,
                -0.2654678225517273,
                1.0007004737854004,
                -1.2414072751998901,
                1.3107268810272217,
                0.0977541133761406,
                -0.12700505554676056,
                -0.678330659866333,
                -1.311966061592102,
                -0.574344277381897,
                0.5814813375473022,
                -0.4717002809047699,
                1.594011902809143,
                0.4122186005115509,
                -0.47291553020477295,
                1.152827501296997,
                0.10859314352273941,
                0.5467033982276917,
                -0.19713564217090607,
                -0.35178321599960327,
                0.7922462224960327,
                1.2665153741836548,
                -0.829124391078949,
                -0.8612815141677856,
                0.6166117787361145,
                0.23552542924880981
            ]
        },
        "embedding_layers.1.weight": {
            "shape": [
                93,
                9
            ],
            "data": [
                -0.9624992609024048,
                -0.057195164263248444,
                1.796486735343933,
                2.2406554222106934,
                1.4267041683197021,
                -0.5875630378723145,
                -0.5411903858184814,
                1.563680648803711,
                0.17610538005828857,
                1.5917531251907349,
                0.39058157801628113,
                -2.199479341506958,
                1.7880659103393555,
                -0.17978085577487946,
                -1.383668065071106,
                0.06035298481583595,
                -0.25379905104637146,
                0.16296514868736267,
                -0.0015619492623955011,
                -0.607588529586792,
                0.5904407501220703,
                -0.02813992090523243,
                -1.2554923295974731,
                -0.014529448933899403,
                -0.0326455794274807,
                0.12316925823688507,
                -1.8269325494766235,
                -0.8369554877281189,
                1.4008686542510986,
                0.2949770987033844,
                1.9794306755065918,
                -0.0349324531853199,
                -1.175861120223999,
                1.1097530126571655,
                0.30241677165031433,
                -1.6309734582901,
                -1.612858772277832,
                -0.6500099897384644,
                0.6395986080169678,
                -2.483445167541504,
                -0.08572522550821304,
                -1.4576172828674316,
                1.1676111221313477,
                1.7576714754104614,
                1.3069318532943726,
                0.5640890002250671,
                -0.7184992432594299,
                -0.419324666261673,
                0.5222452878952026,
                -1.217421531677246,
                -0.46256741881370544,
                0.6382741928100586,
                -1.2423620223999023,
                0.2273845076560974,
                0.6328243613243103,
                0.22837720811367035,
                0.0922374352812767,
                0.19578638672828674,
                -0.9189922213554382,
                -0.6182453632354736,
                0.13866233825683594,
                -1.2514185905456543,
                0.3164491653442383,
                -1.465382695198059,
                -0.8017252683639526,
                0.6265918016433716,
                -0.947121798992157,
                1.1111699342727661,
                -0.3050762712955475,
                0.3403934836387634,
                -0.7357417345046997,
                1.053094744682312,
                -0.16062305867671967,
                -1.2479017972946167,
                0.0729743242263794,
                0.3814724385738373,
                -2.2836062908172607,
                0.5644092559814453,
                1.4294381141662598,
                -0.786334216594696,
                -2.538393020629883,
                -0.16420745849609375,
                -1.2348300218582153,
                0.28741735219955444,
                -0.8464769721031189,
                0.7541149258613586,
                1.7607159614562988,
                0.819496750831604,
                0.4796878397464752,
                1.1961289644241333,
                -0.41283339262008667,
                -0.31863006949424744,
                -0.4262957274913788,
                -0.2716979384422302,
                -0.9547298550605774,
                -2.2657110691070557,
                -0.4574587643146515,
                -0.4787013530731201,
                0.34783822298049927,
                -0.4435672461986542,
                -1.3515444993972778,
                -1.1244165897369385,
                -0.32357901334762573,
                -1.9598197937011719,
                0.45124343037605286,
                -0.5289124846458435,
                0.5963562726974487,
                0.4284285306930542,
                0.8427799940109253,
                -0.6448856592178345,
                0.06799729913473129,
                1.9737701416015625,
                0.0027738846838474274,
                1.0374348163604736,
                0.7777767181396484,
                0.3876368999481201,
                1.0389552116394043,
                0.6056416034698486,
                1.976808786392212,
                1.3757058382034302,
                0.3877224624156952,
                -0.577844500541687,
                0.7905406951904297,
                -0.4166601300239563,
                0.20897208154201508,
                0.251343697309494,
                0.037893932312726974,
                -0.6893001198768616,
                0.7531182169914246,
                -2.102736711502075,
                -0.34631219506263733,
                0.07272905111312866,
                0.43146076798439026,
                0.4968571066856384,
                0.9943868517875671,
                0.2906590700149536,
                1.6533821821212769,
                -1.7555755376815796,
                -0.8035260438919067,
                0.9992403984069824,
                0.9650160670280457,
                1.7733988761901855,
                -0.22045476734638214,
                -0.2523907721042633,
                0.7156776785850525,
                1.264778733253479,
                -0.3651012182235718,
                0.6537646651268005,
                -1.0234460830688477,
                -0.4251463711261749,
                -0.20627784729003906,
                -0.7700743079185486,
                -1.8898824453353882,
                -0.6450486183166504,
                1.0161715745925903,
                0.5389588475227356,
                1.840498685836792,
                0.9001111388206482,
                -0.11170753091573715,
                0.2249821424484253,
                0.1901089996099472,
                -0.2874631881713867,
                1.7093839645385742,
                -0.034626130014657974,
                1.7227827310562134,
                0.3750004172325134,
                1.6381348371505737,
                -0.6122663617134094,
                -0.26814359426498413,
                1.9593693017959595,
                -0.25778359174728394,
                -0.634277880191803,
                1.5235646963119507,
                -0.4730376601219177,
                0.6194371581077576,
                -1.421046257019043,
                -1.1712595224380493,
                1.4589569568634033,
                0.7126390933990479,
                0.5833449363708496,
                2.6144542694091797,
                1.110753059387207,
                0.5784613490104675,
                -1.0214592218399048,
                0.3538055419921875,
                -0.2117549329996109,
                -0.15982748568058014,
                -0.4690213203430176,
                0.7065138816833496,
                0.3082302212715149,
                2.0233445167541504,
                0.5482649207115173,
                -0.5896968245506287,
                0.2891184091567993,
                0.1906152069568634,
                1.104262351989746,
                0.26744285225868225,
                -0.8266997337341309,
                1.1541839838027954,
                0.008688315749168396,
                0.15767768025398254,
                0.27489638328552246,
                0.22497117519378662,
                -0.8944987058639526,
                0.7852452993392944,
                0.4690363109111786,
                1.6227335929870605,
                0.5733916759490967,
                -1.6705188751220703,
                -1.4556461572647095,
                0.5123817324638367,
                0.6516745090484619,
                0.08300092816352844,
                0.060072507709264755,
                -1.9956632852554321,
                0.7995515465736389,
                -1.3718444108963013,
                0.4602169394493103,
                0.8995710611343384,
                -0.014454894699156284,
                0.7354015111923218,
                0.10768935084342957,
                0.35851290822029114,
                -0.07044254243373871,
                -0.2083795815706253,
                -0.47327688336372375,
                -0.035018328577280045,
                -1.1315382719039917,
                -0.296328067779541,
                0.41228604316711426,
                -1.575807809829712,
                -1.3499680757522583,
                -0.5203068256378174,
                -0.14264945685863495,
                -0.016536468639969826,
                0.09544677287340164,
                0.24748024344444275,
                0.6951073408126831,
                0.4484572112560272,
                0.7122736573219299,
                0.09009986370801926,
                -0.6893336772918701,
                1.768418550491333,
                1.0528348684310913,
                1.5429631471633911,
                0.2874448597431183,
                -0.3641761243343353,
                1.5604197978973389,
                0.09304605424404144,
                -0.6620079278945923,
                0.3522980809211731,
                -1.3186006546020508,
                0.07123074680566788,
                -1.1666640043258667,
                -0.730872392654419,
                -0.8849438428878784,
                -0.17474932968616486,
                1.6276558637619019,
                -0.077006496489048,
                -3.2606284618377686,
                -0.7248280048370361,
                -1.5645524263381958,
                0.3858245611190796,
                0.7374544143676758,
                0.5694652795791626,
                0.5555400252342224,
                -0.2668088972568512,
                0.836170494556427,
                0.35498446226119995,
                -0.3528212606906891,
                0.576888918876648,
                -1.2277299165725708,
                -0.47940024733543396,
                -0.6542601585388184,
                -0.3361659646034241,
                1.366474986076355,
                -1.5302863121032715,
                -1.2703169584274292,
                -0.27107322216033936,
                -0.3614040017127991,
                -0.6027860045433044,
                -0.6692208647727966,
                0.49010980129241943,
                -0.2630974054336548,
                1.756329894065857,
                1.144988775253296,
                0.8850745558738708,
                -2.33420729637146,
                -0.12543970346450806,
                0.1797552853822708,
                -0.6005862355232239,
                1.5386461019515991,
                -0.756666898727417,
                0.8008275628089905,
                -0.04009883105754852,
                -0.19262760877609253,
                -1.3278309106826782,
                0.8876747488975525,
                -0.5444572567939758,
                1.461594581604004,
                1.6405560970306396,
                -1.1985015869140625,
                0.2582348883152008,
                -1.331337809562683,
                -0.8054546117782593,
                1.833619475364685,
                -3.257375478744507,
                0.861199140548706,
                0.016409894451498985,
                0.10960099846124649,
                -1.6024290323257446,
                0.40512681007385254,
                0.7293612360954285,
                -2.7411043643951416,
                0.018185988068580627,
                -0.295215904712677,
                0.344020277261734,
                -1.305200219154358,
                -0.5477011799812317,
                -1.3007675409317017,
                -0.3210446536540985,
                0.7463447451591492,
                0.22869540750980377,
                1.9390405416488647,
                -2.0895252227783203,
                0.8862327337265015,
                1.5323138236999512,
                0.5357284545898438,
                1.8568053245544434,
                -0.5526059865951538,
                -0.03624892979860306,
                -0.039368342608213425,
                -0.8053708672523499,
                0.8846085667610168,
                -0.35923099517822266,
                0.966776967048645,
                0.6237155199050903,
                -0.2680484652519226,
                1.099015235900879,
                -0.7238437533378601,
                -1.829182744026184,
                1.5221967697143555,
                1.6215811967849731,
                0.06657383590936661,
                -1.4653232097625732,
                2.1884548664093018,
                0.6947593092918396,
                0.19252651929855347,
                -0.16432586312294006,
                -0.21432308852672577,
                -0.18582843244075775,
                1.0395786762237549,
                -1.1132155656814575,
                0.8951830267906189,
                -0.15231943130493164,
                -0.06608737260103226,
                0.16203980147838593,
                0.6987836360931396,
                -0.9166348576545715,
                0.08041834831237793,
                -0.9410458207130432,
                1.0145299434661865,
                -0.7989249229431152,
                0.11606352776288986,
                -0.5205402970314026,
                0.1379852294921875,
                -0.27271705865859985,
                1.553342580795288,
                -2.1258082389831543,
                -1.2574704885482788,
                -0.7024965882301331,
                2.05832576751709,
                -0.7370468974113464,
                -1.483667254447937,
                -0.21343554556369781,
                1.1736177206039429,
                0.0647960677742958,
                0.7866423726081848,
                0.5113937854766846,
                -0.5075272917747498,
                -0.9411520957946777,
                0.18506862223148346,
                0.47494402527809143,
                0.44670844078063965,
                -0.2248190939426422,
                -0.5795238018035889,
                -1.1990406513214111,
                -0.617228090763092,
                1.2021867036819458,
                0.8650662302970886,
                -1.8975414037704468,
                -1.5817291736602783,
                -1.0158231258392334,
                -0.24029546976089478,
                -1.3500066995620728,
                0.47138169407844543,
                -0.7588852047920227,
                0.2906860113143921,
                -0.9138251543045044,
                -0.33418402075767517,
                -1.6549913883209229,
                0.1253112405538559,
                0.059078894555568695,
                0.8831160664558411,
                -0.03885659575462341,
                0.1150144413113594,
                0.4642440676689148,
                0.9942912459373474,
                0.4771674871444702,
                -0.10093987733125687,
                2.726569652557373,
                1.3179796934127808,
                0.034621451050043106,
                0.053902819752693176,
                0.6513951420783997,
                -1.290094017982483,
                0.8387353420257568,
                -1.4620299339294434,
                1.3399772644042969,
                1.8811360597610474,
                -0.7832323908805847,
                0.2183016985654831,
                -0.574135959148407,
                -0.4558456838130951,
                0.7828535437583923,
                -1.6380397081375122,
                -1.2828619480133057,
                2.2252390384674072,
                -1.1249158382415771,
                0.37958335876464844,
                0.5413293242454529,
                -0.4679034948348999,
                -0.5445244908332825,
                -0.3031325042247772,
                -0.7703871726989746,
                -1.2691001892089844,
                -0.786767840385437,
                -1.0663280487060547,
                -0.8243599534034729,
                1.6493687629699707,
                -0.5396266579627991,
                -1.4376897811889648,
                -0.673473060131073,
                0.2900044918060303,
                0.23025409877300262,
                -0.5023868680000305,
                -1.8425147533416748,
                -0.3022879362106323,
                -0.4545246660709381,
                0.3737132251262665,
                0.3701944053173065,
                -0.28416749835014343,
                0.34158143401145935,
                -0.1851653903722763,
                0.573422908782959,
                0.6253039240837097,
                0.10924436897039413,
                0.14941705763339996,
                0.014424648135900497,
                1.0060328245162964,
                0.8090654611587524,
                -0.9395067095756531,
                0.3142215609550476,
                -1.071616530418396,
                0.37025076150894165,
                1.4283900260925293,
                0.08575665950775146,
                0.5254308581352234,
                -0.32579290866851807,
                0.7825118899345398,
                -0.5791483521461487,
                0.4132610559463501,
                -1.331132173538208,
                0.3627021610736847,
                0.9027161598205566,
                1.1473820209503174,
                -1.600282073020935,
                -0.3890169858932495,
                -1.7699627876281738,
                -0.15145359933376312,
                1.6836543083190918,
                1.9267635345458984,
                -2.3934733867645264,
                0.4258640706539154,
                1.333980679512024,
                1.3533912897109985,
                0.5657325983047485,
                0.8771578669548035,
                -0.26670560240745544,
                1.591520071029663,
                -0.10519787669181824,
                0.07458315789699554,
                2.3257896900177,
                -0.1571931540966034,
                0.28518104553222656,
                1.5044268369674683,
                0.030322572216391563,
                -2.6048479080200195,
                -0.4904816150665283,
                1.2072328329086304,
                -0.1990402340888977,
                0.4858172535896301,
                -0.41288360953330994,
                -2.719989538192749,
                0.937886118888855,
                -0.32533207535743713,
                0.3372199833393097,
                0.5267500877380371,
                -1.029508352279663,
                1.269781231880188,
                -0.12688209116458893,
                0.8175855875015259,
                0.7705074548721313,
                0.2948192059993744,
                -2.093841791152954,
                0.06453391164541245,
                0.2942959666252136,
                -0.17640414834022522,
                1.5387580394744873,
                -0.33710670471191406,
                0.6255804896354675,
                1.0703814029693604,
                1.946947455406189,
                -0.9014338850975037,
                0.6728658080101013,
                -0.7276763916015625,
                -0.669488787651062,
                1.1030744314193726,
                0.0026448641438037157,
                -0.20448970794677734,
                -2.499115467071533,
                -0.5573970079421997,
                -0.6180403828620911,
                1.3314299583435059,
                -1.877205729484558,
                2.937509775161743,
                -0.5629379153251648,
                0.8335200548171997,
                1.4708670377731323,
                -0.36532342433929443,
                -1.1064692735671997,
                -1.4997867345809937,
                0.4119567573070526,
                -1.519053339958191,
                -0.09012564271688461,
                0.4788959324359894,
                0.025333933532238007,
                0.42098602652549744,
                0.2720685601234436,
                -0.6817370057106018,
                -0.3581858277320862,
                0.3782203495502472,
                1.8941622972488403,
                0.09988994151353836,
                0.10162351280450821,
                -0.17423371970653534,
                -0.5546175837516785,
                -1.6389636993408203,
                -0.29937943816185,
                -1.2395727634429932,
                1.0654751062393188,
                -0.359980046749115,
                0.05568611994385719,
                -0.4321931004524231,
                0.30946919322013855,
                1.0111801624298096,
                -0.9507144093513489,
                -0.3767700493335724,
                0.004559719935059547,
                -0.5194540023803711,
                -0.0017805114621296525,
                -1.6162309646606445,
                -0.4334218204021454,
                -0.9727458953857422,
                0.047751352190971375,
                0.5780816674232483,
                1.5313218832015991,
                0.5672365427017212,
                0.36095115542411804,
                -0.3967737853527069,
                0.18686725199222565,
                -0.22346846759319305,
                0.6572042107582092,
                -0.45642590522766113,
                -0.2886679768562317,
                0.37828877568244934,
                1.0461044311523438,
                -0.42194679379463196,
                2.172595739364624,
                0.6658437848091125,
                -1.1835280656814575,
                1.7159545421600342,
                1.6749629974365234,
                0.3872357904911041,
                -1.1313987970352173,
                -0.01520796399563551,
                1.3752188682556152,
                -1.4877156019210815,
                -1.8692841529846191,
                0.3868792951107025,
                0.07448083162307739,
                -1.2816150188446045,
                0.2847706079483032,
                1.4860000610351562,
                -0.07584840804338455,
                1.017006754875183,
                1.0278552770614624,
                1.0803074836730957,
                0.3199203908443451,
                0.7152600288391113,
                -0.6416058540344238,
                -0.7738931775093079,
                0.736072301864624,
                -1.2322078943252563,
                -2.040142297744751,
                0.19757351279258728,
                0.8917816281318665,
                0.04209926724433899,
                0.616183876991272,
                -1.5723779201507568,
                0.7417174577713013,
                0.040931615978479385,
                -0.6069034337997437,
                0.0326215997338295,
                -1.542077660560608,
                0.027057131752371788,
                0.46041980385780334,
                -0.19893422722816467,
                0.6438710689544678,
                0.5082598328590393,
                -1.061023473739624,
                0.3500981330871582,
                -0.5838890075683594,
                -1.6437150239944458,
                -0.24966321885585785,
                -0.21360981464385986,
                2.110607862472534,
                1.192514419555664,
                -0.01642305590212345,
                1.3106251955032349,
                1.0520555973052979,
                0.24412016570568085,
                1.4751956462860107,
                -1.1302764415740967,
                -0.9996875524520874,
                0.7393580675125122,
                -1.2736011743545532,
                0.5431625843048096,
                -0.6471817493438721,
                -1.1696406602859497,
                -0.36337536573410034,
                0.597032368183136,
                2.6096484661102295,
                2.977969169616699,
                0.812073826789856,
                -0.5278257131576538,
                0.1911574900150299,
                0.18291597068309784,
                -0.25739768147468567,
                -0.0926094800233841,
                -0.48515260219573975,
                -0.6188669204711914,
                0.18476319313049316,
                1.4726773500442505,
                1.136866807937622,
                1.646498441696167,
                0.6479650735855103,
                -1.2917536497116089,
                -1.3319382667541504,
                0.09386780112981796,
                0.1531752347946167,
                1.9682050943374634,
                -0.703805685043335,
                1.644349217414856,
                -1.5443006753921509,
                -0.8111952543258667,
                -1.7004883289337158,
                -1.4520257711410522,
                0.9793552756309509,
                -1.140075445175171,
                2.9324731826782227,
                1.476732850074768,
                -0.6320003271102905,
                -0.38604292273521423,
                -0.6662017703056335,
                0.21990124881267548,
                1.3621264696121216,
                0.23066893219947815,
                0.8437662720680237,
                -1.8232120275497437,
                -1.055849552154541,
                0.3339574635028839,
                0.020163802430033684,
                -1.0431976318359375,
                0.14994342625141144,
                -1.4626163244247437,
                -2.1601758003234863,
                -0.24945314228534698,
                -0.13333944976329803,
                -1.0676759481430054,
                -0.7084465026855469,
                -0.09679082781076431,
                -1.2485500574111938,
                -1.0446840524673462,
                0.37826400995254517,
                0.7359846830368042,
                -0.05549473315477371,
                0.1096414178609848,
                -0.6098430156707764,
                -0.7138816118240356,
                0.4046368896961212,
                -1.3204954862594604,
                -1.2538584470748901,
                -0.4583503305912018,
                -0.23038440942764282,
                1.0237047672271729,
                -0.40004488825798035,
                -1.4799845218658447,
                -0.300081342458725,
                0.37869709730148315,
                -1.5906497240066528,
                0.10332823544740677,
                -1.9649959802627563,
                -0.35795658826828003,
                -1.4932664632797241,
                0.27563807368278503,
                0.5554296970367432,
                -1.5153553485870361,
                0.16197195649147034,
                -0.31325143575668335,
                0.15646247565746307,
                1.0041556358337402,
                0.5223931670188904,
                -0.6141113638877869,
                2.209408760070801,
                -0.08114100992679596,
                0.6578640341758728,
                -0.2142973244190216,
                -0.4128280580043793,
                -0.4269203841686249,
                -1.2892496585845947,
                -1.433343529701233,
                0.37728044390678406,
                -0.31265494227409363,
                0.780365526676178,
                -0.7538012862205505,
                -0.2040019929409027,
                -1.8924261331558228,
                -0.30728787183761597,
                -0.39772140979766846,
                -0.28763914108276367,
                0.7657088041305542,
                0.27867642045021057,
                -0.27195724844932556,
                -2.4902594089508057,
                -0.42644885182380676,
                -0.2800818383693695,
                -0.29656320810317993,
                -0.04385003820061684,
                0.9463741779327393,
                -0.14605583250522614,
                -1.1991502046585083,
                2.3653225898742676,
                1.9713282585144043,
                1.0491739511489868,
                2.1746315956115723,
                -1.1179739236831665,
                -0.8268200159072876,
                0.1680229753255844,
                1.557189702987671,
                0.12960755825042725,
                -1.522266149520874,
                1.875885009765625,
                -0.17276044189929962,
                0.5259228944778442,
                1.0006747245788574,
                0.9939036965370178,
                1.505749225616455,
                0.5101125836372375,
                0.4576058089733124,
                -0.4364243745803833,
                0.2751646637916565,
                1.2933111190795898,
                0.2977375388145447,
                3.5053646564483643,
                0.018509667366743088,
                1.5924206972122192,
                1.6274054050445557,
                1.7584705352783203,
                -0.3611917197704315,
                1.0288329124450684,
                -1.5544488430023193,
                2.079927682876587,
                1.9615246057510376,
                -0.03157888352870941,
                -0.39121997356414795,
                -2.223187208175659,
                0.13127633929252625,
                -0.42566004395484924,
                -1.2573521137237549,
                0.003085013711825013,
                -0.7265780568122864,
                2.028125047683716,
                -1.7790334224700928,
                1.2604012489318848,
                -0.7711703181266785,
                0.18847881257534027,
                0.2530886232852936,
                -0.1970217376947403,
                0.2700371742248535,
                1.0703500509262085,
                1.359641432762146,
                2.298287868499756,
                -1.2413769960403442,
                -2.6410346031188965,
                0.9085431694984436,
                -0.05490235984325409,
                0.03062267042696476,
                -0.8697326183319092,
                -1.6231722831726074,
                -0.11563524603843689,
                1.277814507484436,
                1.2428388595581055,
                1.0137355327606201,
                -2.233917713165283,
                0.604403018951416,
                0.5263004899024963,
                0.3876364231109619,
                0.2151605188846588,
                1.5521104335784912,
                0.8079249262809753,
                -1.6349815130233765,
                0.7793079614639282,
                0.7508242726325989,
                0.02344515174627304,
                2.0409369468688965,
                0.26731041073799133
            ]
        },
        "embedding_layers.2.weight": {
            "shape": [
                172,
                9
            ],
            "data": [
                -0.1886853724718094,
                -1.343342900276184,
                -0.08620206266641617,
                -0.9288284778594971,
                -1.0373177528381348,
                0.03425465151667595,
                -0.7924315333366394,
                -1.8245093822479248,
                -1.9435834884643555,
                -0.4413943588733673,
                0.5566555857658386,
                0.8102174401283264,
                -1.290327548980713,
                0.48998746275901794,
                1.021875262260437,
                0.30932125449180603,
                1.481271743774414,
                -0.10790631920099258,
                -0.7951479554176331,
                -1.0818065404891968,
                2.283094644546509,
                0.7560096383094788,
                2.142906665802002,
                0.6595845818519592,
                -1.017952561378479,
                -1.047652006149292,
                1.1382333040237427,
                -2.3152997493743896,
                -1.4158536195755005,
                1.0044611692428589,
                0.8242002725601196,
                0.8817106485366821,
                0.6733307838439941,
                0.5853163599967957,
                -1.0643576383590698,
                2.146536111831665,
                -0.027203287929296494,
                0.31141912937164307,
                0.07808244973421097,
                -1.7130595445632935,
                -0.34827813506126404,
                -0.6193360090255737,
                0.23746266961097717,
                -0.6991755366325378,
                -0.5349332094192505,
                0.8303593993186951,
                -0.973889946937561,
                -0.2112761288881302,
                1.661692500114441,
                2.177236795425415,
                0.5760753750801086,
                -0.4523791968822479,
                1.494315505027771,
                0.15651357173919678,
                -2.032067060470581,
                0.036902014166116714,
                1.2564882040023804,
                -1.4262096881866455,
                0.4837284982204437,
                -0.2762620449066162,
                -0.5706623792648315,
                -0.0044191814959049225,
                1.1704992055892944,
                -0.3555281460285187,
                -2.316826581954956,
                2.276238203048706,
                0.14800389111042023,
                -0.8991065621376038,
                -0.707049548625946,
                -0.6020618677139282,
                0.8688409924507141,
                0.8747054934501648,
                -0.6442715525627136,
                0.9577623605728149,
                0.597324013710022,
                0.32278865575790405,
                -2.2303335666656494,
                0.3729829490184784,
                -2.19061279296875,
                -0.05965869128704071,
                1.4320147037506104,
                -1.086379885673523,
                -0.16270753741264343,
                2.033188819885254,
                0.914386510848999,
                -0.8061378002166748,
                -1.0902172327041626,
                -1.3075616359710693,
                0.9643394947052002,
                1.2903013229370117,
                -1.6657121181488037,
                0.2805415689945221,
                -0.11685221642255783,
                -0.5596141219139099,
                -0.6227456331253052,
                0.20830264687538147,
                -0.2926918566226959,
                -0.08144234120845795,
                1.0308269262313843,
                0.4211265444755554,
                -2.501335859298706,
                0.7878087759017944,
                0.20736047625541687,
                0.9204928874969482,
                -0.04334022104740143,
                0.7546108365058899,
                -0.45877331495285034,
                0.3040812909603119,
                -0.5015339851379395,
                0.5595781207084656,
                -0.3924538493156433,
                -1.4024450778961182,
                0.5041199922561646,
                -0.348723828792572,
                2.1099894046783447,
                0.7461303472518921,
                1.0684441328048706,
                -1.2487461566925049,
                -0.0005998517735861242,
                1.4199882745742798,
                -0.539444625377655,
                2.3261942863464355,
                -0.7289848923683167,
                0.31507956981658936,
                0.8955516815185547,
                0.2612720727920532,
                -1.2915940284729004,
                2.304935932159424,
                0.8093734979629517,
                0.2672436535358429,
                0.6810564994812012,
                -0.6207016110420227,
                0.21812821924686432,
                -1.6196922063827515,
                -0.057746436446905136,
                -0.16937550902366638,
                -0.22636443376541138,
                0.4504595100879669,
                1.0660755634307861,
                0.27308905124664307,
                -0.7520318031311035,
                1.0546101331710815,
                -0.1874595284461975,
                -0.21139049530029297,
                -0.8053252100944519,
                -1.246906042098999,
                0.570295512676239,
                -0.05988368019461632,
                0.6491740942001343,
                -0.25630927085876465,
                -1.1270394325256348,
                1.8596808910369873,
                0.8375782370567322,
                -1.0188690423965454,
                1.160293698310852,
                -1.0045629739761353,
                -0.10973858088254929,
                -1.125159740447998,
                0.8949846029281616,
                0.13587871193885803,
                -0.05703967809677124,
                -0.17788909375667572,
                0.7621986865997314,
                1.1633938550949097,
                0.32953178882598877,
                0.06024201959371567,
                0.8127498030662537,
                -0.8946083188056946,
                -1.7966396808624268,
                1.5414965152740479,
                -0.4129261076450348,
                -0.45433083176612854,
                -1.0009206533432007,
                0.5510295629501343,
                0.22432023286819458,
                0.6700556874275208,
                0.7181853652000427,
                -0.6027936339378357,
                0.04652836173772812,
                -1.6261732578277588,
                -0.042426854372024536,
                0.20392069220542908,
                0.5556157827377319,
                0.04836864769458771,
                1.0685958862304688,
                -0.6334099769592285,
                -1.4006885290145874,
                -0.24107186496257782,
                -0.34287258982658386,
                -0.4225570559501648,
                0.1369866132736206,
                0.5770469307899475,
                1.1250605583190918,
                0.58758944272995,
                -0.37663793563842773,
                0.5327465534210205,
                0.4098333418369293,
                1.428507685661316,
                1.0617619752883911,
                0.4093472957611084,
                0.17256926000118256,
                -0.13229139149188995,
                -1.652144432067871,
                -0.10041962563991547,
                0.538690984249115,
                -0.42277368903160095,
                0.7100611329078674,
                0.7479234933853149,
                -0.4578259587287903,
                -0.6956217885017395,
                -0.5448357462882996,
                1.1739540100097656,
                1.5263535976409912,
                -1.0596773624420166,
                -0.6161366701126099,
                0.035865917801856995,
                -0.13147899508476257,
                -0.5418221950531006,
                2.1211330890655518,
                0.8108654618263245,
                -0.7755700945854187,
                0.1425950527191162,
                -1.6099635362625122,
                0.4732596278190613,
                0.4249635934829712,
                -0.38918787240982056,
                -1.4012395143508911,
                -0.8729439973831177,
                -0.22645996510982513,
                0.8406263589859009,
                -0.6044027805328369,
                -0.19574862718582153,
                -0.9365135431289673,
                1.839810848236084,
                -0.48992496728897095,
                -0.3404872417449951,
                0.7497667074203491,
                0.7720080018043518,
                1.4739162921905518,
                -0.6301335692405701,
                -1.3534144163131714,
                0.9031969308853149,
                -1.5212174654006958,
                0.6273226141929626,
                -0.5463678240776062,
                -0.09657171368598938,
                -1.6892163753509521,
                -0.30411484837532043,
                0.3214753270149231,
                1.1263370513916016,
                0.5688344240188599,
                -1.0385208129882812,
                -0.3103097677230835,
                -1.125349521636963,
                0.6701115965843201,
                -1.016420841217041,
                1.318896770477295,
                0.7428523302078247,
                -0.1775006651878357,
                -0.4127088487148285,
                0.8652253746986389,
                0.25783011317253113,
                1.296420931816101,
                -1.256622076034546,
                0.4634563624858856,
                -0.5723869204521179,
                -1.0552055835723877,
                1.233096718788147,
                -0.9879804253578186,
                1.1905347108840942,
                -0.0752401351928711,
                0.1370428204536438,
                -1.4835904836654663,
                0.01056139636784792,
                -0.33177080750465393,
                0.27571800351142883,
                0.46507528424263,
                -0.3718433380126953,
                -0.8723041415214539,
                -1.9900457859039307,
                -0.5046727061271667,
                -0.6080558896064758,
                -1.1011511087417603,
                -0.3378654420375824,
                -0.41933706402778625,
                0.8881778120994568,
                0.9422295689582825,
                0.3813551366329193,
                0.6473756432533264,
                0.07629561424255371,
                0.9832439422607422,
                -0.25988927483558655,
                1.1908742189407349,
                -0.9474071860313416,
                1.854759693145752,
                0.5123150944709778,
                -0.45017123222351074,
                -0.5048067569732666,
                1.0088894367218018,
                -0.6553640365600586,
                0.5769570469856262,
                -0.18519733846187592,
                -0.25155025720596313,
                1.070376992225647,
                -1.0429589748382568,
                -0.5830153226852417,
                0.4416655898094177,
                -1.7798426151275635,
                0.6182857155799866,
                -0.39127835631370544,
                -0.5559564232826233,
                0.24415874481201172,
                0.6610965132713318,
                -1.524769902229309,
                -1.489885926246643,
                -0.2499428242444992,
                -0.07020504027605057,
                -1.225811243057251,
                -0.21167606115341187,
                -1.6103626489639282,
                -0.20316076278686523,
                -0.7040902972221375,
                0.40964245796203613,
                -0.6162897348403931,
                0.31874027848243713,
                -0.8241959810256958,
                -0.20867738127708435,
                0.26096969842910767,
                -2.12678599357605,
                -0.11261330544948578,
                -0.9408049583435059,
                1.3173396587371826,
                0.5254806280136108,
                1.1946595907211304,
                0.7735423445701599,
                1.446124792098999,
                -1.6715788841247559,
                0.12863178551197052,
                -0.6302821636199951,
                -1.3738259077072144,
                0.8400731682777405,
                -0.5034120082855225,
                -0.3745386004447937,
                -0.4401818513870239,
                -0.4065805971622467,
                -0.9073024392127991,
                1.0406310558319092,
                0.9709909558296204,
                0.2753605246543884,
                -1.642746090888977,
                -1.1220868825912476,
                1.3572369813919067,
                0.45822209119796753,
                0.13672208786010742,
                -1.2361007928848267,
                -0.49954748153686523,
                0.1973143368959427,
                0.26410138607025146,
                1.4140288829803467,
                -0.04829487204551697,
                1.033854603767395,
                0.7607823014259338,
                0.7727549076080322,
                0.07886868715286255,
                0.5290129780769348,
                1.1330246925354004,
                -0.3765239417552948,
                1.0338398218154907,
                0.7399364709854126,
                0.5346359014511108,
                -0.323250949382782,
                -0.42181673645973206,
                0.071550652384758,
                0.996015191078186,
                -1.244507908821106,
                0.36388158798217773,
                -0.2684674859046936,
                0.8336875438690186,
                -0.11157365143299103,
                0.7888159155845642,
                -3.324455499649048,
                -0.2869706451892853,
                -0.09488219022750854,
                -0.1174558475613594,
                -1.2059855461120605,
                -0.5208887457847595,
                0.23610347509384155,
                0.05514282360672951,
                -0.2648245394229889,
                0.042022112756967545,
                0.08802849054336548,
                -0.005010673310607672,
                1.0135551691055298,
                -0.5572978258132935,
                0.7331117391586304,
                -1.6508604288101196,
                -0.014720693230628967,
                0.2794535756111145,
                -0.6154441237449646,
                1.0977246761322021,
                1.08656644821167,
                2.1162185668945312,
                0.3392060101032257,
                1.2054699659347534,
                -2.055294990539551,
                1.3655744791030884,
                -1.7043921947479248,
                0.5814465284347534,
                1.1742340326309204,
                0.7094179391860962,
                0.47774964570999146,
                -1.3328876495361328,
                -2.208862543106079,
                -0.7307702898979187,
                0.14416801929473877,
                -0.17806018888950348,
                -0.48218268156051636,
                -0.6191163063049316,
                1.3795326948165894,
                -0.24436217546463013,
                0.23162829875946045,
                0.028102995827794075,
                0.7148116230964661,
                0.8208891153335571,
                -1.2051912546157837,
                -0.5316480398178101,
                -0.5548499822616577,
                1.4508497714996338,
                0.7159032225608826,
                0.1377229243516922,
                -0.22574202716350555,
                0.142238587141037,
                -1.4911808967590332,
                0.14007534086704254,
                0.5564534068107605,
                0.08419474959373474,
                -1.2158159017562866,
                -0.3258386254310608,
                -0.8984853029251099,
                0.9183017015457153,
                1.1560345888137817,
                0.4788226783275604,
                1.2021985054016113,
                0.397246778011322,
                -0.48031094670295715,
                -0.6053073406219482,
                -1.042588710784912,
                -0.24755430221557617,
                -0.12846523523330688,
                -1.7861827611923218,
                -1.8865761756896973,
                0.12696143984794617,
                -2.053954839706421,
                1.0949598550796509,
                -0.46501490473747253,
                -0.708526611328125,
                0.22566592693328857,
                -0.9148979187011719,
                0.8261058926582336,
                1.2481014728546143,
                -0.11971702426671982,
                -2.1941096782684326,
                1.3374593257904053,
                0.8037726879119873,
                1.242261290550232,
                1.3161083459854126,
                0.27231547236442566,
                -2.4364736080169678,
                1.4145584106445312,
                -1.5795001983642578,
                1.1250414848327637,
                0.05902348831295967,
                0.14505891501903534,
                -1.1055479049682617,
                -0.23094134032726288,
                0.45503684878349304,
                0.5282953381538391,
                0.7350367903709412,
                0.6463255286216736,
                1.4362082481384277,
                1.152268648147583,
                0.5725968480110168,
                -0.010151058435440063,
                0.46665987372398376,
                0.838110625743866,
                1.6375916004180908,
                -1.2669892311096191,
                0.44460710883140564,
                0.2683563530445099,
                -0.9053393006324768,
                2.1078224182128906,
                -1.3184982538223267,
                -0.6186689138412476,
                -1.9645798206329346,
                0.03681279718875885,
                1.8135212659835815,
                0.753259003162384,
                -1.2947301864624023,
                -0.0696316733956337,
                1.257164716720581,
                0.5758781433105469,
                0.3659479320049286,
                -0.8173443078994751,
                0.01643350161612034,
                -0.6788308024406433,
                1.352247714996338,
                -0.1149308905005455,
                0.9107042551040649,
                0.2569217383861542,
                -1.1243246793746948,
                -1.0781526565551758,
                0.06672976911067963,
                0.37199538946151733,
                1.8043735027313232,
                0.17210164666175842,
                -1.4148398637771606,
                -0.048701170831918716,
                -1.97648286819458,
                -0.591414213180542,
                -0.6118307709693909,
                -0.08612686395645142,
                -0.06597641855478287,
                -0.8285199403762817,
                -0.8966327905654907,
                -1.2004069089889526,
                -0.03641578555107117,
                -0.8231450319290161,
                0.06107906252145767,
                0.47825634479522705,
                0.3875034749507904,
                -1.3481680154800415,
                0.4490651786327362,
                -0.6052549481391907,
                0.051684290170669556,
                -1.0011203289031982,
                0.8623407483100891,
                0.733444333076477,
                0.8119868040084839,
                0.6777541637420654,
                -0.19207440316677094,
                -0.7190552353858948,
                0.3967592418193817,
                -0.6584571003913879,
                0.7901198267936707,
                -0.3282224237918854,
                -0.7389758825302124,
                -1.165143609046936,
                -0.42214882373809814,
                0.07824911922216415,
                -1.5401151180267334,
                0.8424394130706787,
                0.3874702751636505,
                -0.06548843532800674,
                0.6747198104858398,
                1.184589147567749,
                0.28538447618484497,
                -0.2122514694929123,
                1.5079798698425293,
                -0.6962056756019592,
                -0.1566685438156128,
                0.6982685327529907,
                -0.7407150864601135,
                -0.19303444027900696,
                -0.41378480195999146,
                -0.08140596747398376,
                0.46595823764801025,
                -1.4598474502563477,
                -0.5358881950378418,
                0.018757924437522888,
                0.45938393473625183,
                -0.39975884556770325,
                -0.1073300912976265,
                -0.6269652843475342,
                -1.049137830734253,
                0.4592602550983429,
                0.17340153455734253,
                -1.9565807580947876,
                -0.9478127956390381,
                -0.12512537837028503,
                -0.4497833251953125,
                -0.8802905678749084,
                0.8440582156181335,
                -0.020985329523682594,
                -0.13336585462093353,
                -1.1475660800933838,
                -0.6342217326164246,
                -1.7776436805725098,
                0.4349289536476135,
                1.227080225944519,
                0.22259627282619476,
                -0.8444885611534119,
                -0.10127449780702591,
                0.7533238530158997,
                -0.12944355607032776,
                1.5503770112991333,
                -0.2509808838367462,
                -0.4523661732673645,
                0.45375484228134155,
                -0.4561775326728821,
                0.39095479249954224,
                -0.33896490931510925,
                1.0659258365631104,
                -0.6285413503646851,
                1.0236554145812988,
                0.4509510099887848,
                1.2312064170837402,
                0.7101618647575378,
                -0.927012026309967,
                0.8024707436561584,
                1.0707298517227173,
                -0.9725701808929443,
                -0.6591382622718811,
                -1.160439372062683,
                1.9001195430755615,
                1.0886056423187256,
                1.8867210149765015,
                1.603668212890625,
                -0.36724767088890076,
                0.07739336788654327,
                0.13817037642002106,
                0.1413469761610031,
                -0.9536312222480774,
                -0.5150133371353149,
                0.7100924253463745,
                0.2355516105890274,
                -0.47065702080726624,
                0.2218964546918869,
                0.9982630610466003,
                0.36760827898979187,
                -0.7983523011207581,
                0.03627656400203705,
                -0.5482001900672913,
                1.0251177549362183,
                0.13416267931461334,
                1.0410833358764648,
                0.5900011658668518,
                -0.10062368214130402,
                -1.9044709205627441,
                -0.6382115483283997,
                -0.6162682175636292,
                0.2773584723472595,
                2.777339220046997,
                -1.1400071382522583,
                -0.7359198331832886,
                -0.727947473526001,
                -1.425141453742981,
                1.4976606369018555,
                0.2428705394268036,
                -0.23828206956386566,
                -0.5641338229179382,
                -0.9142051339149475,
                -0.9787114858627319,
                -0.45879241824150085,
                -1.4949673414230347,
                -0.7825440764427185,
                -0.13795669376850128,
                -0.025944849476218224,
                -0.3062928318977356,
                1.5069353580474854,
                -0.14674310386180878,
                0.1648990362882614,
                1.6852537393569946,
                -0.6608704328536987,
                -0.03165372833609581,
                -0.15729716420173645,
                0.812617301940918,
                0.6962041258811951,
                0.0737551674246788,
                -0.8647486567497253,
                0.3526087701320648,
                0.47035810351371765,
                -0.6653695106506348,
                -0.35792970657348633,
                0.05531994253396988,
                1.1594370603561401,
                -0.4217296838760376,
                0.91612309217453,
                1.0105851888656616,
                1.4946070909500122,
                -0.8994237184524536,
                0.03398360311985016,
                0.07475490123033524,
                -1.9128373861312866,
                -1.0759494304656982,
                -0.3596438765525818,
                0.8206143379211426,
                -0.598684549331665,
                0.9535467624664307,
                -0.20310229063034058,
                -0.1616925150156021,
                -0.33983445167541504,
                -0.42395642399787903,
                -0.7378554940223694,
                1.1705577373504639,
                1.0185670852661133,
                1.6218280792236328,
                -0.26418423652648926,
                0.8111239075660706,
                -1.1241601705551147,
                -0.6205663084983826,
                0.533029317855835,
                0.9622794985771179,
                -0.3875459134578705,
                -1.9841563701629639,
                1.5535954236984253,
                -0.39443981647491455,
                -1.3920117616653442,
                -0.4666605293750763,
                -1.7768806219100952,
                1.5131322145462036,
                -0.9548183083534241,
                -0.3995327055454254,
                0.10069116950035095,
                -0.23260542750358582,
                -1.0195859670639038,
                -0.3291434347629547,
                1.8820440769195557,
                0.7297861576080322,
                -0.8576403856277466,
                0.9267943501472473,
                -0.05165791139006615,
                -0.3427543342113495,
                0.5583544969558716,
                0.75882488489151,
                0.8899314999580383,
                0.9134793877601624,
                1.2683228254318237,
                2.0947670936584473,
                0.5489416122436523,
                -0.7803635001182556,
                0.06650403887033463,
                -1.205893635749817,
                -0.42584702372550964,
                0.8703050017356873,
                0.7966581583023071,
                0.058273933827877045,
                -2.3037493228912354,
                -0.7943798303604126,
                -1.9861760139465332,
                0.11157064139842987,
                -0.41360756754875183,
                1.189328908920288,
                0.4018327295780182,
                -0.6130925416946411,
                0.6766389012336731,
                -1.086406946182251,
                0.6060538291931152,
                -2.2811641693115234,
                -1.5324890613555908,
                -0.7359936237335205,
                -0.23336997628211975,
                -1.1291167736053467,
                -0.08339541405439377,
                -0.8549098372459412,
                -0.0039006678853183985,
                0.02088082768023014,
                0.9750838875770569,
                -0.3184715509414673,
                -0.8188492655754089,
                3.4488580226898193,
                -2.117253303527832,
                -0.9359329342842102,
                -0.13997502624988556,
                1.16365385055542,
                0.68220055103302,
                -0.3549925684928894,
                -0.5458880662918091,
                -0.6763933300971985,
                -1.699756383895874,
                0.12705335021018982,
                -1.0872361660003662,
                2.918189764022827,
                0.12432955205440521,
                -0.008957918733358383,
                -0.9445169568061829,
                0.3546313941478729,
                0.13750450313091278,
                0.3481585383415222,
                1.4309495687484741,
                -0.5619729161262512,
                0.8435372114181519,
                1.2033411264419556,
                0.15767383575439453,
                -0.5774878263473511,
                -1.4489860534667969,
                1.078100562095642,
                -0.11800529807806015,
                0.4756096601486206,
                -0.8514427542686462,
                0.6894748210906982,
                0.5115631222724915,
                1.4331659078598022,
                -0.5601986646652222,
                -0.15343156456947327,
                0.02858888916671276,
                -0.7214605808258057,
                1.1557310819625854,
                1.0570696592330933,
                -0.6433748602867126,
                0.3552509546279907,
                0.1811838001012802,
                0.8864418268203735,
                0.20509234070777893,
                0.14311747252941132,
                1.7757765054702759,
                0.10713689774274826,
                -1.5927577018737793,
                -0.4450089633464813,
                0.03174544870853424,
                0.5389019846916199,
                1.6119294166564941,
                0.04247940704226494,
                0.20145320892333984,
                -1.753232717514038,
                -0.4182160496711731,
                0.31112661957740784,
                0.45989829301834106,
                -0.3965420722961426,
                0.4354727268218994,
                -0.2722097635269165,
                -0.16124491393566132,
                1.6056355237960815,
                0.4089547097682953,
                0.0006516848225146532,
                -0.8385668992996216,
                -0.9528384208679199,
                -0.4730168282985687,
                -0.016569778323173523,
                1.9539012908935547,
                0.5884467363357544,
                0.723519504070282,
                -0.8420584201812744,
                0.6981928944587708,
                -0.08723989129066467,
                0.29763132333755493,
                -0.2906065881252289,
                0.9618082046508789,
                -1.5305896997451782,
                0.8637576699256897,
                0.6216962933540344,
                0.17318494617938995,
                -0.4143200218677521,
                -0.296495646238327,
                0.09291233867406845,
                -0.4988555610179901,
                -1.06055748462677,
                -0.5023843050003052,
                0.7835701107978821,
                0.6030337810516357,
                0.0762326642870903,
                -0.949164092540741,
                0.13902772963047028,
                0.04966723918914795,
                0.837839663028717,
                0.47589409351348877,
                1.1232753992080688,
                -0.356109082698822,
                0.11046916991472244,
                1.1812978982925415,
                -0.07522865384817123,
                -1.4938716888427734,
                -0.2988132834434509,
                -0.38852328062057495,
                0.46409696340560913,
                0.3418797552585602,
                -0.5257198214530945,
                -0.35908955335617065,
                -0.26973628997802734,
                -0.01418288890272379,
                -0.6624113321304321,
                -0.8150440454483032,
                0.2868991196155548,
                1.3259613513946533,
                0.5775731801986694,
                0.6764413118362427,
                -0.6216239929199219,
                -0.5269721150398254,
                1.4464527368545532,
                -0.262186199426651,
                0.3389882743358612,
                0.9566702246665955,
                0.7434655427932739,
                -0.7448604702949524,
                0.2649048864841461,
                -1.7343312501907349,
                -1.0415959358215332,
                -2.180055856704712,
                -0.6335342526435852,
                1.8147385120391846,
                -1.1659085750579834,
                0.5699382424354553,
                -0.009554757736623287,
                -0.3631494343280792,
                -0.06765025854110718,
                0.2396155148744583,
                -1.8764482736587524,
                0.6660472750663757,
                0.8499079942703247,
                1.242486834526062,
                -1.3560956716537476,
                0.3281319737434387,
                -0.9470343589782715,
                -1.8176865577697754,
                0.24695251882076263,
                1.5531476736068726,
                -0.3032193183898926,
                -0.7848220467567444,
                0.8100919723510742,
                -0.41827359795570374,
                -0.7770222425460815,
                -0.3988918662071228,
                -1.3606868982315063,
                0.8788635730743408,
                2.113405466079712,
                0.33938947319984436,
                0.11934720724821091,
                -2.249763250350952,
                0.03216816112399101,
                -2.7391180992126465,
                -0.22993484139442444,
                0.20690330862998962,
                -0.32550737261772156,
                -0.5860857367515564,
                -1.0328272581100464,
                -0.5018515586853027,
                -0.11478819698095322,
                0.49124786257743835,
                -0.5954720973968506,
                -0.7995074391365051,
                2.367784023284912,
                -1.4174209833145142,
                0.2682662606239319,
                -1.3045810461044312,
                -0.12710155546665192,
                -1.0495132207870483,
                -1.0620726346969604,
                -2.626716136932373,
                1.5329078435897827,
                -0.5520576238632202,
                -0.010887766256928444,
                -1.1444205045700073,
                0.03247338905930519,
                0.5100836157798767,
                0.8184534907341003,
                1.5053865909576416,
                -2.1118533611297607,
                -0.03702252730727196,
                -0.45565512776374817,
                1.2620365619659424,
                1.7792936563491821,
                0.36127665638923645,
                0.48122861981391907,
                -1.9676501750946045,
                0.3083421587944031,
                -0.3378758430480957,
                -0.06373996287584305,
                -0.4489688277244568,
                -1.0187180042266846,
                -1.2104946374893188,
                0.556823194026947,
                0.4876363277435303,
                -0.04245368018746376,
                1.659387230873108,
                0.10309147834777832,
                -0.9635582566261292,
                -1.509516954421997,
                -0.369863897562027,
                1.846635341644287,
                1.3342361450195312,
                0.5905307531356812,
                0.05951089784502983,
                -0.3637711703777313,
                0.40889641642570496,
                -0.815489649772644,
                -1.5106863975524902,
                -0.34347736835479736,
                0.1653669774532318,
                -0.6278105974197388,
                -0.02391834929585457,
                -1.0158591270446777,
                -0.29515373706817627,
                -1.5323022603988647,
                0.04123367741703987,
                0.9762232303619385,
                -0.6727544069290161,
                2.100391149520874,
                1.1436878442764282,
                -1.0944024324417114,
                -2.2766664028167725,
                -0.9762343764305115,
                0.5908570885658264,
                -0.0363609679043293,
                3.0623557567596436,
                -0.5284479856491089,
                -1.2802079916000366,
                0.5399707555770874,
                -1.252406358718872,
                -0.5490590929985046,
                1.193838119506836,
                0.6208584904670715,
                0.08150003105401993,
                1.2897305488586426,
                -0.9340780973434448,
                1.3004229068756104,
                -0.8584067821502686,
                0.9631613492965698,
                0.9125703573226929,
                -0.38962340354919434,
                -0.6562086343765259,
                -1.4383734464645386,
                1.141257882118225,
                -1.1891987323760986,
                1.489997148513794,
                -1.1636812686920166,
                0.43634405732154846,
                1.954447627067566,
                -0.1546744704246521,
                1.229119896888733,
                -0.620809018611908,
                0.8158490061759949,
                0.36291515827178955,
                -0.23255373537540436,
                -0.5581727623939514,
                0.3814064860343933,
                -0.09902074187994003,
                -1.2098159790039062,
                -0.5484364628791809,
                -1.6378391981124878,
                0.7365124821662903,
                1.4207631349563599,
                -0.145030677318573,
                1.4122002124786377,
                -0.30636510252952576,
                1.3862234354019165,
                -0.9290233850479126,
                0.06190304458141327,
                -1.5412287712097168,
                -0.4113816022872925,
                -0.8182088732719421,
                -0.8253051042556763,
                0.46770086884498596,
                2.2392923831939697,
                -0.04896019026637077,
                1.0950305461883545,
                2.070187568664551,
                -0.533531665802002,
                -0.6526147723197937,
                -0.6157717704772949,
                -0.7179163098335266,
                0.9963873028755188,
                0.8466421961784363,
                -0.49014756083488464,
                0.42708584666252136,
                -1.5879569053649902,
                2.2785141468048096,
                -0.975247859954834,
                -0.7183717489242554,
                -0.7055308222770691,
                0.9324756860733032,
                0.49393367767333984,
                1.5073091983795166,
                0.5869840383529663,
                1.225551962852478,
                -0.6717464327812195,
                0.7514167428016663,
                -0.7208877801895142,
                -0.9461495876312256,
                -0.5409655570983887,
                0.3066615164279938,
                1.1663010120391846,
                1.6661192178726196,
                0.6910074353218079,
                0.841511607170105,
                2.512169122695923,
                1.795973539352417,
                -0.044004421681165695,
                -0.34425824880599976,
                1.5746010541915894,
                1.034640908241272,
                1.4180446863174438,
                0.2216712236404419,
                -0.29127007722854614,
                0.8437510132789612,
                1.4591964483261108,
                0.2602554261684418,
                -0.23814420402050018,
                -0.8472680449485779,
                -1.6921285390853882,
                1.167418360710144,
                -1.278648018836975,
                -0.4018835127353668,
                -1.533378005027771,
                -1.653610348701477,
                -1.0583382844924927,
                0.13597199320793152,
                -0.605182945728302,
                0.5614465475082397,
                -2.378434896469116,
                0.8630868196487427,
                -1.724190592765808,
                0.3073188066482544,
                -0.7606710195541382,
                0.5593389868736267,
                -0.9199539422988892,
                -0.010978452861309052,
                -0.006950179114937782,
                -0.22046802937984467,
                -0.6634069085121155,
                -0.5402631163597107,
                0.45299506187438965,
                1.2046723365783691,
                0.08683645725250244,
                0.8569488525390625,
                -0.3772798180580139,
                0.8622736930847168,
                -1.5318796634674072,
                1.0844393968582153,
                -1.5312330722808838,
                0.4726794362068176,
                -0.29889237880706787,
                0.16257326304912567,
                0.6724644899368286,
                0.9241684675216675,
                2.0496675968170166,
                0.3571300506591797,
                0.16128821671009064,
                0.17787818610668182,
                1.2049065828323364,
                0.03428129479289055,
                0.49804699420928955,
                -2.186270236968994,
                0.17701025307178497,
                0.08563515543937683,
                -0.24440012872219086,
                0.35028403997421265,
                2.113677501678467,
                0.9166532158851624,
                -0.783050000667572,
                -0.6806685328483582,
                -2.5385634899139404,
                0.6764235496520996,
                -1.288068413734436,
                0.04611700028181076,
                -2.7728514671325684,
                1.6891707181930542,
                0.5870493054389954,
                0.6134812235832214,
                -0.7165866494178772,
                -0.8680402636528015,
                -1.9855315685272217,
                0.6426870226860046,
                -1.0211528539657593,
                0.49510836601257324,
                -0.8708686232566833,
                -0.4615423083305359,
                0.9960585236549377,
                -1.127529263496399,
                -0.1638673096895218,
                0.45504093170166016,
                -1.1080424785614014,
                0.818486750125885,
                0.3966551423072815,
                0.7038212418556213,
                0.09193018823862076,
                -2.004072904586792,
                0.6553671360015869,
                -0.6435220837593079,
                -0.45844483375549316,
                -0.45339876413345337,
                -2.58209228515625,
                -0.888709306716919,
                0.5811402797698975,
                0.8775354623794556,
                -1.1782944202423096,
                -0.11021988838911057,
                -0.8748121857643127,
                -0.7507638335227966,
                -1.788021206855774,
                1.5303202867507935,
                1.1011908054351807,
                0.3956117331981659,
                -1.3792024850845337,
                0.5452083945274353,
                0.9691897630691528,
                -3.062391519546509,
                0.7506975531578064,
                0.7725972533226013,
                0.7060338854789734,
                -0.3136736750602722,
                1.2015031576156616,
                -0.846922755241394,
                -1.772576093673706,
                -0.5841739177703857,
                1.798609733581543,
                -0.9128853678703308,
                1.1087878942489624,
                -0.10499338060617447,
                -1.6734049320220947,
                0.18734422326087952,
                -0.1603572517633438,
                -0.061301399022340775,
                -0.5107670426368713,
                1.2949483394622803,
                -0.5772942900657654,
                0.18689395487308502,
                -0.40517303347587585,
                -0.035987738519907,
                0.6501955389976501,
                -1.0621839761734009,
                -0.9969230890274048,
                -0.4515257179737091,
                0.027213431894779205,
                -0.2943381071090698,
                0.062404222786426544,
                -0.69984370470047,
                -0.16620667278766632,
                0.14130030572414398,
                -0.20375652611255646,
                -0.894040584564209,
                0.11794046312570572,
                -0.9777095913887024,
                1.4508684873580933,
                0.27101051807403564,
                -3.476445198059082,
                -0.9936694502830505,
                -2.230252981185913,
                0.7427761554718018,
                -0.15629953145980835,
                -1.7794631719589233,
                -0.8988320231437683,
                -0.5890560150146484,
                0.7213289737701416,
                0.3325713574886322,
                0.1542597860097885,
                -0.708055853843689,
                0.6531310677528381,
                -0.6542829871177673,
                -1.7043218612670898,
                -0.2162073254585266,
                -0.5883748531341553,
                0.6357879042625427,
                -0.2757872939109802,
                -1.7028733491897583,
                1.4070522785186768,
                -1.5009450912475586,
                1.5139578580856323,
                0.48272010684013367,
                1.0225688219070435,
                0.6531866788864136,
                0.14316415786743164,
                0.7877591848373413,
                1.4250372648239136,
                0.9968195557594299,
                -0.4154106676578522,
                -0.5649694204330444,
                0.6998090744018555,
                1.4446496963500977,
                -0.6108093857765198,
                -0.2582557201385498,
                -1.1936460733413696,
                -2.214409589767456,
                1.2059355974197388,
                -0.3594612181186676,
                0.020624596625566483,
                0.3184396028518677,
                1.6616815328598022,
                0.8084689974784851,
                2.284383773803711,
                -0.3457967936992645,
                -1.694736361503601,
                -0.6769942045211792,
                -0.8900085091590881,
                0.5245615839958191,
                -1.4830169677734375,
                1.4155750274658203,
                0.8462677001953125,
                0.10622921586036682,
                -0.6731057167053223,
                -0.2232261300086975,
                -0.7720566391944885,
                -0.7583158016204834,
                0.3874422311782837,
                -0.7052950859069824,
                0.7143470048904419,
                -2.1100757122039795,
                0.7412425875663757,
                0.4577418267726898,
                -0.5522894859313965,
                0.2595508098602295,
                -1.0370409488677979,
                -0.6482086777687073,
                -1.0697929859161377,
                0.48854702711105347,
                -0.07241551578044891,
                0.688689649105072,
                0.6467231512069702,
                0.3307729661464691,
                -0.16598142683506012,
                -0.2085994929075241,
                -2.493110179901123,
                0.01790417544543743,
                -1.0322647094726562,
                -0.6435943245887756,
                0.9737900495529175,
                -0.03192375972867012,
                -0.07340975850820541,
                -0.16025814414024353,
                -0.6863808631896973,
                0.21789447963237762,
                0.4811705946922302,
                -0.225946307182312,
                0.8766745328903198,
                -0.18061433732509613,
                1.5452795028686523,
                -0.649939239025116,
                -0.15467455983161926,
                -1.5257443189620972,
                -0.8272863030433655,
                -1.4872708320617676,
                -1.0730888843536377,
                0.9329720735549927,
                0.6910998821258545,
                -1.2258286476135254,
                1.083388328552246,
                1.1954880952835083,
                0.008623196743428707,
                0.6366864442825317,
                0.6287714838981628,
                -1.0206762552261353,
                0.6156836152076721,
                -2.1371543407440186,
                0.3439682126045227,
                -1.2556546926498413,
                -2.067936658859253,
                0.1463756412267685,
                -0.001157767721451819,
                -0.2479853332042694,
                1.7974894046783447,
                0.4387013614177704,
                0.6489911079406738,
                -1.0472034215927124,
                -1.5411204099655151,
                -1.4807432889938354,
                -0.25873884558677673,
                -0.18038368225097656,
                -1.1255896091461182,
                1.1650995016098022,
                -0.29343628883361816,
                -0.061577897518873215,
                -1.2502793073654175,
                0.3737275004386902,
                -0.6770950555801392,
                0.29149484634399414,
                0.35691624879837036,
                -0.5827269554138184,
                1.1979788541793823,
                1.6856982707977295,
                1.3135569095611572,
                -1.0061430931091309,
                -0.8743695616722107,
                -0.9576464295387268,
                -0.034882768988609314,
                -2.154812812805176,
                -0.5231741070747375,
                1.1158173084259033,
                1.166836142539978,
                -0.29041409492492676,
                0.3157275915145874,
                1.9911831617355347,
                1.2567006349563599,
                -1.0675772428512573,
                -1.1616837978363037,
                0.4782075881958008,
                -0.18984127044677734,
                -0.5726563334465027,
                -0.808655321598053,
                -1.1015312671661377,
                0.9984719157218933,
                0.17159761488437653,
                0.44034770131111145,
                -0.055311866104602814,
                -0.32576149702072144,
                -0.5606042742729187,
                -0.5803251266479492,
                0.04851401224732399,
                -0.01040079165250063,
                1.5671359300613403,
                -0.7819130420684814,
                1.4232356548309326,
                -0.1568690985441208,
                -0.4123387932777405,
                0.5284066796302795,
                0.1680494099855423,
                -0.4736267328262329,
                -0.4719565808773041,
                0.12660683691501617,
                0.21403299272060394,
                -2.663118362426758,
                0.590380072593689,
                1.1970767974853516,
                1.1263400316238403,
                -1.4127397537231445,
                0.8289286494255066,
                0.06465830653905869,
                0.16214394569396973,
                -0.10020177811384201,
                0.3085491359233856,
                -0.7463659048080444,
                -0.3649326264858246,
                -0.009186219424009323,
                0.8117599487304688,
                -0.30577564239501953,
                0.5582948327064514,
                -0.011004934087395668,
                -0.6392017006874084,
                0.39981740713119507,
                1.2421280145645142,
                -1.2051646709442139,
                -0.31777048110961914,
                -0.20208115875720978,
                2.1527316570281982,
                0.07879655808210373,
                -1.3718963861465454,
                0.18393585085868835,
                -2.232431411743164,
                0.6536464691162109,
                0.4697674810886383,
                0.7276461124420166,
                1.3542134761810303,
                -0.6897584795951843,
                0.048040542751550674,
                0.6880792379379272,
                0.867188572883606,
                1.2965117692947388,
                -1.2990961074829102,
                1.1457791328430176,
                0.6169651746749878,
                0.23430868983268738,
                0.6373085379600525,
                -0.17751911282539368,
                0.006867100950330496,
                0.20696838200092316,
                0.15225856006145477,
                -0.18163028359413147,
                0.7967913150787354,
                -0.5932645797729492,
                -0.8096733093261719,
                0.23603612184524536,
                -1.0160229206085205,
                -0.005083038005977869,
                1.964491605758667,
                0.6003618240356445,
                -0.21965506672859192,
                1.2299401760101318,
                0.3334991931915283,
                0.8328986167907715,
                -0.24039113521575928,
                0.03565710410475731,
                -0.2502478361129761,
                -0.5024026036262512,
                -1.3838812112808228,
                -1.3807508945465088,
                -0.33373865485191345,
                -0.045524466782808304,
                0.7879422307014465,
                0.9481150507926941,
                -0.17615897953510284,
                0.32200589776039124,
                -0.8489410877227783,
                0.9028476476669312,
                0.1279909461736679,
                1.3566672801971436,
                2.124246120452881,
                -1.0186983346939087,
                0.980193018913269,
                -1.4471650123596191,
                1.38936448097229,
                0.3847375512123108,
                -0.009205342270433903,
                -0.10414746403694153,
                0.5786475539207458,
                -0.19651883840560913,
                -1.2736191749572754,
                -0.9043562412261963,
                -0.4932628273963928,
                -0.46131807565689087,
                0.6181427836418152,
                -1.1604887247085571,
                -0.26555612683296204,
                0.2810088098049164,
                -1.1859287023544312,
                0.6076017618179321,
                -0.9909758567810059,
                -0.9732779264450073,
                -0.5474601984024048,
                0.9794870615005493,
                -0.3629692792892456,
                -0.27811771631240845,
                -0.20222608745098114,
                0.2826535701751709,
                0.5647957921028137,
                -0.23696456849575043,
                -0.6650820970535278,
                1.126387119293213,
                -2.126953363418579,
                -0.3649566173553467,
                -0.012963551096618176,
                2.0182857513427734,
                1.1580965518951416,
                -2.828447103500366,
                -0.36140161752700806,
                0.48875391483306885,
                0.18992729485034943,
                1.0662996768951416,
                0.18457035720348358,
                0.4237889051437378,
                0.31896916031837463,
                -0.7105873227119446,
                1.879635214805603,
                1.7073081731796265,
                0.3378233015537262,
                0.3606671094894409,
                1.387550711631775,
                -0.09145624935626984,
                0.43171530961990356,
                -0.19917947053909302,
                -0.9573125243186951,
                0.7778703570365906,
                -0.5664011240005493,
                -0.37407922744750977,
                -0.9148070812225342,
                -0.39257729053497314,
                -0.21787363290786743,
                -1.2194592952728271,
                1.1196544170379639,
                1.3836129903793335,
                -0.3339597284793854,
                0.7440320253372192,
                -0.20998474955558777,
                0.14071957767009735,
                -1.4579063653945923,
                0.6496254801750183,
                0.36081331968307495,
                -1.3337210416793823,
                0.8862660527229309,
                1.8376004695892334,
                -0.5979934334754944,
                -0.8193762302398682
            ]
        },
        "embedding_layers.3.weight": {
            "shape": [
                157,
                9
            ],
            "data": [
                0.5550007224082947,
                -1.6441494226455688,
                0.5018570423126221,
                -0.7336130142211914,
                -0.9104404449462891,
                0.29431262612342834,
                0.35923802852630615,
                2.006490707397461,
                1.0892221927642822,
                -1.4474507570266724,
                1.190971851348877,
                -1.3464182615280151,
                0.29018133878707886,
                1.8174822330474854,
                0.8854154348373413,
                -1.846181869506836,
                -0.112624391913414,
                -1.285451054573059,
                -1.1104834079742432,
                0.22530615329742432,
                0.430521696805954,
                0.9014933705329895,
                -0.476616233587265,
                -0.0811016857624054,
                1.401893138885498,
                0.448603093624115,
                1.9224108457565308,
                -0.7308433055877686,
                -0.01416687946766615,
                0.6202970147132874,
                1.5226620435714722,
                -0.6887441277503967,
                1.0390691757202148,
                0.506300687789917,
                0.9846516251564026,
                0.9627492427825928,
                -1.6585228443145752,
                0.7551433444023132,
                1.6379932165145874,
                0.5912564396858215,
                0.5974358916282654,
                0.9475114345550537,
                -1.118050217628479,
                0.09935128688812256,
                -1.7575480937957764,
                -0.1343166083097458,
                1.7336498498916626,
                1.1678580045700073,
                1.6488456726074219,
                -0.9685884714126587,
                0.510925829410553,
                -1.9621431827545166,
                1.6068735122680664,
                1.9337446689605713,
                0.6986535787582397,
                0.3005390167236328,
                0.10430312156677246,
                0.2258588969707489,
                0.08897732943296432,
                0.25498485565185547,
                1.0189229249954224,
                0.5946773290634155,
                1.4037137031555176,
                0.9542322158813477,
                1.7280622720718384,
                -0.26020294427871704,
                1.7037872076034546,
                -0.10717421025037766,
                -1.3792827129364014,
                2.302765130996704,
                1.4332256317138672,
                -1.3809638023376465,
                -0.24091748893260956,
                -0.24937492609024048,
                -0.25011351704597473,
