{"tensor_map": {"mlp1.weight": {"shape": [10, 10], "data": [0.07940688729286194, 0.22462986409664154, 0.23340359330177307, 0.2505885362625122, 0.11475975811481476, 0.12236513942480087, -0.2216600477695465, -0.27141132950782776, -0.24168089032173157, 0.019750501960515976, 0.09824766963720322, -0.303770512342453, -0.04093122482299805, -0.2370120733976364, -0.26702120900154114, 0.200613871216774, -0.30093058943748474, -0.2613402009010315, -0.0092305364087224, 0.10022733360528946, -0.051440391689538956, -0.1599767655134201, 0.10907570272684097, 0.13755173981189728, 0.05387943983078003, 0.08268176764249802, 0.04788476228713989, -0.305245041847229, -0.16303686797618866, -0.2575833797454834, 0.26633796095848083, 0.1588178426027298, 0.1126481294631958, 0.06794164329767227, 0.34927624464035034, -0.2847714126110077, 0.021509647369384766, 0.0029428531415760517, -0.0038386776577681303, 0.003512847702950239, -0.019819088280200958, 0.20635248720645905, 0.11596719175577164, -0.056496914476156235, 0.24241401255130768, -0.030762087553739548, -0.24631038308143616, -0.16406406462192535, 0.028780320659279823, 0.21972210705280304, -0.013606272637844086, 0.10879672318696976, 0.08579716086387634, 0.25365930795669556, 0.15103639662265778, 0.2651485204696655, -0.22354167699813843, -0.1732528656721115, 0.1872858703136444, 0.19142043590545654, -0.12437748163938522, -0.3365641236305237, 0.23293843865394592, -0.006989153102040291, 0.14448560774326324, 0.09829318523406982, -0.28157371282577515, 0.00041816034354269505, -0.119269460439682, -0.22866623103618622, 0.17924700677394867, -0.018888387829065323, 0.25226327776908875, 0.10044556111097336, 0.19444680213928223, 0.23421131074428558, -0.07106360793113708, 0.22772108018398285, -0.008037053048610687, 0.2294776886701584, 0.10009409487247467, 0.14059820771217346, 0.003306858241558075, -0.16172398626804352, -0.023007823154330254, -0.1830347776412964, 0.29102823138237, 0.27228260040283203, -0.052938949316740036, 0.07553470134735107, 0.0474611297249794, -0.09427021443843842, 0.2979860007762909, 0.023543858900666237, 0.23406805098056793, 0.21520526707172394, 0.040464162826538086, -0.18406818807125092, -0.05466841906309128, -0.2423621565103531]}, "mlp1.bias": {"shape": [10, 1], "data": [-0.15970781445503235, -0.25947311520576477, -0.20233194530010223, 0.25843971967697144, 0.3045031428337097, 0.186793714761734, -0.31094539165496826, 0.2312694489955902, 0.0858689546585083, -0.18886540830135345]}, "mlp2.weight": {"shape": [10, 2], "data": [0.11161573231220245, 0.25487345457077026, -0.12028218805789948, 0.03025178611278534, -0.1314045935869217, 0.019042860716581345, -0.24301785230636597, 0.23477663099765778, 0.21830905973911285, -0.3075374364852905, -0.22064019739627838, -0.1962384432554245, -0.06644244492053986, 0.26466962695121765, 0.1490613967180252, 0.22690728306770325, 0.0350031740963459, 0.15578943490982056, 0.14344161748886108, -0.10655275732278824]}, "mlp2.bias": {"shape": [2, 1], "data": [-0.2752009630203247, -0.20879317820072174]}, "input": {"shape": [1, 10], "data": [0.2673886151107332, 0.1901602654386858, 0.2813526878216739, 0.5938051197923223, 0.437602560748776, 0.22977303693361217, 0.8457980391569734, 0.09721837157633151, 0.37055342984700534, 0.46327827515853426]}}, "nodes": [{"op_type": "Gemm", "inputs": ["input", "mlp1.weight", "mlp1.bias"], "outputs": ["/mlp1/Gemm_output_0"], "attributes": {"alpha": 1.0, "beta": 1.0, "transB": 1}, "backward_inputs": ["gradient_2", "input", "mlp1.weight", "mlp1.bias"], "backward_outputs": ["gradient_3", "mlp1.weight.grad"]}, {"op_type": "Relu", "inputs": ["/mlp1/Gemm_output_0"], "outputs": ["/Relu_output_0"], "attributes": {}, "backward_inputs": ["gradient_1", "/mlp1/Gemm_output_0"], "backward_outputs": ["gradient_2"]}, {"op_type": "Gemm", "inputs": ["/Relu_output_0", "mlp2.weight", "mlp2.bias"], "outputs": ["/mlp2/Gemm_output_0"], "attributes": {"alpha": 1.0, "beta": 1.0, "transB": 1}, "backward_inputs": ["gradient_0", "/Relu_output_0", "mlp2.weight", "mlp2.bias"], "backward_outputs": ["gradient_1", "mlp2.weight.grad"]}, {"op_type": "Softmax", "inputs": ["/mlp2/Gemm_output_0"], "outputs": ["output"], "attributes": {"axis": 1}, "backward_inputs": ["gradient", "/mlp2/Gemm_output_0"], "backward_outputs": ["gradient_0"]}], "input_shape": [1, 10], "output_shape": [1, 2]}