{
    "tensor_map": {
        "mlp1.weight": {
            "shape": [
                10,
                10
            ],
            "data": [
                -0.1570730209350586,
                -0.05975569784641266,
                -0.18787312507629395,
                0.1949828863143921,
                0.15833494067192078,
                0.04068417102098465,
                0.10242652893066406,
                0.17619264125823975,
                -0.18809175491333008,
                -0.15784765779972076,
                0.3361658751964569,
                0.21993467211723328,
                -0.014413507655262947,
                0.3006872832775116,
                -0.04555011913180351,
                -0.2950221598148346,
                0.3268413543701172,
                -0.011066137813031673,
                -0.26836031675338745,
                0.22195680439472198,
                0.32292237877845764,
                0.013559526763856411,
                -0.19113750755786896,
                0.20930904150009155,
                -0.2416839748620987,
                -0.258266419172287,
                -0.2580760717391968,
                0.04211921989917755,
                0.04899267479777336,
                0.21608291566371918,
                0.38550180196762085,
                -0.08720814436674118,
                0.23458269238471985,
                0.1555045247077942,
                -0.1013394370675087,
                0.28391480445861816,
                0.29679733514785767,
                0.21690894663333893,
                -0.18579886853694916,
                0.2980450689792633,
                0.0182926207780838,
                -0.12700441479682922,
                -0.0702899843454361,
                -0.15210744738578796,
                -0.3271937072277069,
                0.15012134611606598,
                -0.08161167055368423,
                0.0278505589812994,
                0.060341883450746536,
                -0.13868993520736694,
                0.2735415995121002,
                -0.15039752423763275,
                0.31088608503341675,
                -0.32497456669807434,
                0.07742299884557724,
                -0.017225058749318123,
                0.1530485600233078,
                -0.20730040967464447,
                -0.29549041390419006,
                -0.313380628824234,
                -0.01633278653025627,
                -0.24968312680721283,
                0.21897032856941223,
                -0.1758447140455246,
                0.19733594357967377,
                0.29118603467941284,
                -0.23201827704906464,
                0.20056778192520142,
                0.012708904221653938,
                0.3081304132938385,
                0.28082552552223206,
                -0.24559113383293152,
                0.22034569084644318,
                0.10899511724710464,
                -0.07891988009214401,
                -0.296731173992157,
                -0.16531583666801453,
                -0.17273622751235962,
                -0.11949961632490158,
                -0.022876407951116562,
                -0.20803122222423553,
                0.08603428304195404,
                0.26575884222984314,
                0.28422778844833374,
                0.04854081943631172,
                0.05673036724328995,
                0.3134656250476837,
                0.016433583572506905,
                0.17078730463981628,
                0.35374757647514343,
                0.28983110189437866,
                0.19463950395584106,
                -0.24001190066337585,
                -0.1732219159603119,
                0.24528509378433228,
                -0.23968523740768433,
                0.23992379009723663,
                -0.003678297158330679,
                -0.23722797632217407,
                -0.26335689425468445
            ]
        },
        "mlp1.bias": {
            "shape": [
                10,
                1
            ],
            "data": [
                0.09132310003042221,
                0.3426605761051178,
                -0.0969461128115654,
                -0.15364262461662292,
                0.027154194191098213,
                0.27399399876594543,
                0.04748238995671272,
                -0.07690896093845367,
                0.21437449753284454,
                0.34318971633911133
            ]
        },
        "mlp2.weight": {
            "shape": [
                10,
                2
            ],
            "data": [
                0.11277669668197632,
                -0.13911467790603638,
                0.28311944007873535,
                -0.12538109719753265,
                -0.293260395526886,
                0.012400414794683456,
                0.0582706443965435,
                -0.32921990752220154,
                -0.023321861401200294,
                -0.037591319531202316,
                0.14716540277004242,
                -0.080739326775074,
                0.326520174741745,
                0.019695324823260307,
                -0.045984890311956406,
                0.02130725607275963,
                0.16574743390083313,
                -0.21045935153961182,
                -0.09486213326454163,
                -0.35568946599960327
            ]
        },
        "mlp2.bias": {
            "shape": [
                2,
                1
            ],
            "data": [
                -0.24653396010398865,
                0.1076837107539177
            ]
        },
        "input": {
            "shape": [
                1,
                10
            ],
            "data": [
                0.03280996276929837,
                0.9550685685734892,
                0.35002621974003345,
                0.7645397364807663,
                0.3055890338222299,
                0.14121190844489506,
                0.005851158081968122,
                0.12930871514889575,
                0.24238675868084925,
                0.9025927445620762
            ]
        }
    },
    "nodes": [
        {
            "op_type": "Gemm",
            "inputs": [
                "input",
                "mlp1.weight"
            ],
            "outputs": [
                "/mlp1/Gemm_output_0"
            ],
            "attributes": {
                "alpha": 1.0,
                "beta": 1.0,
                "transB": 1
            },
            "backward_inputs": [
                "gradient_2",
                "input",
                "mlp1.weight"
            ],
            "backward_outputs": [
                "gradient_3",
                "mlp1.weight.grad"
            ]
        },
        {
            "op_type": "Relu",
            "inputs": [
                "/mlp1/Gemm_output_0"
            ],
            "outputs": [
                "/Relu_output_0"
            ],
            "attributes": {},
            "backward_inputs": [
                "gradient_1",
                "/mlp1/Gemm_output_0"
            ],
            "backward_outputs": [
                "gradient_2"
            ]
        },
        {
            "op_type": "Gemm",
            "inputs": [
                "/Relu_output_0",
                "mlp2.weight"
            ],
            "outputs": [
                "/mlp2/Gemm_output_0"
            ],
            "attributes": {
                "alpha": 1.0,
                "beta": 1.0,
                "transB": 1
            },
            "backward_inputs": [
                "gradient_0",
                "/Relu_output_0",
                "mlp2.weight"
            ],
            "backward_outputs": [
                "gradient_1",
                "mlp2.weight.grad"
            ]
        },
        {
            "op_type": "Softmax",
            "inputs": [
                "/mlp2/Gemm_output_0"
            ],
            "outputs": [
                "output"
            ],
            "attributes": {
                "axis": [1]
            },
            "backward_inputs": [
                "gradient",
                "/mlp2/Gemm_output_0"
            ],
            "backward_outputs": [
                "gradient_0"
            ]
        }
    ],
    "input_shape": [
        1,
        10
    ],
    "output_shape": [
        1,
        2
    ]
}